char* sd_model_string=
"svm_type nu_svr\n"
"kernel_type rbf\n"
"gamma 7\n"
"nr_class 2\n"
"total_sv 1060\n"
"rho -0.187768\n"
"SV\n"
"-0.7363563768676624 1:0.2 2:0.2 3:0.2 4:0 \n"
"-1 1:0.2 2:0.2 3:0.4 4:0 \n"
"-0.5817626972471229 1:0.2 2:0.2 3:0.6 4:0 \n"
"-0.4178464036231969 1:0.2 2:0.25 3:0.7 4:0 \n"
"0.07807074474787239 1:0.2 2:0.3 3:0.4 4:0 \n"
"0.9523642403699546 1:0.2 2:0.55 3:0.7 4:0 \n"
"0.6398678471913775 1:0.2 2:0.65 3:0.2 4:0 \n"
"-1 1:0.2 2:0.75 3:0.2 4:0 \n"
"-1 1:0.2 2:0.75 3:0.4 4:0 \n"
"-0.4313097127070922 1:0.2 2:0.75 3:0.6 4:0 \n"
"-0.4870752319526939 1:0.2 2:0.75 3:0.8 4:0 \n"
"-0.6950639820227301 1:0.22 2:0.20512821 3:0.72727273 4:0 \n"
"0.9771153944690636 1:0.22 2:0.30769231 3:0.45454545 4:0 \n"
"0.4925134087753923 1:0.22 2:0.41025641 3:0.18181818 4:0 \n"
"-0.2487246380748831 1:0.22 2:0.79487179 3:0.18181818 4:0 \n"
"-1 1:0.22 2:0.79487179 3:0.36363636 4:0 \n"
"-0.6547084088405088 1:0.22 2:0.79487179 3:0.45454545 4:0 \n"
"-1 1:0.26 2:0.18918919 3:0.69230769 4:0 \n"
"0.6065056116371278 1:0.26 2:0.24324324 3:0.61538462 4:0 \n"
"0.1644717660251948 1:0.26 2:0.40540541 3:0.76923077 4:0 \n"
"1 1:0.26 2:0.7027027 3:0.30769231 4:0 \n"
"0.9898992118889675 1:0.26 2:0.75675676 3:0.38461538 4:0 \n"
"-0.9366794506156393 1:0.28 2:0.44444444 3:0.57142857 4:0 \n"
"-1 1:0.28 2:0.55555556 3:0.5 4:0 \n"
"0.8603145833954182 1:0.28 2:0.61111111 3:0.21428571 4:0 \n"
"1 1:0.28 2:0.69444444 3:0.42857143 4:0 \n"
"0.5396227936950618 1:0.3 2:0.2 3:0.4 4:0 \n"
"1 1:0.3 2:0.31428571 3:0.66666667 4:0 \n"
"1 1:0.3 2:0.71428571 3:0.4 4:0 \n"
"-1 1:0.3 2:0.8 3:0.2 4:0 \n"
"1 1:0.32 2:0.20588235 3:0.375 4:0 \n"
"0.8363269611810621 1:0.32 2:0.26470588 3:0.1875 4:0 \n"
"1 1:0.32 2:0.26470588 3:0.75 4:0 \n"
"1 1:0.32 2:0.41176471 3:0.3125 4:0 \n"
"-1 1:0.32 2:0.44117647 3:0.1875 4:0 \n"
"1 1:0.32 2:0.5 3:0.4375 4:0 \n"
"-1 1:0.32 2:0.55882353 3:0.8125 4:0 \n"
"1 1:0.32 2:0.70588235 3:0.375 4:0 \n"
"-0.2716257869415996 1:0.32 2:0.79411765 3:0.1875 4:0 \n"
"1 1:0.36 2:0.25 3:0.72222222 4:0 \n"
"0.9460857435038026 1:0.36 2:0.3125 3:0.44444444 4:0 \n"
"1 1:0.36 2:0.3125 3:0.55555556 4:0 \n"
"-1 1:0.36 2:0.34375 3:0.38888889 4:0 \n"
"-1 1:0.36 2:0.40625 3:0.33333333 4:0 \n"
"-1 1:0.36 2:0.5 3:0.44444444 4:0 \n"
"0.4666911153940065 1:0.38 2:0.19354839 3:0.21052632 4:0 \n"
"-0.3679093797612711 1:0.38 2:0.19354839 3:0.78947368 4:0 \n"
"-1 1:0.38 2:0.25806452 3:0.31578947 4:0 \n"
"-1 1:0.38 2:0.35483871 3:0.31578947 4:0 \n"
"-0.5244997336393352 1:0.38 2:0.38709677 3:0.36842105 4:0 \n"
"-0.5942033352043439 1:0.38 2:0.38709677 3:0.63157895 4:0 \n"
"0.6553693633612112 1:0.38 2:0.5483871 3:0.26315789 4:0 \n"
"1 1:0.38 2:0.5483871 3:0.57894737 4:0 \n"
"-0.9532572502392046 1:0.38 2:0.61290323 3:0.42105263 4:0 \n"
"-1 1:0.38 2:0.64516129 3:0.31578947 4:0 \n"
"0.9181216030006814 1:0.38 2:0.70967742 3:0.21052632 4:0 \n"
"0.8406182491140477 1:0.38 2:0.70967742 3:0.26315789 4:0 \n"
"1 1:0.4 2:0.3 3:0.3 4:0 \n"
"-0.9364696955414865 1:0.4 2:0.53333333 3:0.2 4:0 \n"
"-1 1:0.4 2:0.6 3:0.35 4:0 \n"
"-1 1:0.4 2:0.66666667 3:0.35 4:0 \n"
"0.658077614573009 1:0.4 2:0.7 3:0.75 4:0 \n"
"-0.9923478684628275 1:0.42 2:0.20689655 3:0.42857143 4:0 \n"
"1 1:0.42 2:0.24137931 3:0.28571429 4:0 \n"
"-1 1:0.42 2:0.24137931 3:0.80952381 4:0 \n"
"0.2745417674520128 1:0.42 2:0.31034483 3:0.71428571 4:0 \n"
"-1 1:0.42 2:0.34482759 3:0.47619048 4:0 \n"
"-1 1:0.42 2:0.34482759 3:0.61904762 4:0 \n"
"-0.8980326499738261 1:0.42 2:0.34482759 3:0.80952381 4:0 \n"
"0.07029237206620208 1:0.42 2:0.4137931 3:0.76190476 4:0 \n"
"1 1:0.42 2:0.44827586 3:0.47619048 4:0 \n"
"0.01638387273179614 1:0.42 2:0.55172414 3:0.76190476 4:0 \n"
"-0.9920292514815255 1:0.42 2:0.65517241 3:0.33333333 4:0 \n"
"0.2902237946267846 1:0.42 2:0.65517241 3:0.66666667 4:0 \n"
"1 1:0.42 2:0.75862069 3:0.76190476 4:0 \n"
"0.1906634538436009 1:0.42 2:0.79310345 3:0.57142857 4:0 \n"
"-0.04833178027831733 1:0.42 2:0.79310345 3:0.80952381 4:0 \n"
"-0.3907742563155945 1:0.46 2:0.18518519 3:0.2173913 4:0 \n"
"1 1:0.46 2:0.18518519 3:0.69565217 4:0 \n"
"-1 1:0.46 2:0.2962963 3:0.30434783 4:0 \n"
"-1 1:0.46 2:0.2962963 3:0.60869565 4:0 \n"
"1 1:0.46 2:0.40740741 3:0.43478261 4:0 \n"
"1 1:0.46 2:0.44444444 3:0.43478261 4:0 \n"
"-1 1:0.46 2:0.44444444 3:0.56521739 4:0 \n"
"-1 1:0.46 2:0.48148148 3:0.65217391 4:0 \n"
"-1 1:0.46 2:0.55555556 3:0.60869565 4:0 \n"
"1 1:0.46 2:0.55555556 3:0.65217391 4:0 \n"
"0.8448819072349042 1:0.46 2:0.59259259 3:0.47826087 4:0 \n"
"-0.3714223663291514 1:0.46 2:0.66666667 3:0.47826087 4:0 \n"
"-1 1:0.46 2:0.66666667 3:0.65217391 4:0 \n"
"0.4006138837863371 1:0.46 2:0.74074074 3:0.69565217 4:0 \n"
"0.0538378782246542 1:0.46 2:0.81481481 3:0.30434783 4:0 \n"
"-1 1:0.48 2:0.19230769 3:0.29166667 4:0 \n"
"0.01972706150638374 1:0.48 2:0.30769231 3:0.20833333 4:0 \n"
"-1 1:0.48 2:0.34615385 3:0.41666667 4:0 \n"
"0.851940977873443 1:0.48 2:0.34615385 3:0.54166667 4:0 \n"
"1 1:0.48 2:0.46153846 3:0.58333333 4:0 \n"
"1 1:0.48 2:0.76923077 3:0.33333333 4:0 \n"
"-1 1:0.48 2:0.80769231 3:0.79166667 4:0 \n"
"0.08737037115441017 1:0.5 2:0.2 3:0.72 4:0 \n"
"-0.4224730313050076 1:0.5 2:0.2 3:0.8 4:0 \n"
"1 1:0.5 2:0.32 3:0.76 4:0 \n"
"1 1:0.5 2:0.4 3:0.44 4:0 \n"
"-1 1:0.5 2:0.44 3:0.44 4:0 \n"
"0.6904008998969356 1:0.5 2:0.44 3:0.56 4:0 \n"
"-1 1:0.5 2:0.44 3:0.6 4:0 \n"
"-0.004380864230783311 1:0.5 2:0.64 3:0.56 4:0 \n"
"-1 1:0.5 2:0.72 3:0.8 4:0 \n"
"-1 1:0.5 2:0.8 3:0.48 4:0 \n"
"-0.6346423135556399 1:0.52 2:0.20833333 3:0.80769231 4:0 \n"
"0.9850633403914929 1:0.52 2:0.29166667 3:0.76923077 4:0 \n"
"1 1:0.52 2:0.33333333 3:0.30769231 4:0 \n"
"0.5949274112576541 1:0.52 2:0.33333333 3:0.46153846 4:0 \n"
"1 1:0.52 2:0.41666667 3:0.26923077 4:0 \n"
"1 1:0.52 2:0.45833333 3:0.30769231 4:0 \n"
"0.08668357542314302 1:0.52 2:0.5 3:0.19230769 4:0 \n"
"0.0517982341325497 1:0.52 2:0.5 3:0.65384615 4:0 \n"
"1 1:0.52 2:0.54166667 3:0.46153846 4:0 \n"
"-0.1280547510237239 1:0.52 2:0.66666667 3:0.19230769 4:0 \n"
"-0.3356880461332991 1:0.52 2:0.66666667 3:0.34615385 4:0 \n"
"-0.07575318986456843 1:0.56 2:0.18181818 3:0.60714286 4:0 \n"
"1 1:0.56 2:0.27272727 3:0.39285714 4:0 \n"
"-1 1:0.56 2:0.27272727 3:0.60714286 4:0 \n"
"-1 1:0.56 2:0.31818182 3:0.21428571 4:0 \n"
"-1 1:0.56 2:0.31818182 3:0.46428571 4:0 \n"
"-0.2905756973820707 1:0.56 2:0.36363636 3:0.21428571 4:0 \n"
"-1 1:0.56 2:0.36363636 3:0.46428571 4:0 \n"
"1 1:0.56 2:0.36363636 3:0.53571429 4:0 \n"
"-1 1:0.56 2:0.63636364 3:0.35714286 4:0 \n"
"1 1:0.56 2:0.68181818 3:0.75 4:0 \n"
"0.09348882192165238 1:0.56 2:0.77272727 3:0.64285714 4:0 \n"
"1 1:0.56 2:0.77272727 3:0.75 4:0 \n"
"0.3166998678005198 1:0.56 2:0.81818182 3:0.71428571 4:0 \n"
"-0.4260517271618464 1:0.58 2:0.19047619 3:0.44827586 4:0 \n"
"1 1:0.58 2:0.19047619 3:0.48275862 4:0 \n"
"1 1:0.58 2:0.23809524 3:0.4137931 4:0 \n"
"-0.9925301847251352 1:0.58 2:0.28571429 3:0.5862069 4:0 \n"
"0.6497271665147746 1:0.58 2:0.42857143 3:0.4137931 4:0 \n"
"1 1:0.58 2:0.66666667 3:0.75862069 4:0 \n"
"1 1:0.58 2:0.80952381 3:0.4137931 4:0 \n"
"-0.4717024472816282 1:0.58 2:0.80952381 3:0.44827586 4:0 \n"
"0.2854282084898161 1:0.58 2:0.80952381 3:0.55172414 4:0 \n"
"0.3310846395375033 1:0.6 2:0.35 3:0.43333333 4:0 \n"
"1 1:0.6 2:0.35 3:0.5 4:0 \n"
"1 1:0.6 2:0.35 3:0.53333333 4:0 \n"
"-1 1:0.6 2:0.45 3:0.4 4:0 \n"
"-1 1:0.6 2:0.5 3:0.6 4:0 \n"
"1 1:0.6 2:0.55 3:0.6 4:0 \n"
"1 1:0.6 2:0.6 3:0.3 4:0 \n"
"0.8821905929437969 1:0.6 2:0.65 3:0.3 4:0 \n"
"-1 1:0.6 2:0.65 3:0.66666667 4:0 \n"
"1 1:0.6 2:0.65 3:0.76666667 4:0 \n"
"-0.6060756704341599 1:0.6 2:0.65 3:0.8 4:0 \n"
"1 1:0.6 2:0.7 3:0.4 4:0 \n"
"1 1:0.6 2:0.7 3:0.43333333 4:0 \n"
"-0.004793770874371793 1:0.6 2:0.8 3:0.8 4:0 \n"
"1 1:0.62 2:0.21052632 3:0.29032258 4:0 \n"
"1 1:0.62 2:0.21052632 3:0.70967742 4:0 \n"
"1 1:0.62 2:0.21052632 3:0.74193548 4:0 \n"
"0.0299021110057953 1:0.62 2:0.31578947 3:0.48387097 4:0 \n"
"-1 1:0.62 2:0.42105263 3:0.5483871 4:0 \n"
"-0.1545424353917149 1:0.62 2:0.42105263 3:0.80645161 4:0 \n"
"1 1:0.62 2:0.47368421 3:0.74193548 4:0 \n"
"-0.2581478467317246 1:0.62 2:0.52631579 3:0.38709677 4:0 \n"
"0.5074921703322104 1:0.62 2:0.52631579 3:0.4516129 4:0 \n"
"-0.3437154540569268 1:0.62 2:0.57894737 3:0.29032258 4:0 \n"
"-1 1:0.62 2:0.57894737 3:0.80645161 4:0 \n"
"-1 1:0.62 2:0.63157895 3:0.38709677 4:0 \n"
"1 1:0.62 2:0.68421053 3:0.48387097 4:0 \n"
"-0.2442209513782373 1:0.62 2:0.73684211 3:0.64516129 4:0 \n"
"-1 1:0.62 2:0.78947368 3:0.70967742 4:0 \n"
"-1 1:0.62 2:0.78947368 3:0.80645161 4:0 \n"
"-1 1:0.66 2:0.17647059 3:0.63636364 4:0 \n"
"-1 1:0.66 2:0.29411765 3:0.48484848 4:0 \n"
"-1 1:0.66 2:0.35294118 3:0.45454545 4:0 \n"
"0.1524267994692118 1:0.66 2:0.41176471 3:0.3030303 4:0 \n"
"1 1:0.66 2:0.41176471 3:0.60606061 4:0 \n"
"0.2791149611531762 1:0.66 2:0.47058824 3:0.75757576 4:0 \n"
"1 1:0.66 2:0.52941176 3:0.24242424 4:0 \n"
"-1 1:0.66 2:0.52941176 3:0.45454545 4:0 \n"
"-1 1:0.66 2:0.58823529 3:0.21212121 4:0 \n"
"-1 1:0.66 2:0.58823529 3:0.54545455 4:0 \n"
"-1 1:0.66 2:0.70588235 3:0.36363636 4:0 \n"
"-0.6436259558106683 1:0.66 2:0.76470588 3:0.21212121 4:0 \n"
"-1 1:0.66 2:0.76470588 3:0.63636364 4:0 \n"
"0.1271433494957664 1:0.68 2:0.1875 3:0.5 4:0 \n"
"-1 1:0.68 2:0.1875 3:0.79411765 4:0 \n"
"-1 1:0.68 2:0.25 3:0.41176471 4:0 \n"
"-1 1:0.68 2:0.3125 3:0.55882353 4:0 \n"
"1 1:0.68 2:0.3125 3:0.70588235 4:0 \n"
"0.1480043942705204 1:0.68 2:0.375 3:0.70588235 4:0 \n"
"-1 1:0.68 2:0.4375 3:0.35294118 4:0 \n"
"0.9365230229594439 1:0.68 2:0.5625 3:0.5 4:0 \n"
"-0.008516292609770578 1:0.68 2:0.6875 3:0.44117647 4:0 \n"
"-1 1:0.68 2:0.6875 3:0.5 4:0 \n"
"-1 1:0.68 2:0.75 3:0.58823529 4:0 \n"
"1 1:0.68 2:0.8125 3:0.76470588 4:0 \n"
"-0.001432571849798507 1:0.68 2:0.8125 3:0.79411765 4:0 \n"
"-0.3554903896331749 1:0.7 2:0.26666667 3:0.54285714 4:0 \n"
"1 1:0.7 2:0.46666667 3:0.34285714 4:0 \n"
"-1 1:0.7 2:0.53333333 3:0.48571429 4:0 \n"
"1 1:0.7 2:0.6 3:0.45714286 4:0 \n"
"1 1:0.7 2:0.66666667 3:0.71428571 4:0 \n"
"-1 1:0.7 2:0.66666667 3:0.8 4:0 \n"
"-1 1:0.7 2:0.73333333 3:0.34285714 4:0 \n"
"0.2070556056571206 1:0.72 2:0.21428571 3:0.30555556 4:0 \n"
"-1 1:0.72 2:0.21428571 3:0.80555556 4:0 \n"
"1 1:0.72 2:0.28571429 3:0.55555556 4:0 \n"
"-0.9122445886983376 1:0.72 2:0.28571429 3:0.80555556 4:0 \n"
"-1 1:0.72 2:0.42857143 3:0.44444444 4:0 \n"
"1 1:0.72 2:0.64285714 3:0.30555556 4:0 \n"
"-1 1:0.72 2:0.71428571 3:0.44444444 4:0 \n"
"1 1:0.72 2:0.71428571 3:0.5 4:0 \n"
"1 1:0.72 2:0.78571429 3:0.75 4:0 \n"
"-1 1:0.72 2:0.78571429 3:0.80555556 4:0 \n"
"1 1:0.76 2:0.16666667 3:0.76315789 4:0 \n"
"-1 1:0.76 2:0.33333333 3:0.34210526 4:0 \n"
"1 1:0.76 2:0.41666667 3:0.34210526 4:0 \n"
"-1 1:0.76 2:0.41666667 3:0.5 4:0 \n"
"0.3432488098085674 1:0.76 2:0.5 3:0.60526316 4:0 \n"
"0.7462270587993467 1:0.76 2:0.75 3:0.34210526 4:0 \n"
"1 1:0.76 2:0.75 3:0.71052632 4:0 \n"
"0.3318962452637436 1:0.76 2:0.83333333 3:0.26315789 4:0 \n"
"0.3948659537459074 1:0.76 2:0.83333333 3:0.71052632 4:0 \n"
"0.2143333521924379 1:0.78 2:0.18181818 3:0.25641026 4:0 \n"
"-0.3407614661319019 1:0.78 2:0.27272727 3:0.46153846 4:0 \n"
"1 1:0.78 2:0.27272727 3:0.53846154 4:0 \n"
"-1 1:0.78 2:0.27272727 3:0.58974359 4:0 \n"
"-0.5288027535957321 1:0.78 2:0.27272727 3:0.69230769 4:0 \n"
"1 1:0.78 2:0.36363636 3:0.30769231 4:0 \n"
"1 1:0.78 2:0.45454545 3:0.46153846 4:0 \n"
"-1 1:0.78 2:0.63636364 3:0.41025641 4:0 \n"
"-0.04344357111417033 1:0.78 2:0.63636364 3:0.53846154 4:0 \n"
"1 1:0.78 2:0.63636364 3:0.58974359 4:0 \n"
"-1 1:0.78 2:0.63636364 3:0.69230769 4:0 \n"
"0.1994254430552846 1:0.78 2:0.81818182 3:0.58974359 4:0 \n"
"0.005659180594987566 1:0.78 2:0.81818182 3:0.69230769 4:0 \n"
"0.8381087643483256 1:0.8 2:0.2 3:0.5 4:0 \n"
"1 1:0.8 2:0.2 3:0.75 4:0 \n"
"-0.184642318063764 1:0.8 2:0.2 3:0.8 4:0 \n"
"1 1:0.8 2:0.3 3:0.45 4:0 \n"
"-1 1:0.8 2:0.3 3:0.55 4:0 \n"
"1 1:0.8 2:0.3 3:0.6 4:0 \n"
"-1 1:0.8 2:0.4 3:0.25 4:0 \n"
"0.585221005633252 1:0.8 2:0.5 3:0.5 4:0 \n"
"-1 1:0.8 2:0.6 3:0.7 4:0 \n"
"0.2941193604796581 1:0.8 2:0.6 3:0.8 4:0 \n"
"0.1592012573097206 1:0.8 2:0.7 3:0.2 4:0 \n"
"1 1:0.8 2:0.7 3:0.65 4:0 \n"
"-0.05520193805896165 1:0.8 2:0.8 3:0.3 4:0 \n"
"0.9676978202167011 1:0.8 2:0.8 3:0.5 4:0 \n"
"-1 1:0.8 2:0.8 3:0.65 4:0 \n"
"1 1:0.2 2:0.25 3:0.55 4:0.14285714 \n"
"1 1:0.2 2:0.25 3:0.75 4:0.14285714 \n"
"0.0135812449218331 1:0.2 2:0.25 3:0.8 4:0.14285714 \n"
"-0.8026014410769956 1:0.2 2:0.3 3:0.4 4:0.14285714 \n"
"-0.7685256146757016 1:0.2 2:0.3 3:0.6 4:0.14285714 \n"
"0.9775756677521732 1:0.2 2:0.35 3:0.4 4:0.14285714 \n"
"0.4012079565297025 1:0.2 2:0.35 3:0.8 4:0.14285714 \n"
"0.084205326941587 1:0.2 2:0.4 3:0.2 4:0.14285714 \n"
"-0.9325615875333091 1:0.2 2:0.6 3:0.25 4:0.14285714 \n"
"-0.5090757378913543 1:0.2 2:0.6 3:0.55 4:0.14285714 \n"
"0.3145545343993413 1:0.2 2:0.65 3:0.5 4:0.14285714 \n"
"1 1:0.2 2:0.7 3:0.25 4:0.14285714 \n"
"0.9013755166996397 1:0.2 2:0.7 3:0.5 4:0.14285714 \n"
"0.6994024769900444 1:0.2 2:0.7 3:0.8 4:0.14285714 \n"
"1 1:0.2 2:0.75 3:0.35 4:0.14285714 \n"
"-0.6235990890611504 1:0.2 2:0.8 3:0.65 4:0.14285714 \n"
"0.2958250027729296 1:0.23 2:0.4025974 3:0.30434783 4:0.14285714 \n"
"-0.2192056942899054 1:0.23 2:0.4025974 3:0.34782609 4:0.14285714 \n"
"-1 1:0.23 2:0.54545455 3:0.2173913 4:0.14285714 \n"
"-1 1:0.23 2:0.5974026 3:0.34782609 4:0.14285714 \n"
"0.8422731689814177 1:0.23 2:0.7012987 3:0.60869565 4:0.14285714 \n"
"1 1:0.23 2:0.75324675 3:0.2173913 4:0.14285714 \n"
"0.7191435535347683 1:0.23 2:0.75324675 3:0.26086957 4:0.14285714 \n"
"0.8036040151192584 1:0.25 2:0.2 3:0.32 4:0.14285714 \n"
"0.0531837268725287 1:0.25 2:0.2 3:0.48 4:0.14285714 \n"
"0.07948171232753268 1:0.25 2:0.25333333 3:0.72 4:0.14285714 \n"
"-1 1:0.25 2:0.30666667 3:0.48 4:0.14285714 \n"
"1 1:0.25 2:0.4 3:0.24 4:0.14285714 \n"
"-1 1:0.25 2:0.4 3:0.72 4:0.14285714 \n"
"-1 1:0.25 2:0.65333333 3:0.32 4:0.14285714 \n"
"-0.2889520237414525 1:0.25 2:0.8 3:0.2 4:0.14285714 \n"
"1 1:0.28 2:0.25 3:0.60714286 4:0.14285714 \n"
"1 1:0.28 2:0.69444444 3:0.60714286 4:0.14285714 \n"
"1 1:0.28 2:0.75 3:0.21428571 4:0.14285714 \n"
"-0.2464607732202429 1:0.3 2:0.25714286 3:0.2 4:0.14285714 \n"
"-0.6712518318458536 1:0.3 2:0.35714286 3:0.4 4:0.14285714 \n"
"-0.1282745858845328 1:0.3 2:0.5 3:0.3 4:0.14285714 \n"
"-0.4303798348941193 1:0.3 2:0.6 3:0.36666667 4:0.14285714 \n"
"0.3061341905860213 1:0.33 2:0.19402985 3:0.60606061 4:0.14285714 \n"
"1 1:0.33 2:0.25373134 3:0.75757576 4:0.14285714 \n"
"-1 1:0.33 2:0.34328358 3:0.60606061 4:0.14285714 \n"
"-1 1:0.33 2:0.49253731 3:0.24242424 4:0.14285714 \n"
"-0.1916075978069539 1:0.33 2:0.70149254 3:0.39393939 4:0.14285714 \n"
"-0.8107959204598276 1:0.33 2:0.74626866 3:0.45454545 4:0.14285714 \n"
"1 1:0.33 2:0.80597015 3:0.45454545 4:0.14285714 \n"
"0.03383131775163409 1:0.33 2:0.80597015 3:0.60606061 4:0.14285714 \n"
"1 1:0.35 2:0.44615385 3:0.48571429 4:0.14285714 \n"
"-0.8410280016447177 1:0.35 2:0.6 3:0.65714286 4:0.14285714 \n"
"-1 1:0.35 2:0.70769231 3:0.34285714 4:0.14285714 \n"
"0.5900178416694913 1:0.38 2:0.19354839 3:0.34210526 4:0.14285714 \n"
"-1 1:0.38 2:0.25806452 3:0.26315789 4:0.14285714 \n"
"1 1:0.38 2:0.25806452 3:0.34210526 4:0.14285714 \n"
"-0.7412654209023689 1:0.38 2:0.25806452 3:0.39473684 4:0.14285714 \n"
"-1 1:0.38 2:0.30645161 3:0.5 4:0.14285714 \n"
"-0.235475636679371 1:0.38 2:0.35483871 3:0.39473684 4:0.14285714 \n"
"0.3141595494818585 1:0.38 2:0.40322581 3:0.5 4:0.14285714 \n"
"-0.05407698055811676 1:0.38 2:0.40322581 3:0.55263158 4:0.14285714 \n"
"1 1:0.38 2:0.4516129 3:0.28947368 4:0.14285714 \n"
"-1 1:0.38 2:0.69354839 3:0.60526316 4:0.14285714 \n"
"0.07137123820619147 1:0.38 2:0.75806452 3:0.71052632 4:0.14285714 \n"
"1 1:0.4 2:0.45 3:0.25 4:0.14285714 \n"
"0.413986588069465 1:0.4 2:0.45 3:0.55 4:0.14285714 \n"
"0.3359383378486254 1:0.4 2:0.55 3:0.5 4:0.14285714 \n"
"0.1256586161151745 1:0.4 2:0.65 3:0.7 4:0.14285714 \n"
"0.00252607753861751 1:0.4 2:0.75 3:0.45 4:0.14285714 \n"
"-0.2144156128093337 1:0.43 2:0.29824561 3:0.65116279 4:0.14285714 \n"
"-0.7087597365855008 1:0.43 2:0.29824561 3:0.69767442 4:0.14285714 \n"
"1 1:0.43 2:0.40350877 3:0.44186047 4:0.14285714 \n"
"1 1:0.43 2:0.40350877 3:0.74418605 4:0.14285714 \n"
"1 1:0.43 2:0.59649123 3:0.30232558 4:0.14285714 \n"
"-1 1:0.43 2:0.64912281 3:0.30232558 4:0.14285714 \n"
"-1 1:0.43 2:0.70175439 3:0.65116279 4:0.14285714 \n"
"-1 1:0.45 2:0.25454545 3:0.44444444 4:0.14285714 \n"
"-1 1:0.45 2:0.30909091 3:0.24444444 4:0.14285714 \n"
"-1 1:0.45 2:0.34545455 3:0.71111111 4:0.14285714 \n"
"1 1:0.45 2:0.45454545 3:0.44444444 4:0.14285714 \n"
"0.5215742201315625 1:0.45 2:0.45454545 3:0.75555556 4:0.14285714 \n"
"-0.05451925094449037 1:0.45 2:0.65454545 3:0.31111111 4:0.14285714 \n"
"-0.2890098682620317 1:0.45 2:0.65454545 3:0.48888889 4:0.14285714 \n"
"1 1:0.45 2:0.70909091 3:0.48888889 4:0.14285714 \n"
"-0.9349799701267902 1:0.48 2:0.75 3:0.54166667 4:0.14285714 \n"
"0.4758927948722542 1:0.48 2:0.75 3:0.79166667 4:0.14285714 \n"
"-1 1:0.5 2:0.26 3:0.66 4:0.14285714 \n"
"-1 1:0.5 2:0.4 3:0.54 4:0.14285714 \n"
"-0.3058869998982018 1:0.5 2:0.44 3:0.4 4:0.14285714 \n"
"-1 1:0.5 2:0.5 3:0.4 4:0.14285714 \n"
"1 1:0.5 2:0.66 3:0.26 4:0.14285714 \n"
"0.8303820099239545 1:0.53 2:0.19148936 3:0.75471698 4:0.14285714 \n"
"1 1:0.53 2:0.25531915 3:0.20754717 4:0.14285714 \n"
"0.1114349604130157 1:0.53 2:0.25531915 3:0.24528302 4:0.14285714 \n"
"0.008105863078445264 1:0.53 2:0.29787234 3:0.79245283 4:0.14285714 \n"
"1 1:0.53 2:0.44680851 3:0.24528302 4:0.14285714 \n"
"-1 1:0.53 2:0.55319149 3:0.49056604 4:0.14285714 \n"
"0.7086960866800173 1:0.53 2:0.55319149 3:0.79245283 4:0.14285714 \n"
"0.3601005783740542 1:0.53 2:0.59574468 3:0.69811321 4:0.14285714 \n"
"-0.3376548789646864 1:0.53 2:0.74468085 3:0.24528302 4:0.14285714 \n"
"-1 1:0.55 2:0.31111111 3:0.4 4:0.14285714 \n"
"1 1:0.55 2:0.35555556 3:0.49090909 4:0.14285714 \n"
"-1 1:0.55 2:0.4 3:0.34545455 4:0.14285714 \n"
"-1 1:0.55 2:0.44444444 3:0.45454545 4:0.14285714 \n"
"-0.1014765660528771 1:0.55 2:0.44444444 3:0.65454545 4:0.14285714 \n"
"1 1:0.55 2:0.48888889 3:0.6 4:0.14285714 \n"
"-0.9063870089311084 1:0.55 2:0.71111111 3:0.34545455 4:0.14285714 \n"
"1 1:0.55 2:0.71111111 3:0.49090909 4:0.14285714 \n"
"-1 1:0.55 2:0.75555556 3:0.30909091 4:0.14285714 \n"
"1 1:0.58 2:0.45238095 3:0.5 4:0.14285714 \n"
"1 1:0.58 2:0.45238095 3:0.55172414 4:0.14285714 \n"
"-1 1:0.58 2:0.45238095 3:0.65517241 4:0.14285714 \n"
"-0.4973715725957024 1:0.58 2:0.5 3:0.20689655 4:0.14285714 \n"
"-0.7771073676239159 1:0.58 2:0.54761905 3:0.29310345 4:0.14285714 \n"
"1 1:0.58 2:0.69047619 3:0.29310345 4:0.14285714 \n"
"0.08248852075435595 1:0.58 2:0.76190476 3:0.5 4:0.14285714 \n"
"1 1:0.6 2:0.5 3:0.5 4:0.14285714 \n"
"-1 1:0.6 2:0.6 3:0.5 4:0.14285714 \n"
"1 1:0.6 2:0.65 3:0.45 4:0.14285714 \n"
"-0.003486673199532867 1:0.6 2:0.7 3:0.65 4:0.14285714 \n"
"0.1122273763084038 1:0.6 2:0.75 3:0.6 4:0.14285714 \n"
"1 1:0.63 2:0.18918919 3:0.44444444 4:0.14285714 \n"
"1 1:0.63 2:0.24324324 3:0.49206349 4:0.14285714 \n"
"0.2321579262749023 1:0.63 2:0.2972973 3:0.55555556 4:0.14285714 \n"
"-1 1:0.63 2:0.2972973 3:0.6031746 4:0.14285714 \n"
"-0.01636137455530932 1:0.63 2:0.2972973 3:0.65079365 4:0.14285714 \n"
"-1 1:0.63 2:0.40540541 3:0.34920635 4:0.14285714 \n"
"-0.5597514498395699 1:0.63 2:0.45945946 3:0.6031746 4:0.14285714 \n"
"-1 1:0.63 2:0.48648649 3:0.65079365 4:0.14285714 \n"
"-1 1:0.63 2:0.59459459 3:0.6984127 4:0.14285714 \n"
"0.06433561841474116 1:0.63 2:0.64864865 3:0.20634921 4:0.14285714 \n"
"-0.07691991093928076 1:0.63 2:0.64864865 3:0.6984127 4:0.14285714 \n"
"-0.01873148930413057 1:0.63 2:0.81081081 3:0.20634921 4:0.14285714 \n"
"1 1:0.65 2:0.31428571 3:0.44615385 4:0.14285714 \n"
"1 1:0.65 2:0.34285714 3:0.49230769 4:0.14285714 \n"
"1 1:0.65 2:0.4 3:0.30769231 4:0.14285714 \n"
"-1 1:0.65 2:0.45714286 3:0.35384615 4:0.14285714 \n"
"-1 1:0.65 2:0.48571429 3:0.64615385 4:0.14285714 \n"
"1 1:0.65 2:0.54285714 3:0.44615385 4:0.14285714 \n"
"0.3480305908398122 1:0.65 2:0.65714286 3:0.4 4:0.14285714 \n"
"0.6868904453565011 1:0.65 2:0.8 3:0.24615385 4:0.14285714 \n"
"-0.1104392735732009 1:0.65 2:0.8 3:0.8 4:0.14285714 \n"
"-1 1:0.68 2:0.1875 3:0.45588235 4:0.14285714 \n"
"-1 1:0.68 2:0.3125 3:0.35294118 4:0.14285714 \n"
"1 1:0.68 2:0.3125 3:0.39705882 4:0.14285714 \n"
"0.9468809409993679 1:0.68 2:0.3125 3:0.70588235 4:0.14285714 \n"
"-0.8960939004407403 1:0.68 2:0.40625 3:0.35294118 4:0.14285714 \n"
"-1 1:0.68 2:0.4375 3:0.45588235 4:0.14285714 \n"
"0.06760220585767736 1:0.68 2:0.65625 3:0.64705882 4:0.14285714 \n"
"0.162399393019196 1:0.68 2:0.6875 3:0.54411765 4:0.14285714 \n"
"0.3309947291828618 1:0.68 2:0.75 3:0.35294118 4:0.14285714 \n"
"1 1:0.68 2:0.75 3:0.64705882 4:0.14285714 \n"
"-1 1:0.7 2:0.2 3:0.35714286 4:0.14285714 \n"
"-0.3113899174485042 1:0.7 2:0.2 3:0.5 4:0.14285714 \n"
"0.710057180189838 1:0.7 2:0.2 3:0.75714286 4:0.14285714 \n"
"1 1:0.7 2:0.36666667 3:0.5 4:0.14285714 \n"
"1 1:0.7 2:0.4 3:0.44285714 4:0.14285714 \n"
"1 1:0.7 2:0.5 3:0.44285714 4:0.14285714 \n"
"-1 1:0.7 2:0.6 3:0.44285714 4:0.14285714 \n"
"1 1:0.7 2:0.66666667 3:0.75714286 4:0.14285714 \n"
"-1 1:0.7 2:0.8 3:0.44285714 4:0.14285714 \n"
"0.7188623512484075 1:0.7 2:0.8 3:0.7 4:0.14285714 \n"
"-0.7518566797217892 1:0.73 2:0.18518519 3:0.30136986 4:0.14285714 \n"
"1 1:0.73 2:0.25925926 3:0.49315068 4:0.14285714 \n"
"-1 1:0.73 2:0.33333333 3:0.64383562 4:0.14285714 \n"
"0.06042968540423314 1:0.73 2:0.40740741 3:0.75342466 4:0.14285714 \n"
"1 1:0.73 2:0.55555556 3:0.49315068 4:0.14285714 \n"
"-1 1:0.73 2:0.55555556 3:0.64383562 4:0.14285714 \n"
"1 1:0.73 2:0.59259259 3:0.75342466 4:0.14285714 \n"
"-1 1:0.75 2:0.2 3:0.49333333 4:0.14285714 \n"
"-0.6683909180333789 1:0.75 2:0.36 3:0.8 4:0.14285714 \n"
"-1 1:0.75 2:0.48 3:0.4 4:0.14285714 \n"
"-1 1:0.75 2:0.72 3:0.65333333 4:0.14285714 \n"
"-0.4874925451625081 1:0.75 2:0.76 3:0.2 4:0.14285714 \n"
"0.8632010530330415 1:0.78 2:0.18181818 3:0.3974359 4:0.14285714 \n"
"-0.8522146967960993 1:0.78 2:0.18181818 3:0.6025641 4:0.14285714 \n"
"-0.3865716017775887 1:0.78 2:0.27272727 3:0.29487179 4:0.14285714 \n"
"-1 1:0.78 2:0.27272727 3:0.65384615 4:0.14285714 \n"
"1 1:0.78 2:0.31818182 3:0.75641026 4:0.14285714 \n"
"0.7293614336893464 1:0.78 2:0.40909091 3:0.20512821 4:0.14285714 \n"
"0.05514930970405035 1:0.78 2:0.45454545 3:0.55128205 4:0.14285714 \n"
"-1 1:0.78 2:0.5 3:0.44871795 4:0.14285714 \n"
"1 1:0.78 2:0.5 3:0.5 4:0.14285714 \n"
"0.3051973680621083 1:0.78 2:0.5 3:0.65384615 4:0.14285714 \n"
"1 1:0.78 2:0.59090909 3:0.5 4:0.14285714 \n"
"1 1:0.78 2:0.59090909 3:0.75641026 4:0.14285714 \n"
"-1 1:0.78 2:0.68181818 3:0.34615385 4:0.14285714 \n"
"-1 1:0.78 2:0.77272727 3:0.5 4:0.14285714 \n"
"-1 1:0.8 2:0.25 3:0.3 4:0.14285714 \n"
"1 1:0.8 2:0.3 3:0.35 4:0.14285714 \n"
"-1 1:0.8 2:0.3 3:0.55 4:0.14285714 \n"
"-1 1:0.8 2:0.3 3:0.65 4:0.14285714 \n"
"1 1:0.8 2:0.35 3:0.75 4:0.14285714 \n"
"0.248332642183202 1:0.8 2:0.4 3:0.2 4:0.14285714 \n"
"-1 1:0.8 2:0.4 3:0.3 4:0.14285714 \n"
"1 1:0.8 2:0.4 3:0.5 4:0.14285714 \n"
"-0.009407532520902937 1:0.8 2:0.45 3:0.7 4:0.14285714 \n"
"-1 1:0.8 2:0.5 3:0.55 4:0.14285714 \n"
"-0.7145209728416626 1:0.8 2:0.6 3:0.6 4:0.14285714 \n"
"1 1:0.8 2:0.65 3:0.45 4:0.14285714 \n"
"-1 1:0.8 2:0.7 3:0.65 4:0.14285714 \n"
"-0.6890954729149655 1:0.8 2:0.75 3:0.65 4:0.14285714 \n"
"-1 1:0.2 2:0.2 3:0.8 4:0.28571429 \n"
"-0.009153621697841157 1:0.2 2:0.25 3:0.6 4:0.28571429 \n"
"-0.1313784341058974 1:0.2 2:0.3 3:0.2 4:0.28571429 \n"
"-0.002479834842920828 1:0.2 2:0.35 3:0.43333333 4:0.28571429 \n"
"0.4565628345544172 1:0.2 2:0.45 3:0.2 4:0.28571429 \n"
"0.1383189806349542 1:0.2 2:0.55 3:0.5 4:0.28571429 \n"
"-0.5164845584433336 1:0.2 2:0.6 3:0.7 4:0.28571429 \n"
"0.0707607192624703 1:0.2 2:0.7 3:0.2 4:0.28571429 \n"
"1 1:0.2 2:0.75 3:0.26666667 4:0.28571429 \n"
"-1 1:0.2 2:0.8 3:0.2 4:0.28571429 \n"
"-1 1:0.2 2:0.8 3:0.26666667 4:0.28571429 \n"
"-0.2414697052861657 1:0.2 2:0.8 3:0.3 4:0.28571429 \n"
"-1 1:0.2 2:0.8 3:0.36666667 4:0.28571429 \n"
"-0.4444893268470444 1:0.2 2:0.8 3:0.53333333 4:0.28571429 \n"
"-0.1956618504441442 1:0.2 2:0.8 3:0.8 4:0.28571429 \n"
"-0.009805760377205651 1:0.22666667 2:0.19827586 3:0.5 4:0.28571429 \n"
"-1 1:0.22666667 2:0.30172414 3:0.29411765 4:0.28571429 \n"
"0.6454748818995671 1:0.22666667 2:0.5 3:0.41176471 4:0.28571429 \n"
"-1 1:0.22666667 2:0.64655172 3:0.41176471 4:0.28571429 \n"
"-0.6997076741276671 1:0.25333333 2:0.34821429 3:0.21052632 4:0.28571429 \n"
"1 1:0.25333333 2:0.40178571 3:0.26315789 4:0.28571429 \n"
"-0.04834090877712734 1:0.25333333 2:0.5 3:0.28947368 4:0.28571429 \n"
"-0.02232260439728159 1:0.25333333 2:0.65178571 3:0.26315789 4:0.28571429 \n"
"-0.3405173591588186 1:0.27333333 2:0.20183486 3:0.80487805 4:0.28571429 \n"
"-0.3266420577485906 1:0.27333333 2:0.40366972 3:0.34146341 4:0.28571429 \n"
"-0.4141392763783503 1:0.27333333 2:0.44954128 3:0.80487805 4:0.28571429 \n"
"0.8758516620226078 1:0.27333333 2:0.75229358 3:0.29268293 4:0.28571429 \n"
"1 1:0.27333333 2:0.79816514 3:0.48780488 4:0.28571429 \n"
"1 1:0.3 2:0.4952381 3:0.48888889 4:0.28571429 \n"
"-0.0215540361498599 1:0.3 2:0.55238095 3:0.31111111 4:0.28571429 \n"
"-1 1:0.3 2:0.6 3:0.2 4:0.28571429 \n"
"-0.2092678511592358 1:0.3 2:0.7047619 3:0.44444444 4:0.28571429 \n"
"1 1:0.32666667 2:0.3960396 3:0.20408163 4:0.28571429 \n"
"-0.2062452460202211 1:0.32666667 2:0.55445545 3:0.55102041 4:0.28571429 \n"
"-0.9161086752999634 1:0.32666667 2:0.65346535 3:0.59183673 4:0.28571429 \n"
"0.1806946055210689 1:0.37333333 2:0.5 3:0.25 4:0.28571429 \n"
"-0.00868962573219461 1:0.4 2:0.2 3:0.2 4:0.28571429 \n"
"-0.2393378447072121 1:0.4 2:0.2 3:0.65 4:0.28571429 \n"
"1 1:0.4 2:0.44444444 3:0.6 4:0.28571429 \n"
"1 1:0.4 2:0.54444444 3:0.4 4:0.28571429 \n"
"-0.002414819981314899 1:0.4 2:0.8 3:0.8 4:0.28571429 \n"
"-0.020036072540305 1:0.42666667 2:0.30232558 3:0.59375 4:0.28571429 \n"
"0.03398685675855961 1:0.42666667 2:0.80232558 3:0.5 4:0.28571429 \n"
"0.2112501195531246 1:0.45333333 2:0.30487805 3:0.39705882 4:0.28571429 \n"
"-0.3883166443521887 1:0.45333333 2:0.69512195 3:0.29411765 4:0.28571429 \n"
"-0.7831384196100754 1:0.45333333 2:0.80487805 3:0.35294118 4:0.28571429 \n"
"1 1:0.47333333 2:0.4556962 3:0.29577465 4:0.28571429 \n"
"0.3378134201057068 1:0.47333333 2:0.49367089 3:0.45070423 4:0.28571429 \n"
"0.04082363374500229 1:0.47333333 2:0.59493671 3:0.54929577 4:0.28571429 \n"
"-0.1532313631608456 1:0.5 2:0.2 3:0.25333333 4:0.28571429 \n"
"0.1380902769140323 1:0.5 2:0.65333333 3:0.74666667 4:0.28571429 \n"
"-0.01975576171928858 1:0.52666667 2:0.1971831 3:0.69620253 4:0.28571429 \n"
"-1 1:0.52666667 2:0.45070423 3:0.20253165 4:0.28571429 \n"
"-1 1:0.52666667 2:0.49295775 3:0.25316456 4:0.28571429 \n"
"-0.3103618655012569 1:0.52666667 2:0.49295775 3:0.4556962 4:0.28571429 \n"
"1 1:0.52666667 2:0.70422535 3:0.5443038 4:0.28571429 \n"
"0.9381322913971272 1:0.55333333 2:0.34328358 3:0.4939759 4:0.28571429 \n"
"-0.0994378374125251 1:0.55333333 2:0.40298507 3:0.20481928 4:0.28571429 \n"
"-0.05038129662857919 1:0.55333333 2:0.40298507 3:0.34939759 4:0.28571429 \n"
"-0.01254952373562108 1:0.55333333 2:0.44776119 3:0.20481928 4:0.28571429 \n"
"-1 1:0.55333333 2:0.49253731 3:0.4939759 4:0.28571429 \n"
"-0.2830598088943482 1:0.55333333 2:0.55223881 3:0.39759036 4:0.28571429 \n"
"-1 1:0.55333333 2:0.74626866 3:0.60240964 4:0.28571429 \n"
"1 1:0.57333333 2:0.453125 3:0.75581395 4:0.28571429 \n"
"1 1:0.57333333 2:0.546875 3:0.25581395 4:0.28571429 \n"
"1 1:0.57333333 2:0.796875 3:0.60465116 4:0.28571429 \n"
"1 1:0.6 2:0.55 3:0.5 4:0.28571429 \n"
"-0.2212560033820343 1:0.6 2:0.75 3:0.75555556 4:0.28571429 \n"
"-0.1960173777076425 1:0.6 2:0.8 3:0.75555556 4:0.28571429 \n"
"-1 1:0.62666667 2:0.44642857 3:0.44680851 4:0.28571429 \n"
"-0.9474008171313877 1:0.62666667 2:0.55357143 3:0.75531915 4:0.28571429 \n"
"0.320042701644004 1:0.62666667 2:0.64285714 3:0.55319149 4:0.28571429 \n"
"0.5572991210357569 1:0.62666667 2:0.80357143 3:0.25531915 4:0.28571429 \n"
"-0.01674810004851782 1:0.62666667 2:0.80357143 3:0.59574468 4:0.28571429 \n"
"-0.9665533284427191 1:0.65333333 2:0.25 3:0.79591837 4:0.28571429 \n"
"0.07370729259835491 1:0.65333333 2:0.34615385 3:0.29591837 4:0.28571429 \n"
"-0.634320632020838 1:0.65333333 2:0.44230769 3:0.5 4:0.28571429 \n"
"-1 1:0.65333333 2:0.55769231 3:0.79591837 4:0.28571429 \n"
"0.6678250558289185 1:0.67333333 2:0.20408163 3:0.75247525 4:0.28571429 \n"
"1 1:0.67333333 2:0.30612245 3:0.2970297 4:0.28571429 \n"
"1 1:0.67333333 2:0.55102041 3:0.2970297 4:0.28571429 \n"
"1 1:0.67333333 2:0.55102041 3:0.7029703 4:0.28571429 \n"
"-1 1:0.67333333 2:0.69387755 3:0.65346535 4:0.28571429 \n"
"1 1:0.67333333 2:0.75510204 3:0.6039604 4:0.28571429 \n"
"-1 1:0.67333333 2:0.75510204 3:0.65346535 4:0.28571429 \n"
"-0.03088693046397993 1:0.67333333 2:0.75510204 3:0.8019802 4:0.28571429 \n"
"-1 1:0.7 2:0.4 3:0.4 4:0.28571429 \n"
"-0.2665795502294132 1:0.7 2:0.48888889 3:0.4 4:0.28571429 \n"
"-1 1:0.72666667 2:0.19512195 3:0.79816514 4:0.28571429 \n"
"1 1:0.72666667 2:0.29268293 3:0.69724771 4:0.28571429 \n"
"0.5562062357584229 1:0.72666667 2:0.34146341 3:0.55045872 4:0.28571429 \n"
"0.3350906470285724 1:0.72666667 2:0.3902439 3:0.69724771 4:0.28571429 \n"
"0.08458464490745297 1:0.72666667 2:0.48780488 3:0.30275229 4:0.28571429 \n"
"0.1350030748690175 1:0.72666667 2:0.48780488 3:0.75229358 4:0.28571429 \n"
"-0.1355959759370596 1:0.72666667 2:0.65853659 3:0.40366972 4:0.28571429 \n"
"1 1:0.75333333 2:0.24324324 3:0.3539823 4:0.28571429 \n"
"1 1:0.75333333 2:0.2972973 3:0.39823009 4:0.28571429 \n"
"-0.01076458780598754 1:0.75333333 2:0.35135135 3:0.3539823 4:0.28571429 \n"
"0.3325062184578695 1:0.75333333 2:0.40540541 3:0.60176991 4:0.28571429 \n"
"0.02056886229053846 1:0.75333333 2:0.40540541 3:0.75221239 4:0.28571429 \n"
"-1 1:0.75333333 2:0.54054054 3:0.79646018 4:0.28571429 \n"
"-1 1:0.75333333 2:0.7027027 3:0.45132743 4:0.28571429 \n"
"0.7225386657005112 1:0.77333333 2:0.26470588 3:0.75 4:0.28571429 \n"
"-1 1:0.77333333 2:0.29411765 3:0.39655172 4:0.28571429 \n"
"1 1:0.77333333 2:0.35294118 3:0.39655172 4:0.28571429 \n"
"1 1:0.77333333 2:0.55882353 3:0.5 4:0.28571429 \n"
"-0.0398919154630647 1:0.77333333 2:0.55882353 3:0.80172414 4:0.28571429 \n"
"1 1:0.77333333 2:0.70588235 3:0.39655172 4:0.28571429 \n"
"-0.3099185012768485 1:0.77333333 2:0.76470588 3:0.44827586 4:0.28571429 \n"
"0.1517874822132456 1:0.77333333 2:0.79411765 3:0.25 4:0.28571429 \n"
"-1 1:0.77333333 2:0.79411765 3:0.80172414 4:0.28571429 \n"
"0.8484813143651385 1:0.8 2:0.2 3:0.4 4:0.28571429 \n"
"0.07388690945811932 1:0.8 2:0.2 3:0.45 4:0.28571429 \n"
"-0.373632180136441 1:0.8 2:0.2 3:0.6 4:0.28571429 \n"
"0.7126087501272269 1:0.8 2:0.2 3:0.7 4:0.28571429 \n"
"0.5129897115547946 1:0.8 2:0.26666667 3:0.4 4:0.28571429 \n"
"-0.2368856415330242 1:0.8 2:0.3 3:0.8 4:0.28571429 \n"
"-0.9909047365137956 1:0.8 2:0.36666667 3:0.6 4:0.28571429 \n"
"-1 1:0.8 2:0.4 3:0.3 4:0.28571429 \n"
"-1 1:0.8 2:0.43333333 3:0.6 4:0.28571429 \n"
"1 1:0.8 2:0.5 3:0.5 4:0.28571429 \n"
"0.747915267823167 1:0.8 2:0.53333333 3:0.2 4:0.28571429 \n"
"-1 1:0.8 2:0.53333333 3:0.4 4:0.28571429 \n"
"0.4684610012873625 1:0.8 2:0.6 3:0.5 4:0.28571429 \n"
"-1 1:0.8 2:0.66666667 3:0.4 4:0.28571429 \n"
"1 1:0.8 2:0.7 3:0.45 4:0.28571429 \n"
"1 1:0.8 2:0.7 3:0.75 4:0.28571429 \n"
"1 1:0.8 2:0.8 3:0.45 4:0.28571429 \n"
"0.7667760031688282 1:0.8 2:0.8 3:0.75 4:0.28571429 \n"
"0.4366790463419795 1:0.2 2:0.25 3:0.8 4:0.42857143 \n"
"0.3572713472673389 1:0.2 2:0.35 3:0.8 4:0.42857143 \n"
"0.05157729569715787 1:0.2 2:0.7 3:0.35 4:0.42857143 \n"
"0.1437015156792416 1:0.2 2:0.7 3:0.8 4:0.42857143 \n"
"0.1057391078643923 1:0.2 2:0.75 3:0.2 4:0.42857143 \n"
"1 1:0.2 2:0.75 3:0.3 4:0.42857143 \n"
"0.4022295227494483 1:0.2 2:0.75 3:0.7 4:0.42857143 \n"
"-0.2603521454922373 1:0.2 2:0.8 3:0.45 4:0.42857143 \n"
"-1 1:0.2 2:0.8 3:0.8 4:0.42857143 \n"
"1 1:0.225 2:0.70322581 3:0.71111111 4:0.42857143 \n"
"0.2930549178660014 1:0.25 2:0.2 3:0.3 4:0.42857143 \n"
"0.06075958724395708 1:0.25 2:0.3 3:0.8 4:0.42857143 \n"
"0.02473138698924355 1:0.275 2:0.35172414 3:0.2 4:0.42857143 \n"
"0.9258466140296825 1:0.275 2:0.75172414 3:0.25454545 4:0.42857143 \n"
"-0.3334464080350779 1:0.3 2:0.6 3:0.3 4:0.42857143 \n"
"0.3738127282221404 1:0.325 2:0.25185185 3:0.70769231 4:0.42857143 \n"
"0.4720824546089779 1:0.325 2:0.8 3:0.75384615 4:0.42857143 \n"
"-0.5059930574106354 1:0.35 2:0.5 3:0.65714286 4:0.42857143 \n"
"-0.570070026957038 1:0.375 2:0.352 3:0.34666667 4:0.42857143 \n"
"-0.9127675552221619 1:0.375 2:0.552 3:0.34666667 4:0.42857143 \n"
"0.05084456245536301 1:0.375 2:0.752 3:0.70666667 4:0.42857143 \n"
"0.2253435845961116 1:0.4 2:0.2 3:0.75 4:0.42857143 \n"
"-1 1:0.4 2:0.35 3:0.55 4:0.42857143 \n"
"0.02857420325203806 1:0.425 2:0.70434783 3:0.44705882 4:0.42857143 \n"
"0.537774891139509 1:0.45 2:0.2 3:0.5 4:0.42857143 \n"
"-0.2396129229583656 1:0.45 2:0.5 3:0.44444444 4:0.42857143 \n"
"1 1:0.45 2:0.75454545 3:0.34444444 4:0.42857143 \n"
"-0.01947665695048613 1:0.475 2:0.44761905 3:0.65263158 4:0.42857143 \n"
"-0.06355054168217732 1:0.475 2:0.75238095 3:0.65263158 4:0.42857143 \n"
"-0.1023698115433003 1:0.475 2:0.8 3:0.2 4:0.42857143 \n"
"-0.260002898212768 1:0.55 2:0.4 3:0.7 4:0.42857143 \n"
"0.006775525698276211 1:0.55 2:0.44444444 3:0.54545455 4:0.42857143 \n"
"-1 1:0.55 2:0.75555556 3:0.5 4:0.42857143 \n"
"-0.8480186571824878 1:0.575 2:0.49411765 3:0.4 4:0.42857143 \n"
"1 1:0.575 2:0.49411765 3:0.74782609 4:0.42857143 \n"
"1 1:0.575 2:0.70588235 3:0.6 4:0.42857143 \n"
"0.1938086729646508 1:0.6 2:0.3 3:0.75 4:0.42857143 \n"
"1 1:0.6 2:0.5 3:0.35 4:0.42857143 \n"
"0.002158969435392604 1:0.6 2:0.65 3:0.6 4:0.42857143 \n"
"-0.86397623646373 1:0.625 2:0.2 3:0.8 4:0.42857143 \n"
"1 1:0.625 2:0.25333333 3:0.752 4:0.42857143 \n"
"-0.5026859450455132 1:0.625 2:0.4 3:0.648 4:0.42857143 \n"
"-1 1:0.625 2:0.74666667 3:0.448 4:0.42857143 \n"
"0.004427053303566669 1:0.65 2:0.2 3:0.54615385 4:0.42857143 \n"
"1 1:0.65 2:0.4 3:0.35384615 4:0.42857143 \n"
"0.1691176442758703 1:0.65 2:0.6 3:0.54615385 4:0.42857143 \n"
"0.8639009881525169 1:0.65 2:0.65714286 3:0.25384615 4:0.42857143 \n"
"1 1:0.675 2:0.24615385 3:0.74814815 4:0.42857143 \n"
"0.001828468693192025 1:0.675 2:0.30769231 3:0.25185185 4:0.42857143 \n"
"-1 1:0.675 2:0.30769231 3:0.45185185 4:0.42857143 \n"
"-1 1:0.675 2:0.30769231 3:0.7037037 4:0.42857143 \n"
"-1 1:0.675 2:0.44615385 3:0.7037037 4:0.42857143 \n"
"-1 1:0.675 2:0.6 3:0.4 4:0.42857143 \n"
"-0.7965613850269518 1:0.675 2:0.70769231 3:0.2 4:0.42857143 \n"
"1 1:0.675 2:0.70769231 3:0.4962963 4:0.42857143 \n"
"-0.4252722687880143 1:0.675 2:0.8 3:0.74814815 4:0.42857143 \n"
"0.1450719021423953 1:0.7 2:0.2 3:0.35 4:0.42857143 \n"
"-1 1:0.7 2:0.3 3:0.8 4:0.42857143 \n"
"-0.09386434943975405 1:0.7 2:0.7 3:0.45 4:0.42857143 \n"
"1 1:0.7 2:0.8 3:0.3 4:0.42857143 \n"
"-1 1:0.7 2:0.8 3:0.5 4:0.42857143 \n"
"0.6704062739379355 1:0.7 2:0.8 3:0.7 4:0.42857143 \n"
"-1 1:0.725 2:0.2 3:0.49655172 4:0.42857143 \n"
"-1 1:0.725 2:0.25454545 3:0.4 4:0.42857143 \n"
"1 1:0.725 2:0.4 3:0.6 4:0.42857143 \n"
"-1 1:0.725 2:0.54545455 3:0.30344828 4:0.42857143 \n"
"-1 1:0.725 2:0.65454545 3:0.6 4:0.42857143 \n"
"1 1:0.725 2:0.74545455 3:0.6 4:0.42857143 \n"
"-0.9851987897531498 1:0.725 2:0.8 3:0.2 4:0.42857143 \n"
"1 1:0.75 2:0.4 3:0.75333333 4:0.42857143 \n"
"0.6146634558397266 1:0.75 2:0.6 3:0.7 4:0.42857143 \n"
"-0.5077443792130245 1:0.75 2:0.66 3:0.65333333 4:0.42857143 \n"
"1 1:0.75 2:0.66 3:0.75333333 4:0.42857143 \n"
"0.5774658285198147 1:0.75 2:0.7 3:0.5 4:0.42857143 \n"
"0.03261634404365939 1:0.75 2:0.8 3:0.25333333 4:0.42857143 \n"
"0.1454829506812746 1:0.75 2:0.8 3:0.54666667 4:0.42857143 \n"
"1 1:0.75 2:0.8 3:0.7 4:0.42857143 \n"
"1 1:0.775 2:0.2 3:0.70322581 4:0.42857143 \n"
"-0.8677231718298125 1:0.775 2:0.24444444 3:0.6 4:0.42857143 \n"
"-0.1952018655833204 1:0.775 2:0.35555556 3:0.4 4:0.42857143 \n"
"-0.3890047346408281 1:0.775 2:0.55555556 3:0.4 4:0.42857143 \n"
"-0.01748297460381265 1:0.775 2:0.55555556 3:0.8 4:0.42857143 \n"
"0.02535137763971316 1:0.775 2:0.75555556 3:0.3483871 4:0.42857143 \n"
"-1 1:0.775 2:0.75555556 3:0.70322581 4:0.42857143 \n"
"0.04041888343494857 1:0.8 2:0.2 3:0.5 4:0.42857143 \n"
"-1 1:0.8 2:0.25 3:0.3 4:0.42857143 \n"
"1 1:0.8 2:0.25 3:0.5 4:0.42857143 \n"
"-1 1:0.8 2:0.3 3:0.6 4:0.42857143 \n"
"-0.004157921718993903 1:0.8 2:0.4 3:0.35 4:0.42857143 \n"
"0.8317551307043267 1:0.8 2:0.45 3:0.5 4:0.42857143 \n"
"-0.004684526955486306 1:0.8 2:0.5 3:0.35 4:0.42857143 \n"
"-0.03411606823771664 1:0.8 2:0.55 3:0.6 4:0.42857143 \n"
"0.08549004309450049 1:0.8 2:0.6 3:0.65 4:0.42857143 \n"
"-1 1:0.8 2:0.7 3:0.6 4:0.42857143 \n"
"-0.5603259898836467 1:0.8 2:0.8 3:0.45 4:0.42857143 \n"
"-0.248683869085667 1:0.2 2:0.2 3:0.8 4:0.57142857 \n"
"-0.4435068371696607 1:0.2 2:0.3 3:0.5 4:0.57142857 \n"
"-0.02614612852331612 1:0.2 2:0.35 3:0.6 4:0.57142857 \n"
"0.549513470453233 1:0.2 2:0.45 3:0.44 4:0.57142857 \n"
"0.1310224869014791 1:0.2 2:0.5 3:0.2 4:0.57142857 \n"
"-0.2518864135271009 1:0.2 2:0.6 3:0.26 4:0.57142857 \n"
"0.5732588312696995 1:0.2 2:0.7 3:0.2 4:0.57142857 \n"
"-1 1:0.2 2:0.8 3:0.2 4:0.57142857 \n"
"-0.1316570467674567 1:0.2 2:0.8 3:0.7 4:0.57142857 \n"
"-0.07832078323597566 1:0.224 2:0.44845361 3:0.69642857 4:0.57142857 \n"
"0.1545579400717304 1:0.224 2:0.70103093 3:0.80357143 4:0.57142857 \n"
"-0.5516831168581388 1:0.252 2:0.59893048 3:0.55555556 4:0.57142857 \n"
"-1 1:0.252 2:0.65240642 3:0.3968254 4:0.57142857 \n"
"-0.1051219257679478 1:0.276 2:0.49723757 3:0.65217391 4:0.57142857 \n"
"-0.04656017637359811 1:0.276 2:0.60220994 3:0.75362319 4:0.57142857 \n"
"0.2267013047439382 1:0.276 2:0.80110497 3:0.5942029 4:0.57142857 \n"
"0.02555419951336271 1:0.3 2:0.2 3:0.70666667 4:0.57142857 \n"
"1 1:0.3 2:0.70285714 3:0.45333333 4:0.57142857 \n"
"-0.004030793361216982 1:0.3 2:0.8 3:0.2 4:0.57142857 \n"
"-0.2019590919288011 1:0.3 2:0.8 3:0.34666667 4:0.57142857 \n"
"-0.2702371300494925 1:0.324 2:0.59763314 3:0.19753086 4:0.57142857 \n"
"0.02911726719890843 1:0.352 2:0.25308642 3:0.60227273 4:0.57142857 \n"
"1 1:0.352 2:0.5 3:0.54545455 4:0.57142857 \n"
"0.120159090037537 1:0.376 2:0.19871795 3:0.55319149 4:0.57142857 \n"
"-0.4870567741773891 1:0.4 2:0.5 3:0.8 4:0.57142857 \n"
"-0.6398816697426281 1:0.4 2:0.6 3:0.4 4:0.57142857 \n"
"1 1:0.424 2:0.45138889 3:0.3490566 4:0.57142857 \n"
"0.3225747150594811 1:0.424 2:0.65277778 3:0.30188679 4:0.57142857 \n"
"-1 1:0.424 2:0.79861111 3:0.60377358 4:0.57142857 \n"
"-0.3501770185889966 1:0.452 2:0.49635036 3:0.60176991 4:0.57142857 \n"
"0.987382344515616 1:0.452 2:0.54744526 3:0.54867257 4:0.57142857 \n"
"-1 1:0.452 2:0.59854015 3:0.54867257 4:0.57142857 \n"
"-0.3553346371671059 1:0.476 2:0.19847328 3:0.54621849 4:0.57142857 \n"
"-0.02054932002366963 1:0.476 2:0.7480916 3:0.25210084 4:0.57142857 \n"
"-0.1011297794658766 1:0.5 2:0.4 3:0.2 4:0.57142857 \n"
"0.903827915244604 1:0.524 2:0.79831933 3:0.54961832 4:0.57142857 \n"
"1 1:0.552 2:0.44642857 3:0.55072464 4:0.57142857 \n"
"0.02610800579090693 1:0.552 2:0.65178571 3:0.44927536 4:0.57142857 \n"
"-1 1:0.552 2:0.69642857 3:0.60144928 4:0.57142857 \n"
"0.05126280856125113 1:0.576 2:0.5 3:0.65277778 4:0.57142857 \n"
"0.4365498590176495 1:0.6 2:0.2 3:0.4 4:0.57142857 \n"
"0.168156828489498 1:0.6 2:0.25 3:0.45333333 4:0.57142857 \n"
"-0.5316033897367828 1:0.6 2:0.7 3:0.25333333 4:0.57142857 \n"
"0.3990919785436484 1:0.624 2:0.79787234 3:0.75 4:0.57142857 \n"
"-1 1:0.652 2:0.40229885 3:0.34969325 4:0.57142857 \n"
"-1 1:0.652 2:0.49425287 3:0.49693252 4:0.57142857 \n"
"0.009090282594725678 1:0.652 2:0.8045977 3:0.60122699 4:0.57142857 \n"
"1 1:0.676 2:0.19753086 3:0.65088757 4:0.57142857 \n"
"-1 1:0.676 2:0.24691358 3:0.44970414 4:0.57142857 \n"
"1 1:0.676 2:0.65432099 3:0.49704142 4:0.57142857 \n"
"-0.1966678137844305 1:0.676 2:0.80246914 3:0.49704142 4:0.57142857 \n"
"-0.5375743443093622 1:0.7 2:0.30666667 3:0.6 4:0.57142857 \n"
"-0.2757255542119076 1:0.7 2:0.30666667 3:0.8 4:0.57142857 \n"
"1 1:0.7 2:0.34666667 3:0.49714286 4:0.57142857 \n"
"1 1:0.7 2:0.45333333 3:0.49714286 4:0.57142857 \n"
"1 1:0.7 2:0.6 3:0.54857143 4:0.57142857 \n"
"0.6563317356723883 1:0.7 2:0.8 3:0.30285714 4:0.57142857 \n"
"-0.5277498611765581 1:0.724 2:0.20289855 3:0.80110497 4:0.57142857 \n"
"0.2253991767298014 1:0.724 2:0.24637681 3:0.29834254 4:0.57142857 \n"
"1 1:0.724 2:0.4057971 3:0.75138122 4:0.57142857 \n"
"1 1:0.724 2:0.55072464 3:0.24861878 4:0.57142857 \n"
"-1 1:0.724 2:0.79710145 3:0.80110497 4:0.57142857 \n"
"-0.9139287476476388 1:0.752 2:0.19354839 3:0.60106383 4:0.57142857 \n"
"0.01510594093804324 1:0.752 2:0.30645161 3:0.5 4:0.57142857 \n"
"-0.3765018769372125 1:0.752 2:0.35483871 3:0.79787234 4:0.57142857 \n"
"0.05784418861773129 1:0.752 2:0.4516129 3:0.25 4:0.57142857 \n"
"-1 1:0.752 2:0.5 3:0.60106383 4:0.57142857 \n"
"-1 1:0.752 2:0.5483871 3:0.60106383 4:0.57142857 \n"
"-1 1:0.752 2:0.75806452 3:0.45212766 4:0.57142857 \n"
"-1 1:0.752 2:0.75806452 3:0.64893617 4:0.57142857 \n"
"0.8773866125398948 1:0.776 2:0.19642857 3:0.5 4:0.57142857 \n"
"1 1:0.776 2:0.19642857 3:0.75257732 4:0.57142857 \n"
"-1 1:0.776 2:0.30357143 3:0.59793814 4:0.57142857 \n"
"-1 1:0.776 2:0.30357143 3:0.64948454 4:0.57142857 \n"
"0.8944113653306498 1:0.776 2:0.35714286 3:0.44845361 4:0.57142857 \n"
"1 1:0.776 2:0.39285714 3:0.5 4:0.57142857 \n"
"0.40295585925151 1:0.776 2:0.69642857 3:0.5 4:0.57142857 \n"
"-1 1:0.776 2:0.75 3:0.35051546 4:0.57142857 \n"
"1 1:0.776 2:0.80357143 3:0.29896907 4:0.57142857 \n"
"0.5735811617234569 1:0.776 2:0.80357143 3:0.79896907 4:0.57142857 \n"
"1 1:0.8 2:0.26 3:0.5 4:0.57142857 \n"
"-0.004178710305404516 1:0.8 2:0.26 3:0.6 4:0.57142857 \n"
"-1 1:0.8 2:0.26 3:0.65 4:0.57142857 \n"
"0.4352646269774724 1:0.8 2:0.36 3:0.75 4:0.57142857 \n"
"1 1:0.8 2:0.4 3:0.7 4:0.57142857 \n"
"-0.8388704402027475 1:0.8 2:0.5 3:0.65 4:0.57142857 \n"
"-1 1:0.8 2:0.54 3:0.65 4:0.57142857 \n"
"0.5700763153796304 1:0.8 2:0.54 3:0.75 4:0.57142857 \n"
"1 1:0.8 2:0.66 3:0.5 4:0.57142857 \n"
"0.06095501860553268 1:0.8 2:0.8 3:0.75 4:0.57142857 \n"
"0.1820322643164359 1:0.2 2:0.2 3:0.2 4:0.71428571 \n"
"-0.3926416480088391 1:0.2 2:0.2 3:0.8 4:0.71428571 \n"
"0.02606168692091194 1:0.2 2:0.45 3:0.2 4:0.71428571 \n"
"0.6294920100913898 1:0.2 2:0.75 3:0.2 4:0.71428571 \n"
"-0.04388624806780776 1:0.2 2:0.8 3:0.2 4:0.71428571 \n"
"-0.238752128416839 1:0.2 2:0.8 3:0.5 4:0.71428571 \n"
"-0.01897166667052623 1:0.2 2:0.8 3:0.8 4:0.71428571 \n"
"-0.7256467153918188 1:0.22666667 2:0.25 3:0.20588235 4:0.71428571 \n"
"0.001176557978518363 1:0.22666667 2:0.25 3:0.64705882 4:0.71428571 \n"
"-0.06607514719955758 1:0.22666667 2:0.30172414 3:0.35294118 4:0.71428571 \n"
"0.08546225442915459 1:0.22666667 2:0.40086207 3:0.35294118 4:0.71428571 \n"
"-0.3354199807240861 1:0.22666667 2:0.59913793 3:0.25 4:0.71428571 \n"
"0.08395321030371307 1:0.22666667 2:0.75 3:0.39705882 4:0.71428571 \n"
"0.497639704713658 1:0.25 2:0.24888889 3:0.74666667 4:0.71428571 \n"
"0.3261724365532827 1:0.25 2:0.44888889 3:0.2 4:0.71428571 \n"
"-1 1:0.25 2:0.49777778 3:0.2 4:0.71428571 \n"
"-0.01707142805405292 1:0.25 2:0.6 3:0.2 4:0.71428571 \n"
"0.1965761796205795 1:0.27666667 2:0.19815668 3:0.39759036 4:0.71428571 \n"
"1 1:0.27666667 2:0.40092166 3:0.20481928 4:0.71428571 \n"
"0.01248479228711867 1:0.27666667 2:0.40092166 3:0.65060241 4:0.71428571 \n"
"0.1681702669771042 1:0.3 2:0.54761905 3:0.54444444 4:0.71428571 \n"
"0.5367880161492208 1:0.35 2:0.8 3:0.4 4:0.71428571 \n"
"0.2786612702941667 1:0.37666667 2:0.7486631 3:0.20353982 4:0.71428571 \n"
"0.001149715427723506 1:0.4 2:0.5 3:0.6 4:0.71428571 \n"
"-0.04768988701739543 1:0.4 2:0.55 3:0.35 4:0.71428571 \n"
"-0.003371292988313713 1:0.4 2:0.8 3:0.55 4:0.71428571 \n"
"-0.004036417229161445 1:0.42666667 2:0.40116279 3:0.453125 4:0.71428571 \n"
"0.0004850820523512712 1:0.42666667 2:0.40116279 3:0.75 4:0.71428571 \n"
"0.198031177330325 1:0.45 2:0.44848485 3:0.45185185 4:0.71428571 \n"
"-1 1:0.47666667 2:0.35031847 3:0.34965035 4:0.71428571 \n"
"-0.3365812408602349 1:0.47666667 2:0.75159236 3:0.3986014 4:0.71428571 \n"
"-0.1906757558265303 1:0.5 2:0.2 3:0.7 4:0.71428571 \n"
"0.1218698027718366 1:0.5 2:0.25333333 3:0.3 4:0.71428571 \n"
"-1 1:0.5 2:0.8 3:0.4 4:0.71428571 \n"
"-0.934905502312028 1:0.52666667 2:0.3028169 3:0.5 4:0.71428571 \n"
"1 1:0.52666667 2:0.64788732 3:0.70253165 4:0.71428571 \n"
"1 1:0.55 2:0.8 3:0.55151515 4:0.71428571 \n"
"1 1:0.57666667 2:0.4488189 3:0.35260116 4:0.71428571 \n"
"0.198101648161742 1:0.57666667 2:0.65354331 3:0.39884393 4:0.71428571 \n"
"-1 1:0.57666667 2:0.7007874 3:0.64739884 4:0.71428571 \n"
"-1 1:0.6 2:0.4 3:0.65 4:0.71428571 \n"
"1 1:0.6 2:0.7 3:0.5 4:0.71428571 \n"
"0.7325164329539459 1:0.62666667 2:0.34821429 3:0.45212766 4:0.71428571 \n"
"0.4325198612801907 1:0.65 2:0.3047619 3:0.3025641 4:0.71428571 \n"
"1 1:0.65 2:0.3047619 3:0.4974359 4:0.71428571 \n"
"-0.2123898748356873 1:0.65 2:0.6 3:0.4 4:0.71428571 \n"
"0.200151570096095 1:0.65 2:0.7047619 3:0.65128205 4:0.71428571 \n"
"-1 1:0.67666667 2:0.40206186 3:0.55172414 4:0.71428571 \n"
"1 1:0.67666667 2:0.40206186 3:0.69950739 4:0.71428571 \n"
"-0.0145641384238197 1:0.67666667 2:0.45360825 3:0.44827586 4:0.71428571 \n"
"-0.0582741051205262 1:0.67666667 2:0.64948454 3:0.49753695 4:0.71428571 \n"
"-1 1:0.67666667 2:0.64948454 3:0.60098522 4:0.71428571 \n"
"0.09156037852307627 1:0.7 2:0.3 3:0.54761905 4:0.71428571 \n"
"-1 1:0.7 2:0.4 3:0.4 4:0.71428571 \n"
"1 1:0.7 2:0.6 3:0.7 4:0.71428571 \n"
"-0.9734270597236109 1:0.7 2:0.65555556 3:0.4 4:0.71428571 \n"
"-0.09505657552929996 1:0.7 2:0.7 3:0.7 4:0.71428571 \n"
"-0.2020559135968502 1:0.7 2:0.75555556 3:0.8 4:0.71428571 \n"
"1 1:0.72666667 2:0.30487805 3:0.75229358 4:0.71428571 \n"
"1 1:0.72666667 2:0.35365854 3:0.55045872 4:0.71428571 \n"
"-1 1:0.72666667 2:0.5 3:0.60091743 4:0.71428571 \n"
"-0.001975648498656129 1:0.72666667 2:0.54878049 3:0.20183486 4:0.71428571 \n"
"1 1:0.72666667 2:0.69512195 3:0.29816514 4:0.71428571 \n"
"1 1:0.72666667 2:0.69512195 3:0.5 4:0.71428571 \n"
"0.7658472620592398 1:0.75 2:0.25333333 3:0.4 4:0.71428571 \n"
"-1 1:0.75 2:0.34666667 3:0.35111111 4:0.71428571 \n"
"-0.6538221343856171 1:0.75 2:0.4 3:0.8 4:0.71428571 \n"
"-1 1:0.75 2:0.49333333 3:0.35111111 4:0.71428571 \n"
"-0.8726105719156585 1:0.75 2:0.65333333 3:0.4 4:0.71428571 \n"
"-1 1:0.77666667 2:0.44776119 3:0.79828326 4:0.71428571 \n"
"-1 1:0.77666667 2:0.49253731 3:0.39914163 4:0.71428571 \n"
"1 1:0.77666667 2:0.59701493 3:0.49785408 4:0.71428571 \n"
"-1 1:0.77666667 2:0.74626866 3:0.79828326 4:0.71428571 \n"
"-0.4263801490057078 1:0.77666667 2:0.80597015 3:0.45064378 4:0.71428571 \n"
"0.4888579561003693 1:0.77666667 2:0.80597015 3:0.69957082 4:0.71428571 \n"
"-0.03963233589011183 1:0.8 2:0.2 3:0.25 4:0.71428571 \n"
"-1 1:0.8 2:0.2 3:0.6 4:0.71428571 \n"
"1 1:0.8 2:0.2 3:0.7 4:0.71428571 \n"
"0.1927417663366641 1:0.8 2:0.2 3:0.75 4:0.71428571 \n"
"-0.3511423409014227 1:0.8 2:0.25 3:0.6 4:0.71428571 \n"
"-1 1:0.8 2:0.25 3:0.65 4:0.71428571 \n"
"0.07271696019244377 1:0.8 2:0.25 3:0.75 4:0.71428571 \n"
"-1 1:0.8 2:0.25 3:0.8 4:0.71428571 \n"
"1 1:0.8 2:0.3 3:0.75 4:0.71428571 \n"
"-0.01244373864368753 1:0.8 2:0.35 3:0.45 4:0.71428571 \n"
"1 1:0.8 2:0.35 3:0.7 4:0.71428571 \n"
"1 1:0.8 2:0.5 3:0.5 4:0.71428571 \n"
"-0.1901462385849555 1:0.8 2:0.5 3:0.6 4:0.71428571 \n"
"0.03049664724142667 1:0.8 2:0.5 3:0.75 4:0.71428571 \n"
"-0.9981782114293078 1:0.8 2:0.55 3:0.65 4:0.71428571 \n"
"0.217217679035339 1:0.8 2:0.55 3:0.75 4:0.71428571 \n"
"1 1:0.8 2:0.6 3:0.5 4:0.71428571 \n"
"1 1:0.8 2:0.65 3:0.75 4:0.71428571 \n"
"-0.3121585368676181 1:0.8 2:0.7 3:0.3 4:0.71428571 \n"
"-0.2114246245640124 1:0.8 2:0.7 3:0.6 4:0.71428571 \n"
"1 1:0.8 2:0.8 3:0.7 4:0.71428571 \n"
"-0.3264250562719014 1:0.2 2:0.3 3:0.5 4:0.85714286 \n"
"0.1721577909312348 1:0.2 2:0.3 3:0.8 4:0.85714286 \n"
"0.02237290455638955 1:0.2 2:0.75 3:0.75714286 4:0.85714286 \n"
"-0.04063346670867544 1:0.2 2:0.8 3:0.8 4:0.85714286 \n"
"0.2949674925775551 1:0.22571429 2:0.4501845 3:0.20253165 4:0.85714286 \n"
"0.05059748362150073 1:0.22571429 2:0.70110701 3:0.20253165 4:0.85714286 \n"
"0.00974147430624394 1:0.22571429 2:0.70110701 3:0.35443038 4:0.85714286 \n"
"0.05359728039097782 1:0.22571429 2:0.74907749 3:0.20253165 4:0.85714286 \n"
"-0.5427767004962329 1:0.22571429 2:0.80073801 3:0.20253165 4:0.85714286 \n"
"0.02517280269224634 1:0.25142857 2:0.19847328 3:0.29545455 4:0.85714286 \n"
"0.2531175068178947 1:0.25142857 2:0.19847328 3:0.45454545 4:0.85714286 \n"
"0.1214485045248486 1:0.25142857 2:0.45038168 3:0.39772727 4:0.85714286 \n"
"-0.04184775447037521 1:0.25142857 2:0.5 3:0.75 4:0.85714286 \n"
"0.07181356363444506 1:0.25142857 2:0.7519084 3:0.75 4:0.85714286 \n"
"-0.07677090596382211 1:0.27428571 2:0.5984252 3:0.25 4:0.85714286 \n"
"0.2899873363461468 1:0.27428571 2:0.7519685 3:0.35416667 4:0.85714286 \n"
"-0.03210334454583658 1:0.3 2:0.55102041 3:0.24761905 4:0.85714286 \n"
"0.04019738535209839 1:0.32571429 2:0.19915254 3:0.25438596 4:0.85714286 \n"
"0.2758328932311166 1:0.32571429 2:0.75 3:0.20175439 4:0.85714286 \n"
"-0.07538357441516025 1:0.35142857 2:0.34801762 3:0.3495935 4:0.85714286 \n"
"-0.1530495033856249 1:0.35142857 2:0.49779736 3:0.25203252 4:0.85714286 \n"
"-0.01200589848831771 1:0.47428571 2:0.20108696 3:0.80120482 4:0.85714286 \n"
"0.001405258802173882 1:0.47428571 2:0.40217391 3:0.25301205 4:0.85714286 \n"
"0.007148346462949275 1:0.47428571 2:0.40217391 3:0.69879518 4:0.85714286 \n"
"0.04582619911534432 1:0.5 2:0.25142857 3:0.34857143 4:0.85714286 \n"
"-0.1280436464637393 1:0.5 2:0.25142857 3:0.4 4:0.85714286 \n"
"-0.8166955006417755 1:0.5 2:0.4 3:0.65142857 4:0.85714286 \n"
"-0.472255911507537 1:0.5 2:0.49714286 3:0.2 4:0.85714286 \n"
"0.08487488917289589 1:0.5 2:0.6 3:0.54857143 4:0.85714286 \n"
"0.09791022066040828 1:0.52571429 2:0.34939759 3:0.75 4:0.85714286 \n"
"0.02822489308712915 1:0.52571429 2:0.34939759 3:0.79891304 4:0.85714286 \n"
"-1 1:0.52571429 2:0.69879518 3:0.45108696 4:0.85714286 \n"
"0.2832961749623599 1:0.55142857 2:0.19745223 3:0.5492228 4:0.85714286 \n"
"0.3035493282269475 1:0.55142857 2:0.35031847 3:0.5492228 4:0.85714286 \n"
"-0.6402989185447984 1:0.55142857 2:0.5477707 3:0.69948187 4:0.85714286 \n"
"0.00843356042750215 1:0.55142857 2:0.64968153 3:0.60103627 4:0.85714286 \n"
"0.001208088116783187 1:0.57428571 2:0.34899329 3:0.70149254 4:0.85714286 \n"
"-0.1875150237355284 1:0.57428571 2:0.40268456 3:0.44776119 4:0.85714286 \n"
"0.117039604604301 1:0.6 2:0.25 3:0.2 4:0.85714286 \n"
"0.05319089432520391 1:0.6 2:0.25 3:0.7 4:0.85714286 \n"
"1 1:0.6 2:0.35 3:0.75238095 4:0.85714286 \n"
"0.9514758201606511 1:0.6 2:0.4 3:0.5 4:0.85714286 \n"
"0.2401866515202046 1:0.6 2:0.55 3:0.3 4:0.85714286 \n"
"0.2222768336608065 1:0.6 2:0.8 3:0.54761905 4:0.85714286 \n"
"-0.2785429149403074 1:0.62571429 2:0.19847328 3:0.30136986 4:0.85714286 \n"
"0.9334615972149889 1:0.62571429 2:0.19847328 3:0.69863014 4:0.85714286 \n"
"0.01172676438724969 1:0.62571429 2:0.45038168 3:0.74885845 4:0.85714286 \n"
"-0.008297074006891393 1:0.62571429 2:0.49618321 3:0.45205479 4:0.85714286 \n"
"0.3689163082289157 1:0.62571429 2:0.64885496 3:0.54794521 4:0.85714286 \n"
"0.03364762975177178 1:0.62571429 2:0.7480916 3:0.74885845 4:0.85714286 \n"
"-1 1:0.65142857 2:0.30327869 3:0.60087719 4:0.85714286 \n"
"-0.03892964296705419 1:0.65142857 2:0.59836066 3:0.64912281 4:0.85714286 \n"
"1 1:0.65142857 2:0.75409836 3:0.29824561 4:0.85714286 \n"
"-0.1643068803315308 1:0.65142857 2:0.80327869 3:0.79824561 4:0.85714286 \n"
"-0.7014257688599326 1:0.67428571 2:0.20175439 3:0.80084746 4:0.85714286 \n"
"0.3358891658992599 1:0.67428571 2:0.5 3:0.25 4:0.85714286 \n"
"-0.9108367350182603 1:0.67428571 2:0.79824561 3:0.19915254 4:0.85714286 \n"
"1 1:0.67428571 2:0.79824561 3:0.35169492 4:0.85714286 \n"
"-1 1:0.7 2:0.2 3:0.49795918 4:0.85714286 \n"
"0.7976438846306403 1:0.7 2:0.64761905 3:0.75102041 4:0.85714286 \n"
"-1 1:0.7 2:0.75238095 3:0.4 4:0.85714286 \n"
"-1 1:0.7 2:0.8 3:0.49795918 4:0.85714286 \n"
"-1 1:0.72571429 2:0.25 3:0.7992126 4:0.85714286 \n"
"0.9990140486475312 1:0.72571429 2:0.44791667 3:0.5 4:0.85714286 \n"
"-0.4576182894624443 1:0.72571429 2:0.44791667 3:0.5511811 4:0.85714286 \n"
"1 1:0.72571429 2:0.64583333 3:0.5 4:0.85714286 \n"
"0.1284671564274821 1:0.72571429 2:0.80208333 3:0.3503937 4:0.85714286 \n"
"0.0562616343931033 1:0.75142857 2:0.29885057 3:0.20152091 4:0.85714286 \n"
"-1 1:0.75142857 2:0.65517241 3:0.39923954 4:0.85714286 \n"
"1 1:0.75142857 2:0.8045977 3:0.39923954 4:0.85714286 \n"
"-1 1:0.75142857 2:0.8045977 3:0.49809886 4:0.85714286 \n"
"0.3283349980851147 1:0.77428571 2:0.25316456 3:0.4501845 4:0.85714286 \n"
"-0.2628255262324025 1:0.77428571 2:0.25316456 3:0.64944649 4:0.85714286 \n"
"0.04519543469978991 1:0.77428571 2:0.35443038 3:0.19926199 4:0.85714286 \n"
"-0.5548910389776439 1:0.77428571 2:0.40506329 3:0.29889299 4:0.85714286 \n"
"-0.1819244854992227 1:0.77428571 2:0.49367089 3:0.80073801 4:0.85714286 \n"
"-0.2261995515985763 1:0.77428571 2:0.69620253 3:0.5498155 4:0.85714286 \n"
"-0.5875371597530349 1:0.8 2:0.2 3:0.3 4:0.85714286 \n"
"1 1:0.8 2:0.2 3:0.4 4:0.85714286 \n"
"0.9679928604468668 1:0.8 2:0.2 3:0.7 4:0.85714286 \n"
"-0.8199675619494869 1:0.8 2:0.25714286 3:0.6 4:0.85714286 \n"
"0.2746574186008952 1:0.8 2:0.25714286 3:0.75 4:0.85714286 \n"
"0.01599570118977579 1:0.8 2:0.35714286 3:0.75 4:0.85714286 \n"
"0.0003079962876343023 1:0.8 2:0.4 3:0.45 4:0.85714286 \n"
"0.8817029748186554 1:0.8 2:0.5 3:0.2 4:0.85714286 \n"
"-1 1:0.8 2:0.5 3:0.65 4:0.85714286 \n"
"1 1:0.8 2:0.5 3:0.75 4:0.85714286 \n"
"-0.01504096111439584 1:0.8 2:0.54285714 3:0.4 4:0.85714286 \n"
"1 1:0.8 2:0.6 3:0.5 4:0.85714286 \n"
"-0.05410679227512152 1:0.8 2:0.6 3:0.7 4:0.85714286 \n"
"-0.4041389476094161 1:0.8 2:0.65714286 3:0.2 4:0.85714286 \n"
"-0.6027909101629991 1:0.8 2:0.65714286 3:0.65 4:0.85714286 \n"
"-1 1:0.8 2:0.7 3:0.65 4:0.85714286 \n"
"0.4332564748372804 1:0.8 2:0.8 3:0.55 4:0.85714286 \n"
"-0.7003927070285001 1:0.2 2:0.3 3:0.25 4:1 \n"
"-0.06910354774346347 1:0.2 2:0.6 3:0.65 4:1 \n"
"0.4873476540844993 1:0.2 2:0.7 3:0.3 4:1 \n"
"0.3372038850162719 1:0.2 2:0.7 3:0.75 4:1 \n"
"-0.2191705202243991 1:0.2 2:0.8 3:0.2 4:1 \n"
"-0.1421911754618049 1:0.2 2:0.8 3:0.35 4:1 \n"
"-0.04755529004505616 1:0.2 2:0.8 3:0.5 4:1 \n"
"-0.1749461836942537 1:0.2 2:0.8 3:0.55 4:1 \n"
"-0.3540692384849451 1:0.2 2:0.8 3:0.8 4:1 \n"
"0.003475495147750267 1:0.225 2:0.2 3:0.25555556 4:1 \n"
"-0.2533755698754066 1:0.225 2:0.2 3:0.8 4:1 \n"
"-0.01808204954455377 1:0.225 2:0.5483871 3:0.2 4:1 \n"
"0.1131542358630616 1:0.225 2:0.7516129 3:0.2 4:1 \n"
"1 1:0.25 2:0.4 3:0.25 4:1 \n"
"0.005208902064179085 1:0.25 2:0.45 3:0.3 4:1 \n"
"0.5184387422739661 1:0.25 2:0.5 3:0.45 4:1 \n"
"-0.1219754693745881 1:0.25 2:0.55 3:0.3 4:1 \n"
"0.0443710608928285 1:0.25 2:0.65 3:0.7 4:1 \n"
"0.02725443724576113 1:0.25 2:0.75 3:0.65 4:1 \n"
"0.2222698929090999 1:0.275 2:0.25172414 3:0.7 4:1 \n"
"-1 1:0.275 2:0.6 3:0.4 4:1 \n"
"0.0578267631983939 1:0.275 2:0.75172414 3:0.75454545 4:1 \n"
"-0.08462997593777237 1:0.3 2:0.55 3:0.8 4:1 \n"
"-0.1621759097692729 1:0.3 2:0.6 3:0.25 4:1 \n"
"0.1423366293879199 1:0.325 2:0.2 3:0.25384615 4:1 \n"
"0.002095748445047786 1:0.325 2:0.2 3:0.35384615 4:1 \n"
"-0.2390748261882654 1:0.325 2:0.3 3:0.44615385 4:1 \n"
"-0.3136484793830916 1:0.325 2:0.5 3:0.2 4:1 \n"
"-0.02802074398665358 1:0.325 2:0.6 3:0.2 4:1 \n"
"0.3916865144765236 1:0.325 2:0.75185185 3:0.5 4:1 \n"
"0.06796491332444977 1:0.35 2:0.2 3:0.55 4:1 \n"
"-0.1171174874823598 1:0.4 2:0.55 3:0.3 4:1 \n"
"-0.007147836240104062 1:0.4 2:0.6 3:0.5 4:1 \n"
"0.1090109422265258 1:0.4 2:0.8 3:0.3 4:1 \n"
"-0.07426717382882767 1:0.45 2:0.3 3:0.5 4:1 \n"
"1 1:0.45 2:0.6 3:0.35 4:1 \n"
"-0.2331093046859784 1:0.5 2:0.5 3:0.6 4:1 \n"
"-0.04677887718587526 1:0.525 2:0.25263158 3:0.5 4:1 \n"
"0.5821866444070798 1:0.525 2:0.44736842 3:0.44761905 4:1 \n"
"-1 1:0.525 2:0.54736842 3:0.44761905 4:1 \n"
"0.05102011276926535 1:0.55 2:0.35 3:0.75 4:1 \n"
"0.2478282150651829 1:0.55 2:0.45 3:0.8 4:1 \n"
"0.2635471219318096 1:0.575 2:0.2 3:0.65217391 4:1 \n"
"0.02259145533771266 1:0.575 2:0.3 3:0.25217391 4:1 \n"
"-0.9940799302402182 1:0.575 2:0.3 3:0.6 4:1 \n"
"1 1:0.575 2:0.5 3:0.54782609 4:1 \n"
"0.2162257254251634 1:0.6 2:0.2 3:0.55 4:1 \n"
"-0.7365889237859471 1:0.6 2:0.2 3:0.8 4:1 \n"
"0.117831852673521 1:0.625 2:0.2 3:0.2 4:1 \n"
"0.02533580308409877 1:0.625 2:0.2 3:0.752 4:1 \n"
"-0.3142311994593642 1:0.625 2:0.45333333 3:0.448 4:1 \n"
"0.02079799789547691 1:0.625 2:0.6 3:0.752 4:1 \n"
"-0.06243873532213483 1:0.625 2:0.75333333 3:0.2 4:1 \n"
"-0.3215397524754426 1:0.625 2:0.75333333 3:0.548 4:1 \n"
"1 1:0.65 2:0.2 3:0.75 4:1 \n"
"1 1:0.65 2:0.4 3:0.55 4:1 \n"
"-0.4022336453302484 1:0.65 2:0.8 3:0.45 4:1 \n"
"0.2307398622379147 1:0.675 2:0.3 3:0.7 4:1 \n"
"-1 1:0.675 2:0.54615385 3:0.4 4:1 \n"
"0.01192226814480389 1:0.675 2:0.65384615 3:0.8 4:1 \n"
"0.3794281282232589 1:0.675 2:0.75384615 3:0.35185185 4:1 \n"
"-0.3804339157141501 1:0.675 2:0.75384615 3:0.5 4:1 \n"
"1 1:0.675 2:0.8 3:0.65185185 4:1 \n"
"0.07740940465522768 1:0.7 2:0.25 3:0.75 4:1 \n"
"-0.4590158891722865 1:0.7 2:0.3 3:0.4 4:1 \n"
"-0.3775661965723483 1:0.7 2:0.6 3:0.65 4:1 \n"
"-0.6104296247595336 1:0.7 2:0.75 3:0.8 4:1 \n"
"-0.1290760653185081 1:0.7 2:0.8 3:0.45 4:1 \n"
"-1 1:0.725 2:0.35454545 3:0.6 4:1 \n"
"0.07487715290094314 1:0.725 2:0.44545455 3:0.5 4:1 \n"
"-0.0203251935455067 1:0.725 2:0.44545455 3:0.8 4:1 \n"
"0.2109534272345216 1:0.725 2:0.7 3:0.45172414 4:1 \n"
"0.8576213948026701 1:0.725 2:0.75454545 3:0.6 4:1 \n"
"-1 1:0.75 2:0.2 3:0.55 4:1 \n"
"1 1:0.75 2:0.2 3:0.75 4:1 \n"
"-0.9369049249478433 1:0.75 2:0.2 3:0.8 4:1 \n"
"1 1:0.75 2:0.3 3:0.45 4:1 \n"
"-1 1:0.75 2:0.4 3:0.8 4:1 \n"
"0.6757376857040377 1:0.75 2:0.6 3:0.5 4:1 \n"
"-1 1:0.75 2:0.65 3:0.8 4:1 \n"
"0.3331602318609188 1:0.75 2:0.75 3:0.35 4:1 \n"
"1 1:0.775 2:0.2 3:0.4516129 4:1 \n"
"-0.5701534184990483 1:0.775 2:0.25555556 3:0.5483871 4:1 \n"
"0.1150156974033225 1:0.775 2:0.4 3:0.4516129 4:1 \n"
"1 1:0.775 2:0.6 3:0.7516129 4:1 \n"
"-1 1:0.775 2:0.7 3:0.6516129 4:1 \n"
"0.01718174475549202 1:0.775 2:0.8 3:0.2516129 4:1 \n"
"-0.2052635276433671 1:0.8 2:0.25 3:0.25 4:1 \n"
"-1 1:0.8 2:0.25 3:0.6 4:1 \n"
"1 1:0.8 2:0.25 3:0.75 4:1 \n"
"-0.04518204611438701 1:0.8 2:0.25 3:0.8 4:1 \n"
"0.6768238613754204 1:0.8 2:0.3 3:0.45 4:1 \n"
"-0.5138797159875904 1:0.8 2:0.35 3:0.25 4:1 \n"
"0.0261438872042605 1:0.8 2:0.4 3:0.2 4:1 \n"
"-0.004793297131704656 1:0.8 2:0.4 3:0.65 4:1 \n"
"1 1:0.8 2:0.4 3:0.75 4:1 \n"
"1 1:0.8 2:0.5 3:0.45 4:1 \n"
"-0.3991872047745405 1:0.8 2:0.5 3:0.6 4:1 \n"
"-1 1:0.8 2:0.5 3:0.65 4:1 \n"
"0.2567252018577118 1:0.8 2:0.55 3:0.2 4:1 \n"
"-0.8822601344526142 1:0.8 2:0.55 3:0.35 4:1 \n"
"1 1:0.8 2:0.6 3:0.75 4:1 \n"
"0.223252672606951 1:0.8 2:0.65 3:0.75 4:1 \n"
"-0.3335795703441325 1:0.8 2:0.65 3:0.8 4:1 \n"
"-0.5098200396284942 1:0.8 2:0.75 3:0.65 4:1 \n"
"1 1:0.8 2:0.75 3:0.75 4:1 \n";
