char* sd_model_string=
"svm_type nu_svr\n"
"kernel_type rbf\n"
"gamma 6\n"
"nr_class 2\n"
"total_sv 2252\n"
"rho -0.17177\n"
"SV\n"
"-4.651689114453807 1:0.25 2:0.25 3:0.25 4:0 \n"
"7 1:0.25 2:0.25 3:0.4 4:0 \n"
"7 1:0.25 2:0.25 3:0.55 4:0 \n"
"7 1:0.25 2:0.25 3:0.65 4:0 \n"
"7 1:0.25 2:0.25 3:0.7 4:0 \n"
"-7 1:0.25 2:0.25 3:0.75 4:0 \n"
"-7 1:0.25 2:0.3 3:0.5 4:0 \n"
"7 1:0.25 2:0.3 3:0.55 4:0 \n"
"7 1:0.25 2:0.3 3:0.65 4:0 \n"
"7 1:0.25 2:0.3 3:0.7 4:0 \n"
"-7 1:0.25 2:0.3 3:0.75 4:0 \n"
"7 1:0.25 2:0.35 3:0.35 4:0 \n"
"7 1:0.25 2:0.35 3:0.4 4:0 \n"
"7 1:0.25 2:0.35 3:0.55 4:0 \n"
"7 1:0.25 2:0.35 3:0.65 4:0 \n"
"7 1:0.25 2:0.35 3:0.7 4:0 \n"
"-7 1:0.25 2:0.35 3:0.75 4:0 \n"
"-7 1:0.25 2:0.4 3:0.5 4:0 \n"
"6.962169267859902 1:0.25 2:0.4 3:0.55 4:0 \n"
"7 1:0.25 2:0.4 3:0.65 4:0 \n"
"7 1:0.25 2:0.4 3:0.7 4:0 \n"
"-7 1:0.25 2:0.45 3:0.25 4:0 \n"
"4.814249161182227 1:0.25 2:0.45 3:0.35 4:0 \n"
"-7 1:0.25 2:0.45 3:0.5 4:0 \n"
"6.99889567240216 1:0.25 2:0.45 3:0.55 4:0 \n"
"7 1:0.25 2:0.45 3:0.65 4:0 \n"
"7 1:0.25 2:0.45 3:0.7 4:0 \n"
"-7 1:0.25 2:0.45 3:0.75 4:0 \n"
"-7 1:0.25 2:0.5 3:0.25 4:0 \n"
"7 1:0.25 2:0.5 3:0.65 4:0 \n"
"7 1:0.25 2:0.5 3:0.7 4:0 \n"
"-7 1:0.25 2:0.5 3:0.75 4:0 \n"
"7 1:0.25 2:0.55 3:0.4 4:0 \n"
"7 1:0.25 2:0.55 3:0.65 4:0 \n"
"7 1:0.25 2:0.55 3:0.7 4:0 \n"
"-7 1:0.25 2:0.55 3:0.75 4:0 \n"
"-7 1:0.25 2:0.6 3:0.25 4:0 \n"
"7 1:0.25 2:0.6 3:0.35 4:0 \n"
"7 1:0.25 2:0.6 3:0.4 4:0 \n"
"7 1:0.25 2:0.6 3:0.45 4:0 \n"
"7 1:0.25 2:0.6 3:0.55 4:0 \n"
"7 1:0.25 2:0.6 3:0.6 4:0 \n"
"7 1:0.25 2:0.6 3:0.65 4:0 \n"
"7 1:0.25 2:0.6 3:0.7 4:0 \n"
"-4.172383623406401 1:0.25 2:0.6 3:0.75 4:0 \n"
"-7 1:0.25 2:0.65 3:0.25 4:0 \n"
"0.9854396917780308 1:0.25 2:0.65 3:0.35 4:0 \n"
"7 1:0.25 2:0.65 3:0.55 4:0 \n"
"2.063050760402332 1:0.25 2:0.65 3:0.6 4:0 \n"
"7 1:0.25 2:0.65 3:0.65 4:0 \n"
"7 1:0.25 2:0.65 3:0.7 4:0 \n"
"-3.608642727157741 1:0.25 2:0.7 3:0.25 4:0 \n"
"7 1:0.25 2:0.7 3:0.55 4:0 \n"
"7 1:0.25 2:0.7 3:0.65 4:0 \n"
"7 1:0.25 2:0.7 3:0.7 4:0 \n"
"-7 1:0.25 2:0.75 3:0.25 4:0 \n"
"7 1:0.25 2:0.75 3:0.35 4:0 \n"
"7 1:0.25 2:0.75 3:0.55 4:0 \n"
"7 1:0.25 2:0.75 3:0.65 4:0 \n"
"7 1:0.25 2:0.75 3:0.7 4:0 \n"
"7 1:0.25 2:0.25 3:0.65 4:0.14285714 \n"
"4.636817498944088 1:0.25 2:0.3 3:0.3 4:0.14285714 \n"
"-7 1:0.25 2:0.3 3:0.5 4:0.14285714 \n"
"-7 1:0.25 2:0.3 3:0.55 4:0.14285714 \n"
"-2.263779097354462 1:0.25 2:0.35 3:0.25 4:0.14285714 \n"
"-7 1:0.25 2:0.35 3:0.7 4:0.14285714 \n"
"-7 1:0.25 2:0.4 3:0.7 4:0.14285714 \n"
"0.3204109959712546 1:0.25 2:0.45 3:0.45 4:0.14285714 \n"
"-6.163835801453478 1:0.25 2:0.45 3:0.7 4:0.14285714 \n"
"7 1:0.25 2:0.5 3:0.45 4:0.14285714 \n"
"7 1:0.25 2:0.5 3:0.65 4:0.14285714 \n"
"-1.006297185127172 1:0.25 2:0.6 3:0.25 4:0.14285714 \n"
"-7 1:0.25 2:0.6 3:0.7 4:0.14285714 \n"
"-7 1:0.25 2:0.65 3:0.25 4:0.14285714 \n"
"-7 1:0.25 2:0.7 3:0.25 4:0.14285714 \n"
"7 1:0.25 2:0.7 3:0.65 4:0.14285714 \n"
"-7 1:0.25 2:0.7 3:0.7 4:0.14285714 \n"
"7 1:0.25 2:0.75 3:0.65 4:0.14285714 \n"
"7 1:0.25 2:0.25 3:0.45 4:0.28571429 \n"
"-2.517203576059224 1:0.25 2:0.25 3:0.7 4:0.28571429 \n"
"2.650528259183286 1:0.25 2:0.3 3:0.25 4:0.28571429 \n"
"4.896089397506977 1:0.25 2:0.3 3:0.35 4:0.28571429 \n"
"-7 1:0.25 2:0.35 3:0.75 4:0.28571429 \n"
"7 1:0.25 2:0.4 3:0.35 4:0.28571429 \n"
"7 1:0.25 2:0.4 3:0.4 4:0.28571429 \n"
"-7 1:0.25 2:0.45 3:0.75 4:0.28571429 \n"
"-6.964960278328918 1:0.25 2:0.55 3:0.75 4:0.28571429 \n"
"5.814425296827749 1:0.25 2:0.6 3:0.25 4:0.28571429 \n"
"-7 1:0.25 2:0.6 3:0.7 4:0.28571429 \n"
"-3.119133060515132 1:0.25 2:0.7 3:0.6 4:0.28571429 \n"
"7 1:0.25 2:0.75 3:0.25 4:0.28571429 \n"
"-0.7180788137804572 1:0.25 2:0.3 3:0.35 4:0.42857143 \n"
"-5.210595825910242 1:0.25 2:0.4 3:0.65 4:0.42857143 \n"
"7 1:0.25 2:0.5 3:0.7 4:0.42857143 \n"
"0.8804130818437402 1:0.25 2:0.7 3:0.7 4:0.42857143 \n"
"-6.926668267058509 1:0.25 2:0.75 3:0.65 4:0.42857143 \n"
"-7 1:0.25 2:0.35 3:0.3 4:0.57142857 \n"
"-7 1:0.25 2:0.4 3:0.35 4:0.57142857 \n"
"2.029825030370481 1:0.25 2:0.5 3:0.75 4:0.57142857 \n"
"0.05065671697100682 1:0.25 2:0.55 3:0.65 4:0.57142857 \n"
"0.2040306124812774 1:0.25 2:0.65 3:0.75 4:0.57142857 \n"
"4.351009268810884 1:0.25 2:0.75 3:0.7 4:0.57142857 \n"
"3.325200568385549 1:0.25 2:0.25 3:0.75 4:0.71428571 \n"
"0.04583354409638122 1:0.25 2:0.25 3:0.65 4:0.85714286 \n"
"0.6010788388038372 1:0.25 2:0.3 3:0.75 4:0.85714286 \n"
"5.642570232602247 1:0.25 2:0.4 3:0.35 4:0.85714286 \n"
"7 1:0.25 2:0.55 3:0.3 4:0.85714286 \n"
"-7 1:0.25 2:0.6 3:0.3 4:0.85714286 \n"
"0.4434543071872283 1:0.25 2:0.65 3:0.65 4:0.85714286 \n"
"1.785357578863543 1:0.25 2:0.35 3:0.35 4:1 \n"
"7 1:0.25 2:0.4 3:0.3 4:1 \n"
"-1.390125166446065 1:0.25 2:0.4 3:0.5 4:1 \n"
"4.535363513463385 1:0.25 2:0.45 3:0.5 4:1 \n"
"0.7278179177899603 1:0.25 2:0.5 3:0.4 4:1 \n"
"-0.4695081735932728 1:0.25 2:0.5 3:0.5 4:1 \n"
"-1.693017234682019 1:0.25 2:0.55 3:0.25 4:1 \n"
"-7 1:0.25 2:0.6 3:0.3 4:1 \n"
"7 1:0.3 2:0.25 3:0.3 4:0 \n"
"-7 1:0.3 2:0.25 3:0.45 4:0 \n"
"-7 1:0.3 2:0.25 3:0.5 4:0 \n"
"7 1:0.3 2:0.25 3:0.55 4:0 \n"
"-7 1:0.3 2:0.25 3:0.7 4:0 \n"
"7 1:0.3 2:0.25 3:0.75 4:0 \n"
"-7 1:0.3 2:0.3 3:0.45 4:0 \n"
"-7 1:0.3 2:0.3 3:0.5 4:0 \n"
"7 1:0.3 2:0.3 3:0.55 4:0 \n"
"7 1:0.3 2:0.3 3:0.6 4:0 \n"
"-7 1:0.3 2:0.3 3:0.7 4:0 \n"
"7 1:0.3 2:0.3 3:0.75 4:0 \n"
"-7 1:0.3 2:0.35 3:0.25 4:0 \n"
"-7 1:0.3 2:0.35 3:0.35 4:0 \n"
"-3.685931155561916 1:0.3 2:0.35 3:0.45 4:0 \n"
"-7 1:0.3 2:0.35 3:0.5 4:0 \n"
"-7 1:0.3 2:0.35 3:0.65 4:0 \n"
"-7 1:0.3 2:0.35 3:0.7 4:0 \n"
"7 1:0.3 2:0.35 3:0.75 4:0 \n"
"-7 1:0.3 2:0.4 3:0.7 4:0 \n"
"7 1:0.3 2:0.4 3:0.75 4:0 \n"
"7 1:0.3 2:0.45 3:0.3 4:0 \n"
"-7 1:0.3 2:0.45 3:0.35 4:0 \n"
"-7 1:0.3 2:0.45 3:0.5 4:0 \n"
"-7 1:0.3 2:0.45 3:0.7 4:0 \n"
"7 1:0.3 2:0.45 3:0.75 4:0 \n"
"-7 1:0.3 2:0.5 3:0.35 4:0 \n"
"-7 1:0.3 2:0.5 3:0.5 4:0 \n"
"-7 1:0.3 2:0.5 3:0.7 4:0 \n"
"7 1:0.3 2:0.5 3:0.75 4:0 \n"
"-7 1:0.3 2:0.55 3:0.35 4:0 \n"
"-7 1:0.3 2:0.55 3:0.5 4:0 \n"
"-7 1:0.3 2:0.55 3:0.7 4:0 \n"
"7 1:0.3 2:0.55 3:0.75 4:0 \n"
"7 1:0.3 2:0.6 3:0.3 4:0 \n"
"-7 1:0.3 2:0.6 3:0.5 4:0 \n"
"-7 1:0.3 2:0.6 3:0.7 4:0 \n"
"7 1:0.3 2:0.6 3:0.75 4:0 \n"
"-7 1:0.3 2:0.65 3:0.25 4:0 \n"
"-7 1:0.3 2:0.65 3:0.35 4:0 \n"
"-7 1:0.3 2:0.65 3:0.5 4:0 \n"
"-7 1:0.3 2:0.65 3:0.65 4:0 \n"
"-7 1:0.3 2:0.65 3:0.7 4:0 \n"
"7 1:0.3 2:0.65 3:0.75 4:0 \n"
"-7 1:0.3 2:0.7 3:0.35 4:0 \n"
"-7 1:0.3 2:0.7 3:0.4 4:0 \n"
"-7 1:0.3 2:0.7 3:0.45 4:0 \n"
"-7 1:0.3 2:0.7 3:0.5 4:0 \n"
"-7 1:0.3 2:0.7 3:0.6 4:0 \n"
"-7 1:0.3 2:0.7 3:0.65 4:0 \n"
"-7 1:0.3 2:0.7 3:0.7 4:0 \n"
"1.362852969735504 1:0.3 2:0.7 3:0.75 4:0 \n"
"7 1:0.3 2:0.75 3:0.25 4:0 \n"
"7 1:0.3 2:0.75 3:0.3 4:0 \n"
"-7 1:0.3 2:0.75 3:0.5 4:0 \n"
"4.461925086274627 1:0.3 2:0.75 3:0.55 4:0 \n"
"-7 1:0.3 2:0.75 3:0.7 4:0 \n"
"7 1:0.3 2:0.75 3:0.75 4:0 \n"
"7 1:0.3 2:0.25 3:0.7 4:0.14285714 \n"
"-7 1:0.3 2:0.3 3:0.3 4:0.14285714 \n"
"3.420271702379724 1:0.3 2:0.3 3:0.35 4:0.14285714 \n"
"-5.977678221064568 1:0.3 2:0.3 3:0.55 4:0.14285714 \n"
"-7 1:0.3 2:0.3 3:0.6 4:0.14285714 \n"
"-7 1:0.3 2:0.3 3:0.75 4:0.14285714 \n"
"7 1:0.3 2:0.35 3:0.25 4:0.14285714 \n"
"-7 1:0.3 2:0.4 3:0.55 4:0.14285714 \n"
"7 1:0.3 2:0.45 3:0.6 4:0.14285714 \n"
"-7 1:0.3 2:0.45 3:0.75 4:0.14285714 \n"
"7 1:0.3 2:0.5 3:0.25 4:0.14285714 \n"
"-2.082689702248633 1:0.3 2:0.5 3:0.3 4:0.14285714 \n"
"3.519870183618905 1:0.3 2:0.5 3:0.4 4:0.14285714 \n"
"-7 1:0.3 2:0.5 3:0.65 4:0.14285714 \n"
"-7 1:0.3 2:0.55 3:0.35 4:0.14285714 \n"
"-7 1:0.3 2:0.55 3:0.65 4:0.14285714 \n"
"-7 1:0.3 2:0.55 3:0.75 4:0.14285714 \n"
"7 1:0.3 2:0.6 3:0.25 4:0.14285714 \n"
"-7 1:0.3 2:0.6 3:0.65 4:0.14285714 \n"
"-7 1:0.3 2:0.65 3:0.3 4:0.14285714 \n"
"-6.89741733036646 1:0.3 2:0.65 3:0.45 4:0.14285714 \n"
"-7 1:0.3 2:0.65 3:0.65 4:0.14285714 \n"
"-7 1:0.3 2:0.65 3:0.75 4:0.14285714 \n"
"2.374484257003217 1:0.3 2:0.7 3:0.45 4:0.14285714 \n"
"-0.3303492474293435 1:0.3 2:0.7 3:0.55 4:0.14285714 \n"
"-3.964087134153572 1:0.3 2:0.75 3:0.75 4:0.14285714 \n"
"7 1:0.3 2:0.3 3:0.7 4:0.28571429 \n"
"-7 1:0.3 2:0.4 3:0.45 4:0.28571429 \n"
"7 1:0.3 2:0.4 3:0.7 4:0.28571429 \n"
"2.869145876721554 1:0.3 2:0.45 3:0.7 4:0.28571429 \n"
"7 1:0.3 2:0.5 3:0.65 4:0.28571429 \n"
"7 1:0.3 2:0.5 3:0.7 4:0.28571429 \n"
"7 1:0.3 2:0.55 3:0.55 4:0.28571429 \n"
"-7 1:0.3 2:0.6 3:0.25 4:0.28571429 \n"
"-7 1:0.3 2:0.6 3:0.55 4:0.28571429 \n"
"-6.960820835572141 1:0.3 2:0.6 3:0.75 4:0.28571429 \n"
"7 1:0.3 2:0.65 3:0.7 4:0.28571429 \n"
"-7 1:0.3 2:0.65 3:0.75 4:0.28571429 \n"
"-7 1:0.3 2:0.7 3:0.25 4:0.28571429 \n"
"-1.77183362531602 1:0.3 2:0.75 3:0.55 4:0.28571429 \n"
"-2.835996956315328 1:0.3 2:0.25 3:0.25 4:0.42857143 \n"
"-4.323689066913051 1:0.3 2:0.25 3:0.35 4:0.42857143 \n"
"-7 1:0.3 2:0.35 3:0.7 4:0.42857143 \n"
"-7 1:0.3 2:0.4 3:0.4 4:0.42857143 \n"
"6.898297887415526 1:0.3 2:0.3 3:0.25 4:0.57142857 \n"
"-1.440709238365068 1:0.3 2:0.3 3:0.3 4:0.57142857 \n"
"-6.95198122393605 1:0.3 2:0.3 3:0.65 4:0.57142857 \n"
"3.754988716137936 1:0.3 2:0.3 3:0.75 4:0.57142857 \n"
"7 1:0.3 2:0.35 3:0.4 4:0.57142857 \n"
"-6.836408594053696 1:0.3 2:0.4 3:0.4 4:0.57142857 \n"
"-3.942097885091484 1:0.3 2:0.5 3:0.45 4:0.57142857 \n"
"-6.999030377119775 1:0.3 2:0.55 3:0.25 4:0.57142857 \n"
"1.480483115524381 1:0.3 2:0.6 3:0.4 4:0.57142857 \n"
"7 1:0.3 2:0.45 3:0.3 4:0.71428571 \n"
"-6.030786842909475 1:0.3 2:0.55 3:0.3 4:0.71428571 \n"
"7 1:0.3 2:0.6 3:0.25 4:0.71428571 \n"
"-1.729406681877456 1:0.3 2:0.7 3:0.45 4:0.71428571 \n"
"-4.706083461828576 1:0.3 2:0.75 3:0.65 4:0.71428571 \n"
"-7 1:0.3 2:0.35 3:0.4 4:0.85714286 \n"
"5.152047839589683 1:0.3 2:0.4 3:0.5 4:0.85714286 \n"
"7 1:0.3 2:0.7 3:0.45 4:0.85714286 \n"
"-6.879985299983742 1:0.3 2:0.3 3:0.25 4:1 \n"
"-4.447506034027884 1:0.3 2:0.35 3:0.45 4:1 \n"
"7 1:0.3 2:0.4 3:0.45 4:1 \n"
"-7 1:0.3 2:0.45 3:0.45 4:1 \n"
"0.4366604184198618 1:0.3 2:0.45 3:0.75 4:1 \n"
"-0.9870781662044934 1:0.3 2:0.65 3:0.55 4:1 \n"
"0.280795439555532 1:0.3 2:0.75 3:0.75 4:1 \n"
"7 1:0.35 2:0.25 3:0.5 4:0 \n"
"-7 1:0.35 2:0.25 3:0.7 4:0 \n"
"-7 1:0.35 2:0.25 3:0.75 4:0 \n"
"7 1:0.35 2:0.3 3:0.25 4:0 \n"
"7 1:0.35 2:0.3 3:0.45 4:0 \n"
"7 1:0.35 2:0.3 3:0.5 4:0 \n"
"-7 1:0.35 2:0.3 3:0.7 4:0 \n"
"-7 1:0.35 2:0.3 3:0.75 4:0 \n"
"-6.922256430200334 1:0.35 2:0.35 3:0.7 4:0 \n"
"-7 1:0.35 2:0.35 3:0.75 4:0 \n"
"7 1:0.35 2:0.4 3:0.25 4:0 \n"
"-7 1:0.35 2:0.4 3:0.3 4:0 \n"
"7 1:0.35 2:0.4 3:0.45 4:0 \n"
"-7 1:0.35 2:0.4 3:0.5 4:0 \n"
"-7 1:0.35 2:0.4 3:0.7 4:0 \n"
"-7 1:0.35 2:0.4 3:0.75 4:0 \n"
"7 1:0.35 2:0.45 3:0.25 4:0 \n"
"7 1:0.35 2:0.45 3:0.45 4:0 \n"
"-7 1:0.35 2:0.45 3:0.7 4:0 \n"
"-7 1:0.35 2:0.45 3:0.75 4:0 \n"
"7 1:0.35 2:0.5 3:0.25 4:0 \n"
"-7 1:0.35 2:0.5 3:0.3 4:0 \n"
"4.839194675569138 1:0.35 2:0.5 3:0.35 4:0 \n"
"7 1:0.35 2:0.5 3:0.4 4:0 \n"
"-6.270184995079108 1:0.35 2:0.5 3:0.65 4:0 \n"
"-7 1:0.35 2:0.5 3:0.7 4:0 \n"
"-7 1:0.35 2:0.5 3:0.75 4:0 \n"
"-7 1:0.35 2:0.55 3:0.3 4:0 \n"
"-7 1:0.35 2:0.55 3:0.75 4:0 \n"
"7 1:0.35 2:0.6 3:0.25 4:0 \n"
"7 1:0.35 2:0.6 3:0.4 4:0 \n"
"7 1:0.35 2:0.6 3:0.45 4:0 \n"
"0.9773351394222044 1:0.35 2:0.6 3:0.55 4:0 \n"
"-7 1:0.35 2:0.6 3:0.7 4:0 \n"
"-7 1:0.35 2:0.6 3:0.75 4:0 \n"
"7 1:0.35 2:0.65 3:0.25 4:0 \n"
"-7 1:0.35 2:0.65 3:0.3 4:0 \n"
"-6.102821309495847 1:0.35 2:0.65 3:0.65 4:0 \n"
"-1.395697971390726 1:0.35 2:0.65 3:0.7 4:0 \n"
"-7 1:0.35 2:0.65 3:0.75 4:0 \n"
"7 1:0.35 2:0.7 3:0.25 4:0 \n"
"7 1:0.35 2:0.7 3:0.4 4:0 \n"
"7 1:0.35 2:0.7 3:0.45 4:0 \n"
"7 1:0.35 2:0.7 3:0.5 4:0 \n"
"7 1:0.35 2:0.7 3:0.55 4:0 \n"
"7 1:0.35 2:0.7 3:0.6 4:0 \n"
"6.638404705855534 1:0.35 2:0.7 3:0.65 4:0 \n"
"-7 1:0.35 2:0.7 3:0.75 4:0 \n"
"7 1:0.35 2:0.75 3:0.25 4:0 \n"
"3.945769387724502 1:0.35 2:0.75 3:0.45 4:0 \n"
"7 1:0.35 2:0.75 3:0.5 4:0 \n"
"-7 1:0.35 2:0.75 3:0.7 4:0 \n"
"-7 1:0.35 2:0.75 3:0.75 4:0 \n"
"-7 1:0.35 2:0.25 3:0.65 4:0.14285714 \n"
"7 1:0.35 2:0.25 3:0.75 4:0.14285714 \n"
"7 1:0.35 2:0.3 3:0.75 4:0.14285714 \n"
"-7 1:0.35 2:0.35 3:0.35 4:0.14285714 \n"
"-7 1:0.35 2:0.35 3:0.7 4:0.14285714 \n"
"-1.413608312030261 1:0.35 2:0.4 3:0.7 4:0.14285714 \n"
"7 1:0.35 2:0.4 3:0.75 4:0.14285714 \n"
"7 1:0.35 2:0.45 3:0.55 4:0.14285714 \n"
"7 1:0.35 2:0.5 3:0.75 4:0.14285714 \n"
"7 1:0.35 2:0.55 3:0.75 4:0.14285714 \n"
"7 1:0.35 2:0.6 3:0.3 4:0.14285714 \n"
"-7 1:0.35 2:0.6 3:0.35 4:0.14285714 \n"
"-7 1:0.35 2:0.6 3:0.7 4:0.14285714 \n"
"7 1:0.35 2:0.6 3:0.75 4:0.14285714 \n"
"7 1:0.35 2:0.65 3:0.3 4:0.14285714 \n"
"-7 1:0.35 2:0.65 3:0.65 4:0.14285714 \n"
"7 1:0.35 2:0.65 3:0.75 4:0.14285714 \n"
"-1.114726858693015 1:0.35 2:0.7 3:0.3 4:0.14285714 \n"
"-7 1:0.35 2:0.7 3:0.5 4:0.14285714 \n"
"-7 1:0.35 2:0.7 3:0.7 4:0.14285714 \n"
"7 1:0.35 2:0.7 3:0.75 4:0.14285714 \n"
"2.424054011387877 1:0.35 2:0.75 3:0.75 4:0.14285714 \n"
"-4.995387680819658 1:0.35 2:0.25 3:0.3 4:0.28571429 \n"
"5.255742146407642 1:0.35 2:0.25 3:0.35 4:0.28571429 \n"
"-7 1:0.35 2:0.35 3:0.35 4:0.28571429 \n"
"7 1:0.35 2:0.35 3:0.45 4:0.28571429 \n"
"-7 1:0.35 2:0.4 3:0.35 4:0.28571429 \n"
"7 1:0.35 2:0.4 3:0.4 4:0.28571429 \n"
"7 1:0.35 2:0.4 3:0.65 4:0.28571429 \n"
"7 1:0.35 2:0.5 3:0.65 4:0.28571429 \n"
"7 1:0.35 2:0.6 3:0.35 4:0.28571429 \n"
"7 1:0.35 2:0.65 3:0.35 4:0.28571429 \n"
"7 1:0.35 2:0.65 3:0.5 4:0.28571429 \n"
"-6.212736590208697 1:0.35 2:0.7 3:0.3 4:0.28571429 \n"
"7 1:0.35 2:0.75 3:0.65 4:0.28571429 \n"
"7 1:0.35 2:0.35 3:0.35 4:0.42857143 \n"
"7 1:0.35 2:0.35 3:0.6 4:0.42857143 \n"
"6.724784946030868 1:0.35 2:0.45 3:0.3 4:0.42857143 \n"
"-7 1:0.35 2:0.45 3:0.4 4:0.42857143 \n"
"0.8206630353161712 1:0.35 2:0.5 3:0.7 4:0.42857143 \n"
"-4.915530213306736 1:0.35 2:0.55 3:0.6 4:0.42857143 \n"
"7 1:0.35 2:0.7 3:0.25 4:0.42857143 \n"
"1.741616069925645 1:0.35 2:0.7 3:0.7 4:0.42857143 \n"
"7 1:0.35 2:0.75 3:0.3 4:0.42857143 \n"
"7 1:0.35 2:0.35 3:0.35 4:0.57142857 \n"
"0.3927593647147208 1:0.35 2:0.4 3:0.65 4:0.57142857 \n"
"-0.7202973239534877 1:0.35 2:0.4 3:0.7 4:0.57142857 \n"
"7 1:0.35 2:0.5 3:0.45 4:0.57142857 \n"
"-0.09580428741250753 1:0.35 2:0.4 3:0.55 4:0.71428571 \n"
"-4.577608073197811 1:0.35 2:0.25 3:0.5 4:0.85714286 \n"
"2.915126039484593 1:0.35 2:0.4 3:0.65 4:0.85714286 \n"
"-4.892016488212053 1:0.35 2:0.45 3:0.75 4:0.85714286 \n"
"0.6923198278841377 1:0.35 2:0.5 3:0.25 4:0.85714286 \n"
"-6.745019373392609 1:0.35 2:0.5 3:0.3 4:0.85714286 \n"
"-6.971829593081315 1:0.35 2:0.5 3:0.35 4:0.85714286 \n"
"-7 1:0.35 2:0.5 3:0.6 4:0.85714286 \n"
"4.777179984040912 1:0.35 2:0.55 3:0.45 4:0.85714286 \n"
"-7 1:0.35 2:0.55 3:0.5 4:0.85714286 \n"
"5.541771951691885 1:0.35 2:0.55 3:0.7 4:0.85714286 \n"
"7 1:0.35 2:0.6 3:0.35 4:0.85714286 \n"
"3.048284082292196 1:0.35 2:0.25 3:0.7 4:1 \n"
"-3.710185051924304 1:0.35 2:0.45 3:0.65 4:1 \n"
"2.045791252480619 1:0.35 2:0.5 3:0.3 4:1 \n"
"-0.02563431732657344 1:0.35 2:0.65 3:0.55 4:1 \n"
"1.740057627219276 1:0.35 2:0.7 3:0.4 4:1 \n"
"7 1:0.4 2:0.25 3:0.35 4:0 \n"
"7 1:0.4 2:0.25 3:0.65 4:0 \n"
"-7 1:0.4 2:0.3 3:0.35 4:0 \n"
"-7 1:0.4 2:0.3 3:0.55 4:0 \n"
"7 1:0.4 2:0.3 3:0.7 4:0 \n"
"-7 1:0.4 2:0.35 3:0.45 4:0 \n"
"1.170721101666341 1:0.4 2:0.35 3:0.55 4:0 \n"
"7 1:0.4 2:0.4 3:0.7 4:0 \n"
"-7 1:0.4 2:0.45 3:0.3 4:0 \n"
"7 1:0.4 2:0.45 3:0.5 4:0 \n"
"7 1:0.4 2:0.45 3:0.7 4:0 \n"
"7 1:0.4 2:0.5 3:0.6 4:0 \n"
"7 1:0.4 2:0.5 3:0.7 4:0 \n"
"-7 1:0.4 2:0.55 3:0.3 4:0 \n"
"-6.336821654224352 1:0.4 2:0.55 3:0.55 4:0 \n"
"-6.030173449337633 1:0.4 2:0.6 3:0.4 4:0 \n"
"-7 1:0.4 2:0.65 3:0.3 4:0 \n"
"-7 1:0.4 2:0.65 3:0.4 4:0 \n"
"-7 1:0.4 2:0.65 3:0.5 4:0 \n"
"-7 1:0.4 2:0.7 3:0.3 4:0 \n"
"7 1:0.4 2:0.7 3:0.65 4:0 \n"
"-7 1:0.4 2:0.75 3:0.25 4:0 \n"
"-7 1:0.4 2:0.75 3:0.3 4:0 \n"
"-7 1:0.4 2:0.75 3:0.35 4:0 \n"
"-7 1:0.4 2:0.75 3:0.75 4:0 \n"
"5.124554558939735 1:0.4 2:0.4 3:0.3 4:0.14285714 \n"
"1.573744583615994 1:0.4 2:0.4 3:0.4 4:0.14285714 \n"
"2.793816948017324 1:0.4 2:0.4 3:0.55 4:0.14285714 \n"
"7 1:0.4 2:0.55 3:0.7 4:0.14285714 \n"
"0.6458319109098285 1:0.4 2:0.65 3:0.45 4:0.14285714 \n"
"7 1:0.4 2:0.65 3:0.65 4:0.14285714 \n"
"-0.5473481884338033 1:0.4 2:0.3 3:0.3 4:0.28571429 \n"
"-7 1:0.4 2:0.35 3:0.3 4:0.28571429 \n"
"-7 1:0.4 2:0.35 3:0.6 4:0.28571429 \n"
"-7 1:0.4 2:0.4 3:0.3 4:0.28571429 \n"
"3.901990807023635 1:0.4 2:0.45 3:0.6 4:0.28571429 \n"
"-7 1:0.4 2:0.65 3:0.35 4:0.28571429 \n"
"7 1:0.4 2:0.65 3:0.7 4:0.28571429 \n"
"0.4597504634990316 1:0.4 2:0.3 3:0.55 4:0.42857143 \n"
"7 1:0.4 2:0.45 3:0.45 4:0.42857143 \n"
"-7 1:0.4 2:0.55 3:0.5 4:0.42857143 \n"
"-7 1:0.4 2:0.65 3:0.55 4:0.42857143 \n"
"7 1:0.4 2:0.7 3:0.45 4:0.42857143 \n"
"-7 1:0.4 2:0.75 3:0.4 4:0.42857143 \n"
"-7 1:0.4 2:0.25 3:0.5 4:0.57142857 \n"
"-1.707242378866955 1:0.4 2:0.35 3:0.55 4:0.57142857 \n"
"7 1:0.4 2:0.4 3:0.45 4:0.57142857 \n"
"-0.7423195393049949 1:0.4 2:0.5 3:0.4 4:0.57142857 \n"
"0.7660150006541747 1:0.4 2:0.5 3:0.7 4:0.57142857 \n"
"-4.768329353981194 1:0.4 2:0.6 3:0.25 4:0.57142857 \n"
"1.576544615970672 1:0.4 2:0.65 3:0.65 4:0.57142857 \n"
"-3.57931820048879 1:0.4 2:0.35 3:0.35 4:0.71428571 \n"
"-7 1:0.4 2:0.35 3:0.5 4:0.71428571 \n"
"-1.36081076093281 1:0.4 2:0.4 3:0.25 4:0.71428571 \n"
"4.584949072471523 1:0.4 2:0.6 3:0.35 4:0.71428571 \n"
"-5.193802509308417 1:0.4 2:0.65 3:0.3 4:0.71428571 \n"
"7 1:0.4 2:0.75 3:0.25 4:0.71428571 \n"
"5.620692300627104 1:0.4 2:0.25 3:0.4 4:0.85714286 \n"
"-7 1:0.4 2:0.3 3:0.65 4:0.85714286 \n"
"7 1:0.4 2:0.4 3:0.45 4:0.85714286 \n"
"7 1:0.4 2:0.45 3:0.5 4:0.85714286 \n"
"-6.252318243112923 1:0.4 2:0.5 3:0.5 4:0.85714286 \n"
"7 1:0.4 2:0.5 3:0.65 4:0.85714286 \n"
"-1.961450460272636 1:0.4 2:0.5 3:0.75 4:0.85714286 \n"
"3.127281361537466 1:0.4 2:0.45 3:0.65 4:1 \n"
"-7 1:0.45 2:0.25 3:0.55 4:0 \n"
"7 1:0.45 2:0.25 3:0.65 4:0 \n"
"7 1:0.45 2:0.25 3:0.7 4:0 \n"
"7 1:0.45 2:0.25 3:0.75 4:0 \n"
"1.385016240652654 1:0.45 2:0.3 3:0.25 4:0 \n"
"5.884377632810015 1:0.45 2:0.3 3:0.45 4:0 \n"
"-7 1:0.45 2:0.3 3:0.55 4:0 \n"
"7 1:0.45 2:0.3 3:0.7 4:0 \n"
"7 1:0.45 2:0.3 3:0.75 4:0 \n"
"-6.586708645998954 1:0.45 2:0.35 3:0.3 4:0 \n"
"-7 1:0.45 2:0.35 3:0.6 4:0 \n"
"7 1:0.45 2:0.35 3:0.75 4:0 \n"
"0.00158270338627407 1:0.45 2:0.4 3:0.25 4:0 \n"
"7 1:0.45 2:0.4 3:0.7 4:0 \n"
"7 1:0.45 2:0.4 3:0.75 4:0 \n"
"7 1:0.45 2:0.45 3:0.25 4:0 \n"
"7 1:0.45 2:0.45 3:0.65 4:0 \n"
"7 1:0.45 2:0.45 3:0.75 4:0 \n"
"7 1:0.45 2:0.5 3:0.3 4:0 \n"
"7 1:0.45 2:0.5 3:0.45 4:0 \n"
"-6.684878368334841 1:0.45 2:0.5 3:0.55 4:0 \n"
"7 1:0.45 2:0.5 3:0.65 4:0 \n"
"7 1:0.45 2:0.5 3:0.7 4:0 \n"
"7 1:0.45 2:0.5 3:0.75 4:0 \n"
"0.001098431947361914 1:0.45 2:0.55 3:0.65 4:0 \n"
"7 1:0.45 2:0.55 3:0.7 4:0 \n"
"7 1:0.45 2:0.55 3:0.75 4:0 \n"
"7 1:0.45 2:0.6 3:0.25 4:0 \n"
"7 1:0.45 2:0.6 3:0.4 4:0 \n"
"7 1:0.45 2:0.6 3:0.45 4:0 \n"
"7 1:0.45 2:0.6 3:0.5 4:0 \n"
"7 1:0.45 2:0.6 3:0.7 4:0 \n"
"7 1:0.45 2:0.6 3:0.75 4:0 \n"
"-7 1:0.45 2:0.65 3:0.35 4:0 \n"
"7 1:0.45 2:0.65 3:0.4 4:0 \n"
"-7 1:0.45 2:0.65 3:0.45 4:0 \n"
"-7 1:0.45 2:0.65 3:0.55 4:0 \n"
"7 1:0.45 2:0.65 3:0.7 4:0 \n"
"7 1:0.45 2:0.65 3:0.75 4:0 \n"
"3.744714957594206 1:0.45 2:0.7 3:0.25 4:0 \n"
"7 1:0.45 2:0.7 3:0.35 4:0 \n"
"-7 1:0.45 2:0.7 3:0.45 4:0 \n"
"7 1:0.45 2:0.7 3:0.55 4:0 \n"
"-2.532749191046745 1:0.45 2:0.7 3:0.6 4:0 \n"
"7 1:0.45 2:0.7 3:0.7 4:0 \n"
"7 1:0.45 2:0.7 3:0.75 4:0 \n"
"7 1:0.45 2:0.75 3:0.25 4:0 \n"
"7 1:0.45 2:0.75 3:0.35 4:0 \n"
"7 1:0.45 2:0.75 3:0.45 4:0 \n"
"7 1:0.45 2:0.75 3:0.65 4:0 \n"
"7 1:0.45 2:0.75 3:0.7 4:0 \n"
"7 1:0.45 2:0.75 3:0.75 4:0 \n"
"-7 1:0.45 2:0.25 3:0.6 4:0.14285714 \n"
"7 1:0.45 2:0.25 3:0.7 4:0.14285714 \n"
"7 1:0.45 2:0.35 3:0.5 4:0.14285714 \n"
"7 1:0.45 2:0.35 3:0.7 4:0.14285714 \n"
"-7 1:0.45 2:0.35 3:0.75 4:0.14285714 \n"
"-7 1:0.45 2:0.4 3:0.4 4:0.14285714 \n"
"7 1:0.45 2:0.4 3:0.7 4:0.14285714 \n"
"-0.6355466424563948 1:0.45 2:0.45 3:0.4 4:0.14285714 \n"
"1.572030488114419 1:0.45 2:0.5 3:0.3 4:0.14285714 \n"
"7 1:0.45 2:0.5 3:0.4 4:0.14285714 \n"
"-7 1:0.45 2:0.5 3:0.5 4:0.14285714 \n"
"7 1:0.45 2:0.5 3:0.7 4:0.14285714 \n"
"-3.675322575905872 1:0.45 2:0.55 3:0.25 4:0.14285714 \n"
"6.674351782688264 1:0.45 2:0.55 3:0.7 4:0.14285714 \n"
"7 1:0.45 2:0.6 3:0.3 4:0.14285714 \n"
"7 1:0.45 2:0.6 3:0.7 4:0.14285714 \n"
"7 1:0.45 2:0.65 3:0.3 4:0.14285714 \n"
"7 1:0.45 2:0.65 3:0.7 4:0.14285714 \n"
"6.365644448739411 1:0.45 2:0.7 3:0.7 4:0.14285714 \n"
"7 1:0.45 2:0.25 3:0.5 4:0.28571429 \n"
"7 1:0.45 2:0.3 3:0.5 4:0.28571429 \n"
"-0.2631013264139765 1:0.45 2:0.35 3:0.7 4:0.28571429 \n"
"-3.198061600221541 1:0.45 2:0.45 3:0.7 4:0.28571429 \n"
"-1.513462725366306 1:0.45 2:0.5 3:0.7 4:0.28571429 \n"
"-6.501581962388911 1:0.45 2:0.55 3:0.35 4:0.28571429 \n"
"7 1:0.45 2:0.6 3:0.65 4:0.28571429 \n"
"-7 1:0.45 2:0.75 3:0.3 4:0.28571429 \n"
"-4.974234152001062 1:0.45 2:0.75 3:0.7 4:0.28571429 \n"
"-5.982786201809769 1:0.45 2:0.4 3:0.45 4:0.42857143 \n"
"-7 1:0.45 2:0.5 3:0.65 4:0.42857143 \n"
"-1.801679641474527 1:0.45 2:0.6 3:0.25 4:0.42857143 \n"
"7 1:0.45 2:0.6 3:0.4 4:0.42857143 \n"
"-7 1:0.45 2:0.7 3:0.75 4:0.42857143 \n"
"-7 1:0.45 2:0.75 3:0.35 4:0.42857143 \n"
"4.849422190474682 1:0.45 2:0.25 3:0.7 4:0.57142857 \n"
"-7 1:0.45 2:0.4 3:0.45 4:0.57142857 \n"
"7 1:0.45 2:0.4 3:0.55 4:0.57142857 \n"
"-7 1:0.45 2:0.45 3:0.35 4:0.57142857 \n"
"-7 1:0.45 2:0.5 3:0.25 4:0.57142857 \n"
"7 1:0.45 2:0.5 3:0.65 4:0.57142857 \n"
"7 1:0.45 2:0.6 3:0.35 4:0.57142857 \n"
"-1.799469989969023 1:0.45 2:0.3 3:0.25 4:0.71428571 \n"
"7 1:0.45 2:0.3 3:0.5 4:0.71428571 \n"
"-0.665551272942747 1:0.45 2:0.45 3:0.65 4:0.71428571 \n"
"0.09286309777728169 1:0.45 2:0.5 3:0.45 4:0.71428571 \n"
"-7 1:0.45 2:0.7 3:0.3 4:0.71428571 \n"
"-5.145372796758036 1:0.45 2:0.4 3:0.4 4:0.85714286 \n"
"7 1:0.45 2:0.4 3:0.45 4:0.85714286 \n"
"1.635294436309867 1:0.45 2:0.55 3:0.35 4:0.85714286 \n"
"-7 1:0.45 2:0.55 3:0.55 4:0.85714286 \n"
"2.603610116340765 1:0.45 2:0.6 3:0.55 4:0.85714286 \n"
"-6.006569371615431 1:0.45 2:0.75 3:0.35 4:0.85714286 \n"
"-7 1:0.45 2:0.25 3:0.55 4:1 \n"
"-0.2213792468798995 1:0.45 2:0.3 3:0.55 4:1 \n"
"7 1:0.45 2:0.35 3:0.55 4:1 \n"
"-0.7557169166685594 1:0.45 2:0.55 3:0.3 4:1 \n"
"7 1:0.45 2:0.65 3:0.5 4:1 \n"
"-6.628995828391375 1:0.45 2:0.7 3:0.5 4:1 \n"
"-7 1:0.5 2:0.25 3:0.25 4:0 \n"
"-7 1:0.5 2:0.25 3:0.5 4:0 \n"
"-7 1:0.5 2:0.25 3:0.55 4:0 \n"
"-7 1:0.5 2:0.25 3:0.7 4:0 \n"
"-7 1:0.5 2:0.25 3:0.75 4:0 \n"
"-7 1:0.5 2:0.3 3:0.25 4:0 \n"
"7 1:0.5 2:0.3 3:0.35 4:0 \n"
"-2.155566681319836 1:0.5 2:0.3 3:0.4 4:0 \n"
"-7 1:0.5 2:0.3 3:0.7 4:0 \n"
"-2.596959522108214 1:0.5 2:0.3 3:0.75 4:0 \n"
"-7 1:0.5 2:0.35 3:0.25 4:0 \n"
"7 1:0.5 2:0.35 3:0.3 4:0 \n"
"7 1:0.5 2:0.35 3:0.65 4:0 \n"
"-7 1:0.5 2:0.35 3:0.7 4:0 \n"
"-7 1:0.5 2:0.4 3:0.25 4:0 \n"
"7 1:0.5 2:0.4 3:0.3 4:0 \n"
"-7 1:0.5 2:0.4 3:0.6 4:0 \n"
"0.6959178743243866 1:0.5 2:0.4 3:0.65 4:0 \n"
"-7 1:0.5 2:0.4 3:0.7 4:0 \n"
"-7 1:0.5 2:0.4 3:0.75 4:0 \n"
"-7 1:0.5 2:0.45 3:0.7 4:0 \n"
"-7 1:0.5 2:0.5 3:0.25 4:0 \n"
"7 1:0.5 2:0.5 3:0.3 4:0 \n"
"-7 1:0.5 2:0.5 3:0.55 4:0 \n"
"-7 1:0.5 2:0.5 3:0.7 4:0 \n"
"-7 1:0.5 2:0.5 3:0.75 4:0 \n"
"-7 1:0.5 2:0.55 3:0.25 4:0 \n"
"-7 1:0.5 2:0.55 3:0.55 4:0 \n"
"-7 1:0.5 2:0.55 3:0.7 4:0 \n"
"-7 1:0.5 2:0.55 3:0.75 4:0 \n"
"-7 1:0.5 2:0.6 3:0.25 4:0 \n"
"7 1:0.5 2:0.6 3:0.3 4:0 \n"
"-7 1:0.5 2:0.6 3:0.5 4:0 \n"
"-7 1:0.5 2:0.6 3:0.7 4:0 \n"
"-7 1:0.5 2:0.6 3:0.75 4:0 \n"
"-7 1:0.5 2:0.65 3:0.25 4:0 \n"
"7 1:0.5 2:0.65 3:0.3 4:0 \n"
"7 1:0.5 2:0.65 3:0.35 4:0 \n"
"-7 1:0.5 2:0.65 3:0.7 4:0 \n"
"-3.382364491494413 1:0.5 2:0.65 3:0.75 4:0 \n"
"-7 1:0.5 2:0.7 3:0.25 4:0 \n"
"-7 1:0.5 2:0.7 3:0.4 4:0 \n"
"-7 1:0.5 2:0.7 3:0.55 4:0 \n"
"-7 1:0.5 2:0.7 3:0.7 4:0 \n"
"-7 1:0.5 2:0.7 3:0.75 4:0 \n"
"-7 1:0.5 2:0.75 3:0.25 4:0 \n"
"-7 1:0.5 2:0.75 3:0.5 4:0 \n"
"-5.674165199251848 1:0.5 2:0.75 3:0.55 4:0 \n"
"-7 1:0.5 2:0.75 3:0.7 4:0 \n"
"-7 1:0.5 2:0.75 3:0.75 4:0 \n"
"-2.188704765369638 1:0.5 2:0.25 3:0.75 4:0.14285714 \n"
"4.5115390358178 1:0.5 2:0.3 3:0.25 4:0.14285714 \n"
"-7 1:0.5 2:0.3 3:0.75 4:0.14285714 \n"
"7 1:0.5 2:0.35 3:0.25 4:0.14285714 \n"
"7 1:0.5 2:0.35 3:0.45 4:0.14285714 \n"
"-0.1334364471388775 1:0.5 2:0.4 3:0.75 4:0.14285714 \n"
"-7 1:0.5 2:0.45 3:0.65 4:0.14285714 \n"
"7 1:0.5 2:0.5 3:0.25 4:0.14285714 \n"
"-0.04850704648910404 1:0.5 2:0.5 3:0.3 4:0.14285714 \n"
"-1.09905321939109 1:0.5 2:0.5 3:0.65 4:0.14285714 \n"
"7 1:0.5 2:0.55 3:0.4 4:0.14285714 \n"
"-7 1:0.5 2:0.55 3:0.65 4:0.14285714 \n"
"-7 1:0.5 2:0.55 3:0.75 4:0.14285714 \n"
"-7 1:0.5 2:0.6 3:0.75 4:0.14285714 \n"
"-7 1:0.5 2:0.65 3:0.65 4:0.14285714 \n"
"7 1:0.5 2:0.75 3:0.3 4:0.14285714 \n"
"-7 1:0.5 2:0.75 3:0.75 4:0.14285714 \n"
"-1.326352278514706 1:0.5 2:0.25 3:0.7 4:0.28571429 \n"
"-7 1:0.5 2:0.4 3:0.6 4:0.28571429 \n"
"-0.9608585317098344 1:0.5 2:0.4 3:0.65 4:0.28571429 \n"
"-7 1:0.5 2:0.45 3:0.7 4:0.28571429 \n"
"0.2828078339147731 1:0.5 2:0.5 3:0.45 4:0.28571429 \n"
"-7 1:0.5 2:0.55 3:0.55 4:0.28571429 \n"
"-7 1:0.5 2:0.55 3:0.65 4:0.28571429 \n"
"7 1:0.5 2:0.6 3:0.3 4:0.28571429 \n"
"-7 1:0.5 2:0.65 3:0.75 4:0.28571429 \n"
"7 1:0.5 2:0.7 3:0.5 4:0.28571429 \n"
"3.415604653868154 1:0.5 2:0.75 3:0.45 4:0.28571429 \n"
"-7 1:0.5 2:0.25 3:0.55 4:0.42857143 \n"
"7 1:0.5 2:0.35 3:0.3 4:0.42857143 \n"
"-7 1:0.5 2:0.45 3:0.4 4:0.42857143 \n"
"-7 1:0.5 2:0.45 3:0.6 4:0.42857143 \n"
"7 1:0.5 2:0.5 3:0.4 4:0.42857143 \n"
"4.607708486570489 1:0.5 2:0.55 3:0.7 4:0.42857143 \n"
"7 1:0.5 2:0.4 3:0.3 4:0.57142857 \n"
"2.234569000574637 1:0.5 2:0.45 3:0.6 4:0.57142857 \n"
"-7 1:0.5 2:0.5 3:0.5 4:0.57142857 \n"
"-2.181037895596598 1:0.5 2:0.55 3:0.75 4:0.57142857 \n"
"0.5553737022160231 1:0.5 2:0.6 3:0.5 4:0.57142857 \n"
"-3.148892502468377 1:0.5 2:0.25 3:0.4 4:0.71428571 \n"
"7 1:0.5 2:0.45 3:0.45 4:0.71428571 \n"
"-7 1:0.5 2:0.5 3:0.6 4:0.71428571 \n"
"2.016378081930468 1:0.5 2:0.55 3:0.65 4:0.71428571 \n"
"7 1:0.5 2:0.3 3:0.35 4:0.85714286 \n"
"-1.993363202891708 1:0.5 2:0.3 3:0.4 4:0.85714286 \n"
"7 1:0.5 2:0.35 3:0.6 4:0.85714286 \n"
"-2.149844767852878 1:0.5 2:0.35 3:0.75 4:0.85714286 \n"
"-7 1:0.5 2:0.4 3:0.45 4:0.85714286 \n"
"-0.8943900302530806 1:0.5 2:0.6 3:0.35 4:0.85714286 \n"
"-1.707137905394576 1:0.5 2:0.75 3:0.7 4:0.85714286 \n"
"7 1:0.5 2:0.25 3:0.45 4:1 \n"
"-7 1:0.5 2:0.3 3:0.35 4:1 \n"
"-2.689009029559265 1:0.5 2:0.3 3:0.6 4:1 \n"
"-2.219533935814097 1:0.5 2:0.35 3:0.25 4:1 \n"
"-1.281627975740264 1:0.5 2:0.35 3:0.45 4:1 \n"
"-4.659637705120686 1:0.5 2:0.4 3:0.7 4:1 \n"
"-7 1:0.5 2:0.45 3:0.4 4:1 \n"
"7 1:0.5 2:0.65 3:0.45 4:1 \n"
"1.33135241040315 1:0.5 2:0.7 3:0.75 4:1 \n"
"7 1:0.55 2:0.25 3:0.35 4:0 \n"
"7 1:0.55 2:0.25 3:0.4 4:0 \n"
"7 1:0.55 2:0.25 3:0.55 4:0 \n"
"7 1:0.55 2:0.25 3:0.65 4:0 \n"
"7 1:0.55 2:0.25 3:0.75 4:0 \n"
"-7 1:0.55 2:0.3 3:0.3 4:0 \n"
"7 1:0.55 2:0.3 3:0.35 4:0 \n"
"7 1:0.55 2:0.3 3:0.55 4:0 \n"
"7 1:0.55 2:0.3 3:0.65 4:0 \n"
"-7 1:0.55 2:0.35 3:0.3 4:0 \n"
"7 1:0.55 2:0.35 3:0.55 4:0 \n"
"7 1:0.55 2:0.35 3:0.65 4:0 \n"
"7 1:0.55 2:0.35 3:0.75 4:0 \n"
"-7 1:0.55 2:0.4 3:0.3 4:0 \n"
"7 1:0.55 2:0.4 3:0.35 4:0 \n"
"4.198662517602442 1:0.55 2:0.4 3:0.65 4:0 \n"
"-0.1187089674444323 1:0.55 2:0.4 3:0.7 4:0 \n"
"-7 1:0.55 2:0.45 3:0.3 4:0 \n"
"7 1:0.55 2:0.45 3:0.35 4:0 \n"
"7 1:0.55 2:0.45 3:0.45 4:0 \n"
"7 1:0.55 2:0.45 3:0.65 4:0 \n"
"2.077128197631295 1:0.55 2:0.45 3:0.75 4:0 \n"
"-7 1:0.55 2:0.5 3:0.4 4:0 \n"
"7 1:0.55 2:0.5 3:0.65 4:0 \n"
"-7 1:0.55 2:0.55 3:0.3 4:0 \n"
"4.571997225579572 1:0.55 2:0.55 3:0.35 4:0 \n"
"7 1:0.55 2:0.55 3:0.45 4:0 \n"
"-7 1:0.55 2:0.6 3:0.3 4:0 \n"
"-7 1:0.55 2:0.6 3:0.45 4:0 \n"
"7 1:0.55 2:0.6 3:0.55 4:0 \n"
"6.252709794301396 1:0.55 2:0.6 3:0.75 4:0 \n"
"-7 1:0.55 2:0.65 3:0.3 4:0 \n"
"7 1:0.55 2:0.65 3:0.35 4:0 \n"
"7 1:0.55 2:0.65 3:0.55 4:0 \n"
"7 1:0.55 2:0.65 3:0.65 4:0 \n"
"7 1:0.55 2:0.65 3:0.75 4:0 \n"
"-7 1:0.55 2:0.7 3:0.3 4:0 \n"
"7 1:0.55 2:0.7 3:0.55 4:0 \n"
"7 1:0.55 2:0.7 3:0.65 4:0 \n"
"7 1:0.55 2:0.7 3:0.75 4:0 \n"
"-7 1:0.55 2:0.75 3:0.3 4:0 \n"
"7 1:0.55 2:0.75 3:0.35 4:0 \n"
"7 1:0.55 2:0.75 3:0.65 4:0 \n"
"-7 1:0.55 2:0.75 3:0.7 4:0 \n"
"7 1:0.55 2:0.75 3:0.75 4:0 \n"
"-7 1:0.55 2:0.25 3:0.45 4:0.14285714 \n"
"-7 1:0.55 2:0.25 3:0.6 4:0.14285714 \n"
"7 1:0.55 2:0.3 3:0.45 4:0.14285714 \n"
"-7 1:0.55 2:0.3 3:0.7 4:0.14285714 \n"
"2.841998264420187 1:0.55 2:0.4 3:0.3 4:0.14285714 \n"
"-7 1:0.55 2:0.4 3:0.35 4:0.14285714 \n"
"-7 1:0.55 2:0.4 3:0.7 4:0.14285714 \n"
"-7 1:0.55 2:0.5 3:0.35 4:0.14285714 \n"
"5.789864358236139 1:0.55 2:0.5 3:0.4 4:0.14285714 \n"
"7 1:0.55 2:0.5 3:0.5 4:0.14285714 \n"
"7 1:0.55 2:0.55 3:0.3 4:0.14285714 \n"
"-7 1:0.55 2:0.55 3:0.35 4:0.14285714 \n"
"-7 1:0.55 2:0.55 3:0.65 4:0.14285714 \n"
"1.784009360038193 1:0.55 2:0.55 3:0.75 4:0.14285714 \n"
"-7 1:0.55 2:0.6 3:0.35 4:0.14285714 \n"
"-7 1:0.55 2:0.6 3:0.65 4:0.14285714 \n"
"0.1002294554468465 1:0.55 2:0.7 3:0.3 4:0.14285714 \n"
"7 1:0.55 2:0.7 3:0.45 4:0.14285714 \n"
"-7 1:0.55 2:0.7 3:0.7 4:0.14285714 \n"
"-7 1:0.55 2:0.75 3:0.5 4:0.14285714 \n"
"0.174970543986705 1:0.55 2:0.3 3:0.25 4:0.28571429 \n"
"7 1:0.55 2:0.35 3:0.3 4:0.28571429 \n"
"-7 1:0.55 2:0.4 3:0.45 4:0.28571429 \n"
"3.513568828887026 1:0.55 2:0.4 3:0.6 4:0.28571429 \n"
"-7 1:0.55 2:0.45 3:0.4 4:0.28571429 \n"
"7 1:0.55 2:0.5 3:0.75 4:0.28571429 \n"
"7 1:0.55 2:0.55 3:0.65 4:0.28571429 \n"
"7 1:0.55 2:0.55 3:0.75 4:0.28571429 \n"
"5.483032651090181 1:0.55 2:0.65 3:0.55 4:0.28571429 \n"
"-7 1:0.55 2:0.65 3:0.65 4:0.28571429 \n"
"7 1:0.55 2:0.65 3:0.75 4:0.28571429 \n"
"-0.425339376672173 1:0.55 2:0.75 3:0.45 4:0.28571429 \n"
"7 1:0.55 2:0.25 3:0.65 4:0.42857143 \n"
"-0.3150166107554848 1:0.55 2:0.3 3:0.65 4:0.42857143 \n"
"3.144250628680267 1:0.55 2:0.45 3:0.25 4:0.42857143 \n"
"7 1:0.55 2:0.45 3:0.5 4:0.42857143 \n"
"7 1:0.55 2:0.5 3:0.5 4:0.42857143 \n"
"-7 1:0.55 2:0.7 3:0.65 4:0.42857143 \n"
"-4.214758722259289 1:0.55 2:0.75 3:0.6 4:0.42857143 \n"
"3.0596269462526 1:0.55 2:0.25 3:0.25 4:0.57142857 \n"
"3.036239609371199 1:0.55 2:0.45 3:0.25 4:0.57142857 \n"
"-7 1:0.55 2:0.45 3:0.35 4:0.57142857 \n"
"7 1:0.55 2:0.55 3:0.25 4:0.57142857 \n"
"-2.835834878616897 1:0.55 2:0.55 3:0.3 4:0.57142857 \n"
"1.480495178261524 1:0.55 2:0.65 3:0.35 4:0.57142857 \n"
"-0.3185481184785069 1:0.55 2:0.7 3:0.75 4:0.57142857 \n"
"2.745424012838105 1:0.55 2:0.75 3:0.65 4:0.57142857 \n"
"-7 1:0.55 2:0.75 3:0.7 4:0.57142857 \n"
"-5.030112539511316 1:0.55 2:0.25 3:0.65 4:0.71428571 \n"
"7 1:0.55 2:0.3 3:0.3 4:0.71428571 \n"
"-7 1:0.55 2:0.35 3:0.4 4:0.71428571 \n"
"7 1:0.55 2:0.4 3:0.45 4:0.71428571 \n"
"6.039205626353541 1:0.55 2:0.4 3:0.5 4:0.71428571 \n"
"-1.572862314657109 1:0.55 2:0.45 3:0.4 4:0.71428571 \n"
"-0.2676220103820453 1:0.55 2:0.55 3:0.25 4:0.71428571 \n"
"7 1:0.55 2:0.55 3:0.3 4:0.71428571 \n"
"-7 1:0.55 2:0.6 3:0.4 4:0.71428571 \n"
"-2.877597482554966 1:0.55 2:0.6 3:0.6 4:0.71428571 \n"
"6.64662966073278 1:0.55 2:0.65 3:0.55 4:0.71428571 \n"
"-7 1:0.55 2:0.6 3:0.65 4:0.85714286 \n"
"6.258693448826878 1:0.55 2:0.65 3:0.55 4:0.85714286 \n"
"-7 1:0.55 2:0.75 3:0.45 4:0.85714286 \n"
"0.06399920321988495 1:0.55 2:0.25 3:0.25 4:1 \n"
"-0.03866970436434029 1:0.55 2:0.25 3:0.65 4:1 \n"
"7 1:0.55 2:0.3 3:0.25 4:1 \n"
"0.6259150618660029 1:0.55 2:0.3 3:0.5 4:1 \n"
"-6.116802399764493 1:0.55 2:0.3 3:0.6 4:1 \n"
"-1.348547504240461 1:0.55 2:0.5 3:0.45 4:1 \n"
"-2.078551503730369 1:0.55 2:0.65 3:0.25 4:1 \n"
"7 1:0.55 2:0.65 3:0.3 4:1 \n"
"-7 1:0.55 2:0.65 3:0.65 4:1 \n"
"-7 1:0.55 2:0.7 3:0.3 4:1 \n"
"-7 1:0.55 2:0.7 3:0.5 4:1 \n"
"7 1:0.55 2:0.7 3:0.6 4:1 \n"
"4.873177641362601 1:0.55 2:0.75 3:0.25 4:1 \n"
"-3.633839133630922 1:0.55 2:0.75 3:0.55 4:1 \n"
"-7 1:0.6 2:0.25 3:0.55 4:0 \n"
"-7 1:0.6 2:0.25 3:0.65 4:0 \n"
"-7 1:0.6 2:0.25 3:0.75 4:0 \n"
"0.0306156593270311 1:0.6 2:0.3 3:0.25 4:0 \n"
"-4.5287597521001 1:0.6 2:0.3 3:0.4 4:0 \n"
"-7 1:0.6 2:0.3 3:0.55 4:0 \n"
"4.14022845691556 1:0.6 2:0.3 3:0.6 4:0 \n"
"-7 1:0.6 2:0.3 3:0.65 4:0 \n"
"1.190847245152262 1:0.6 2:0.3 3:0.7 4:0 \n"
"-7 1:0.6 2:0.3 3:0.75 4:0 \n"
"7 1:0.6 2:0.35 3:0.25 4:0 \n"
"-7 1:0.6 2:0.35 3:0.5 4:0 \n"
"-7 1:0.6 2:0.35 3:0.55 4:0 \n"
"-7 1:0.6 2:0.35 3:0.65 4:0 \n"
"-7 1:0.6 2:0.35 3:0.75 4:0 \n"
"-6.273373189933355 1:0.6 2:0.4 3:0.3 4:0 \n"
"-7 1:0.6 2:0.4 3:0.65 4:0 \n"
"-7 1:0.6 2:0.4 3:0.75 4:0 \n"
"7 1:0.6 2:0.45 3:0.25 4:0 \n"
"-7 1:0.6 2:0.45 3:0.3 4:0 \n"
"7 1:0.6 2:0.45 3:0.35 4:0 \n"
"-7 1:0.6 2:0.45 3:0.4 4:0 \n"
"-7 1:0.6 2:0.45 3:0.65 4:0 \n"
"-7 1:0.6 2:0.45 3:0.75 4:0 \n"
"7 1:0.6 2:0.5 3:0.25 4:0 \n"
"-7 1:0.6 2:0.5 3:0.4 4:0 \n"
"-0.9026113776931762 1:0.6 2:0.5 3:0.55 4:0 \n"
"-7 1:0.6 2:0.5 3:0.65 4:0 \n"
"-7 1:0.6 2:0.5 3:0.75 4:0 \n"
"7 1:0.6 2:0.55 3:0.25 4:0 \n"
"-7 1:0.6 2:0.55 3:0.5 4:0 \n"
"-7 1:0.6 2:0.55 3:0.65 4:0 \n"
"-7 1:0.6 2:0.55 3:0.75 4:0 \n"
"7 1:0.6 2:0.6 3:0.25 4:0 \n"
"7 1:0.6 2:0.6 3:0.35 4:0 \n"
"-7 1:0.6 2:0.6 3:0.65 4:0 \n"
"-7 1:0.6 2:0.6 3:0.75 4:0 \n"
"7 1:0.6 2:0.65 3:0.25 4:0 \n"
"-7 1:0.6 2:0.65 3:0.5 4:0 \n"
"-7 1:0.6 2:0.65 3:0.75 4:0 \n"
"-7 1:0.6 2:0.7 3:0.5 4:0 \n"
"-7 1:0.6 2:0.7 3:0.6 4:0 \n"
"-7 1:0.6 2:0.7 3:0.65 4:0 \n"
"7 1:0.6 2:0.7 3:0.7 4:0 \n"
"-7 1:0.6 2:0.7 3:0.75 4:0 \n"
"-7 1:0.6 2:0.75 3:0.3 4:0 \n"
"7 1:0.6 2:0.75 3:0.35 4:0 \n"
"-7 1:0.6 2:0.75 3:0.5 4:0 \n"
"-7 1:0.6 2:0.75 3:0.55 4:0 \n"
"-7 1:0.6 2:0.75 3:0.65 4:0 \n"
"-7 1:0.6 2:0.75 3:0.75 4:0 \n"
"-7 1:0.6 2:0.3 3:0.3 4:0.14285714 \n"
"7 1:0.6 2:0.3 3:0.6 4:0.14285714 \n"
"-7 1:0.6 2:0.35 3:0.4 4:0.14285714 \n"
"2.761364533789429 1:0.6 2:0.35 3:0.65 4:0.14285714 \n"
"0.4070284023566469 1:0.6 2:0.35 3:0.75 4:0.14285714 \n"
"-7 1:0.6 2:0.5 3:0.3 4:0.14285714 \n"
"-1.283654199943736 1:0.6 2:0.5 3:0.35 4:0.14285714 \n"
"-0.1310311948037637 1:0.6 2:0.55 3:0.55 4:0.14285714 \n"
"7 1:0.6 2:0.55 3:0.65 4:0.14285714 \n"
"5.024680221079832 1:0.6 2:0.6 3:0.55 4:0.14285714 \n"
"-2.164054834489643 1:0.6 2:0.65 3:0.3 4:0.14285714 \n"
"-7 1:0.6 2:0.65 3:0.4 4:0.14285714 \n"
"7 1:0.6 2:0.65 3:0.7 4:0.14285714 \n"
"5.520077678770761 1:0.6 2:0.75 3:0.75 4:0.14285714 \n"
"2.972905781149705 1:0.6 2:0.25 3:0.25 4:0.28571429 \n"
"-0.09430651146017673 1:0.6 2:0.25 3:0.3 4:0.28571429 \n"
"-0.02178702173200534 1:0.6 2:0.3 3:0.35 4:0.28571429 \n"
"-7 1:0.6 2:0.35 3:0.35 4:0.28571429 \n"
"7 1:0.6 2:0.35 3:0.45 4:0.28571429 \n"
"-4.629505163102539 1:0.6 2:0.35 3:0.65 4:0.28571429 \n"
"7 1:0.6 2:0.5 3:0.25 4:0.28571429 \n"
"-0.6316109684529512 1:0.6 2:0.5 3:0.35 4:0.28571429 \n"
"7 1:0.6 2:0.5 3:0.5 4:0.28571429 \n"
"-7 1:0.6 2:0.55 3:0.55 4:0.28571429 \n"
"-1.377479530587181 1:0.6 2:0.6 3:0.55 4:0.28571429 \n"
"1.951492773501121 1:0.6 2:0.65 3:0.5 4:0.28571429 \n"
"-0.07433459760874765 1:0.6 2:0.75 3:0.4 4:0.28571429 \n"
"-0.01864530955230793 1:0.6 2:0.25 3:0.3 4:0.42857143 \n"
"-0.1964926784689661 1:0.6 2:0.35 3:0.45 4:0.42857143 \n"
"0.3586681198102686 1:0.6 2:0.5 3:0.3 4:0.42857143 \n"
"-7 1:0.6 2:0.5 3:0.55 4:0.42857143 \n"
"1.709360357372036 1:0.6 2:0.5 3:0.6 4:0.42857143 \n"
"-0.002363533415374904 1:0.6 2:0.55 3:0.45 4:0.42857143 \n"
"-7 1:0.6 2:0.6 3:0.4 4:0.42857143 \n"
"7 1:0.6 2:0.7 3:0.7 4:0.42857143 \n"
"7 1:0.6 2:0.7 3:0.75 4:0.42857143 \n"
"-7 1:0.6 2:0.75 3:0.35 4:0.42857143 \n"
"7 1:0.6 2:0.25 3:0.45 4:0.57142857 \n"
"-7 1:0.6 2:0.25 3:0.65 4:0.57142857 \n"
"7 1:0.6 2:0.45 3:0.6 4:0.57142857 \n"
"-7 1:0.6 2:0.5 3:0.65 4:0.57142857 \n"
"-4.343426681108465 1:0.6 2:0.5 3:0.7 4:0.57142857 \n"
"0.1283650776937003 1:0.6 2:0.6 3:0.55 4:0.57142857 \n"
"-2.359271853856558 1:0.6 2:0.75 3:0.4 4:0.57142857 \n"
"7 1:0.6 2:0.75 3:0.5 4:0.57142857 \n"
"7 1:0.6 2:0.25 3:0.6 4:0.71428571 \n"
"-7 1:0.6 2:0.35 3:0.65 4:0.71428571 \n"
"-7 1:0.6 2:0.4 3:0.45 4:0.71428571 \n"
"-7 1:0.6 2:0.45 3:0.35 4:0.71428571 \n"
"-7 1:0.6 2:0.55 3:0.45 4:0.71428571 \n"
"7 1:0.6 2:0.55 3:0.5 4:0.71428571 \n"
"-3.495694740878998 1:0.6 2:0.65 3:0.25 4:0.71428571 \n"
"-0.008420115937570383 1:0.6 2:0.75 3:0.55 4:0.71428571 \n"
"-7 1:0.6 2:0.25 3:0.45 4:0.85714286 \n"
"-6.182562804149211 1:0.6 2:0.3 3:0.4 4:0.85714286 \n"
"7 1:0.6 2:0.4 3:0.3 4:0.85714286 \n"
"7 1:0.6 2:0.6 3:0.35 4:0.85714286 \n"
"5.372262879841753 1:0.6 2:0.6 3:0.6 4:0.85714286 \n"
"7 1:0.6 2:0.65 3:0.3 4:0.85714286 \n"
"-0.8834150975807609 1:0.6 2:0.7 3:0.75 4:0.85714286 \n"
"7 1:0.6 2:0.25 3:0.65 4:1 \n"
"-6.145590362219674 1:0.6 2:0.3 3:0.4 4:1 \n"
"7 1:0.6 2:0.35 3:0.45 4:1 \n"
"6.907874311841936 1:0.6 2:0.4 3:0.3 4:1 \n"
"-0.7398324423752327 1:0.6 2:0.45 3:0.45 4:1 \n"
"7 1:0.6 2:0.5 3:0.6 4:1 \n"
"5.01391812367348 1:0.6 2:0.6 3:0.75 4:1 \n"
"0.9519204333071443 1:0.6 2:0.65 3:0.45 4:1 \n"
"-6.761185725440616 1:0.6 2:0.75 3:0.25 4:1 \n"
"-7 1:0.65 2:0.25 3:0.25 4:0 \n"
"-7 1:0.65 2:0.25 3:0.45 4:0 \n"
"7 1:0.65 2:0.25 3:0.65 4:0 \n"
"7 1:0.65 2:0.3 3:0.65 4:0 \n"
"-7 1:0.65 2:0.35 3:0.25 4:0 \n"
"7 1:0.65 2:0.35 3:0.35 4:0 \n"
"7 1:0.65 2:0.35 3:0.65 4:0 \n"
"7 1:0.65 2:0.35 3:0.7 4:0 \n"
"-7 1:0.65 2:0.4 3:0.25 4:0 \n"
"7 1:0.65 2:0.4 3:0.3 4:0 \n"
"7 1:0.65 2:0.4 3:0.35 4:0 \n"
"7 1:0.65 2:0.4 3:0.65 4:0 \n"
"7 1:0.65 2:0.4 3:0.7 4:0 \n"
"-2.435943562894586 1:0.65 2:0.45 3:0.55 4:0 \n"
"7 1:0.65 2:0.45 3:0.65 4:0 \n"
"7 1:0.65 2:0.45 3:0.7 4:0 \n"
"-7 1:0.65 2:0.5 3:0.4 4:0 \n"
"7 1:0.65 2:0.5 3:0.65 4:0 \n"
"7 1:0.65 2:0.5 3:0.7 4:0 \n"
"-7 1:0.65 2:0.55 3:0.25 4:0 \n"
"7 1:0.65 2:0.55 3:0.35 4:0 \n"
"7 1:0.65 2:0.55 3:0.65 4:0 \n"
"7 1:0.65 2:0.55 3:0.7 4:0 \n"
"-7 1:0.65 2:0.6 3:0.25 4:0 \n"
"7 1:0.65 2:0.6 3:0.35 4:0 \n"
"7 1:0.65 2:0.6 3:0.55 4:0 \n"
"1.338242737175261 1:0.65 2:0.6 3:0.7 4:0 \n"
"-7 1:0.65 2:0.65 3:0.25 4:0 \n"
"7 1:0.65 2:0.65 3:0.4 4:0 \n"
"7 1:0.65 2:0.65 3:0.45 4:0 \n"
"7 1:0.65 2:0.65 3:0.65 4:0 \n"
"7 1:0.65 2:0.65 3:0.7 4:0 \n"
"7 1:0.65 2:0.7 3:0.6 4:0 \n"
"7 1:0.65 2:0.7 3:0.65 4:0 \n"
"7 1:0.65 2:0.7 3:0.7 4:0 \n"
"-7 1:0.65 2:0.75 3:0.25 4:0 \n"
"7 1:0.65 2:0.75 3:0.3 4:0 \n"
"7 1:0.65 2:0.75 3:0.65 4:0 \n"
"-7 1:0.65 2:0.75 3:0.75 4:0 \n"
"0.03258064828260345 1:0.65 2:0.25 3:0.5 4:0.14285714 \n"
"0.04434940065465359 1:0.65 2:0.3 3:0.3 4:0.14285714 \n"
"-2.200995292985894 1:0.65 2:0.3 3:0.7 4:0.14285714 \n"
"-0.04819789780205955 1:0.65 2:0.35 3:0.25 4:0.14285714 \n"
"-7 1:0.65 2:0.4 3:0.25 4:0.14285714 \n"
"-7 1:0.65 2:0.45 3:0.45 4:0.14285714 \n"
"7 1:0.65 2:0.45 3:0.55 4:0.14285714 \n"
"-7 1:0.65 2:0.5 3:0.25 4:0.14285714 \n"
"7 1:0.65 2:0.5 3:0.65 4:0.14285714 \n"
"0.517541319952915 1:0.65 2:0.6 3:0.35 4:0.14285714 \n"
"-7 1:0.65 2:0.6 3:0.45 4:0.14285714 \n"
"7 1:0.65 2:0.6 3:0.65 4:0.14285714 \n"
"-7 1:0.65 2:0.65 3:0.25 4:0.14285714 \n"
"-0.03279870544238043 1:0.65 2:0.65 3:0.7 4:0.14285714 \n"
"-2.059868922054282 1:0.65 2:0.75 3:0.4 4:0.14285714 \n"
"7 1:0.65 2:0.75 3:0.6 4:0.14285714 \n"
"7 1:0.65 2:0.75 3:0.65 4:0.14285714 \n"
"5.03874990102639 1:0.65 2:0.25 3:0.35 4:0.28571429 \n"
"-7 1:0.65 2:0.25 3:0.4 4:0.28571429 \n"
"7 1:0.65 2:0.25 3:0.55 4:0.28571429 \n"
"0.3048177171071623 1:0.65 2:0.3 3:0.45 4:0.28571429 \n"
"7 1:0.65 2:0.3 3:0.65 4:0.28571429 \n"
"7 1:0.65 2:0.4 3:0.55 4:0.28571429 \n"
"7 1:0.65 2:0.45 3:0.25 4:0.28571429 \n"
"1.92175398984427 1:0.65 2:0.5 3:0.65 4:0.28571429 \n"
"-7 1:0.65 2:0.55 3:0.3 4:0.28571429 \n"
"5.316988470465756 1:0.65 2:0.6 3:0.25 4:0.28571429 \n"
"-4.486324784922446 1:0.65 2:0.6 3:0.35 4:0.28571429 \n"
"-7 1:0.65 2:0.6 3:0.65 4:0.28571429 \n"
"-2.520416477397427 1:0.65 2:0.6 3:0.7 4:0.28571429 \n"
"7 1:0.65 2:0.65 3:0.6 4:0.28571429 \n"
"-0.4315000010403461 1:0.65 2:0.7 3:0.65 4:0.28571429 \n"
"-7 1:0.65 2:0.7 3:0.75 4:0.28571429 \n"
"-7 1:0.65 2:0.3 3:0.6 4:0.42857143 \n"
"5.497476285342279 1:0.65 2:0.6 3:0.5 4:0.42857143 \n"
"-3.623314379664882 1:0.65 2:0.65 3:0.55 4:0.42857143 \n"
"-7 1:0.65 2:0.7 3:0.65 4:0.42857143 \n"
"7 1:0.65 2:0.75 3:0.6 4:0.42857143 \n"
"0.006852799822299635 1:0.65 2:0.75 3:0.65 4:0.42857143 \n"
"-7 1:0.65 2:0.75 3:0.75 4:0.42857143 \n"
"-7 1:0.65 2:0.25 3:0.45 4:0.57142857 \n"
"0.5784062000074895 1:0.65 2:0.35 3:0.75 4:0.57142857 \n"
"-1.538810103394774 1:0.65 2:0.4 3:0.65 4:0.57142857 \n"
"7 1:0.65 2:0.55 3:0.75 4:0.57142857 \n"
"-0.001326826865929507 1:0.65 2:0.65 3:0.45 4:0.57142857 \n"
"7 1:0.65 2:0.65 3:0.55 4:0.57142857 \n"
"7 1:0.65 2:0.7 3:0.6 4:0.57142857 \n"
"-7 1:0.65 2:0.75 3:0.45 4:0.57142857 \n"
"7 1:0.65 2:0.3 3:0.55 4:0.71428571 \n"
"7 1:0.65 2:0.35 3:0.55 4:0.71428571 \n"
"4.714374710532554 1:0.65 2:0.4 3:0.25 4:0.71428571 \n"
"-5.264925370592085 1:0.65 2:0.4 3:0.4 4:0.71428571 \n"
"7 1:0.65 2:0.45 3:0.35 4:0.71428571 \n"
"7 1:0.65 2:0.55 3:0.35 4:0.71428571 \n"
"-7 1:0.65 2:0.55 3:0.45 4:0.71428571 \n"
"0.01377354539051914 1:0.65 2:0.6 3:0.6 4:0.71428571 \n"
"3.648400920088506 1:0.65 2:0.7 3:0.3 4:0.71428571 \n"
"7 1:0.65 2:0.75 3:0.6 4:0.71428571 \n"
"-7 1:0.65 2:0.75 3:0.7 4:0.71428571 \n"
"-0.7490053954335488 1:0.65 2:0.4 3:0.5 4:0.85714286 \n"
"-4.335631735953219 1:0.65 2:0.5 3:0.65 4:0.85714286 \n"
"-4.000138375525307 1:0.65 2:0.55 3:0.3 4:0.85714286 \n"
"-7 1:0.65 2:0.55 3:0.5 4:0.85714286 \n"
"-7 1:0.65 2:0.65 3:0.4 4:0.85714286 \n"
"7 1:0.65 2:0.65 3:0.5 4:0.85714286 \n"
"-1.781276931501545 1:0.65 2:0.7 3:0.75 4:0.85714286 \n"
"7 1:0.65 2:0.75 3:0.35 4:0.85714286 \n"
"1.633687919518745 1:0.65 2:0.25 3:0.75 4:1 \n"
"7 1:0.65 2:0.35 3:0.5 4:1 \n"
"2.817651649484612 1:0.65 2:0.4 3:0.55 4:1 \n"
"7 1:0.65 2:0.5 3:0.25 4:1 \n"
"-7 1:0.65 2:0.5 3:0.6 4:1 \n"
"-7 1:0.65 2:0.55 3:0.4 4:1 \n"
"-1.150991271583039 1:0.65 2:0.6 3:0.45 4:1 \n"
"7 1:0.65 2:0.6 3:0.6 4:1 \n"
"-0.6384716294446493 1:0.65 2:0.7 3:0.4 4:1 \n"
"7 1:0.65 2:0.75 3:0.35 4:1 \n"
"-7 1:0.65 2:0.75 3:0.5 4:1 \n"
"-0.9717748602007132 1:0.65 2:0.75 3:0.7 4:1 \n"
"2.242185084541327 1:0.7 2:0.25 3:0.25 4:0 \n"
"7 1:0.7 2:0.25 3:0.3 4:0 \n"
"-3.545412497762725 1:0.7 2:0.25 3:0.4 4:0 \n"
"1.123590989141442 1:0.7 2:0.25 3:0.55 4:0 \n"
"-7 1:0.7 2:0.25 3:0.7 4:0 \n"
"7 1:0.7 2:0.3 3:0.3 4:0 \n"
"7 1:0.7 2:0.3 3:0.55 4:0 \n"
"-7 1:0.7 2:0.3 3:0.7 4:0 \n"
"7 1:0.7 2:0.3 3:0.75 4:0 \n"
"7 1:0.7 2:0.35 3:0.3 4:0 \n"
"-7 1:0.7 2:0.35 3:0.7 4:0 \n"
"7 1:0.7 2:0.4 3:0.3 4:0 \n"
"7 1:0.7 2:0.4 3:0.4 4:0 \n"
"7 1:0.7 2:0.4 3:0.75 4:0 \n"
"1.994305441874462 1:0.7 2:0.45 3:0.25 4:0 \n"
"7 1:0.7 2:0.45 3:0.3 4:0 \n"
"-7 1:0.7 2:0.5 3:0.35 4:0 \n"
"7 1:0.7 2:0.5 3:0.6 4:0 \n"
"-7 1:0.7 2:0.5 3:0.7 4:0 \n"
"7 1:0.7 2:0.5 3:0.75 4:0 \n"
"-7 1:0.7 2:0.55 3:0.35 4:0 \n"
"-7 1:0.7 2:0.55 3:0.65 4:0 \n"
"-7 1:0.7 2:0.55 3:0.7 4:0 \n"
"7 1:0.7 2:0.6 3:0.3 4:0 \n"
"-7 1:0.7 2:0.6 3:0.7 4:0 \n"
"7 1:0.7 2:0.6 3:0.75 4:0 \n"
"-3.788459503165719 1:0.7 2:0.65 3:0.35 4:0 \n"
"0.01917633416002033 1:0.7 2:0.65 3:0.55 4:0 \n"
"-7 1:0.7 2:0.65 3:0.65 4:0 \n"
"7 1:0.7 2:0.7 3:0.3 4:0 \n"
"-7 1:0.7 2:0.7 3:0.4 4:0 \n"
"-0.002649483030740394 1:0.7 2:0.7 3:0.6 4:0 \n"
"-7 1:0.7 2:0.7 3:0.7 4:0 \n"
"7 1:0.7 2:0.7 3:0.75 4:0 \n"
"-6.148498268362003 1:0.7 2:0.75 3:0.35 4:0 \n"
"2.979585849863575 1:0.7 2:0.75 3:0.45 4:0 \n"
"-7 1:0.7 2:0.75 3:0.7 4:0 \n"
"7 1:0.7 2:0.75 3:0.75 4:0 \n"
"0.9218001238424972 1:0.7 2:0.25 3:0.4 4:0.14285714 \n"
"7 1:0.7 2:0.25 3:0.6 4:0.14285714 \n"
"7 1:0.7 2:0.35 3:0.25 4:0.14285714 \n"
"7 1:0.7 2:0.35 3:0.35 4:0.14285714 \n"
"-2.65038943858913 1:0.7 2:0.4 3:0.3 4:0.14285714 \n"
"-7 1:0.7 2:0.4 3:0.55 4:0.14285714 \n"
"7 1:0.7 2:0.45 3:0.7 4:0.14285714 \n"
"7 1:0.7 2:0.5 3:0.25 4:0.14285714 \n"
"-7 1:0.7 2:0.5 3:0.65 4:0.14285714 \n"
"-7 1:0.7 2:0.5 3:0.75 4:0.14285714 \n"
"7 1:0.7 2:0.55 3:0.45 4:0.14285714 \n"
"7 1:0.7 2:0.6 3:0.25 4:0.14285714 \n"
"0.1539116275746517 1:0.7 2:0.65 3:0.25 4:0.14285714 \n"
"7 1:0.7 2:0.65 3:0.35 4:0.14285714 \n"
"7 1:0.7 2:0.65 3:0.4 4:0.14285714 \n"
"0.1802982453902087 1:0.7 2:0.65 3:0.45 4:0.14285714 \n"
"-7 1:0.7 2:0.7 3:0.7 4:0.14285714 \n"
"7 1:0.7 2:0.75 3:0.25 4:0.14285714 \n"
"-7 1:0.7 2:0.75 3:0.55 4:0.14285714 \n"
"-0.002184270924440553 1:0.7 2:0.75 3:0.75 4:0.14285714 \n"
"-5.18901777303855 1:0.7 2:0.25 3:0.65 4:0.28571429 \n"
"-7 1:0.7 2:0.25 3:0.75 4:0.28571429 \n"
"7 1:0.7 2:0.3 3:0.4 4:0.28571429 \n"
"-7 1:0.7 2:0.3 3:0.45 4:0.28571429 \n"
"-7 1:0.7 2:0.3 3:0.5 4:0.28571429 \n"
"7 1:0.7 2:0.35 3:0.3 4:0.28571429 \n"
"-7 1:0.7 2:0.35 3:0.5 4:0.28571429 \n"
"0.07244879529398281 1:0.7 2:0.45 3:0.3 4:0.28571429 \n"
"-5.359248239781253 1:0.7 2:0.45 3:0.4 4:0.28571429 \n"
"7 1:0.7 2:0.6 3:0.3 4:0.28571429 \n"
"-7 1:0.7 2:0.65 3:0.4 4:0.28571429 \n"
"-7 1:0.7 2:0.65 3:0.7 4:0.28571429 \n"
"-7 1:0.7 2:0.7 3:0.25 4:0.28571429 \n"
"-7 1:0.7 2:0.7 3:0.7 4:0.28571429 \n"
"7 1:0.7 2:0.75 3:0.4 4:0.28571429 \n"
"7 1:0.7 2:0.75 3:0.75 4:0.28571429 \n"
"-1.169867539733884 1:0.7 2:0.25 3:0.35 4:0.42857143 \n"
"5.168762461717176 1:0.7 2:0.25 3:0.7 4:0.42857143 \n"
"5.401647876893128 1:0.7 2:0.3 3:0.55 4:0.42857143 \n"
"7 1:0.7 2:0.35 3:0.75 4:0.42857143 \n"
"-0.9414898833309794 1:0.7 2:0.5 3:0.5 4:0.42857143 \n"
"7 1:0.7 2:0.55 3:0.55 4:0.42857143 \n"
"-7 1:0.7 2:0.65 3:0.45 4:0.42857143 \n"
"7 1:0.7 2:0.75 3:0.3 4:0.42857143 \n"
"-7 1:0.7 2:0.3 3:0.4 4:0.57142857 \n"
"7 1:0.7 2:0.3 3:0.55 4:0.57142857 \n"
"7 1:0.7 2:0.35 3:0.3 4:0.57142857 \n"
"2.853069858276764 1:0.7 2:0.45 3:0.3 4:0.57142857 \n"
"7 1:0.7 2:0.55 3:0.55 4:0.57142857 \n"
"0.01514952763012787 1:0.7 2:0.65 3:0.6 4:0.57142857 \n"
"-5.918582839225229 1:0.7 2:0.35 3:0.55 4:0.71428571 \n"
"7 1:0.7 2:0.4 3:0.55 4:0.71428571 \n"
"-7 1:0.7 2:0.4 3:0.6 4:0.71428571 \n"
"-7 1:0.7 2:0.45 3:0.4 4:0.71428571 \n"
"-7 1:0.7 2:0.55 3:0.45 4:0.71428571 \n"
"7 1:0.7 2:0.55 3:0.55 4:0.71428571 \n"
"-0.0946749682478694 1:0.7 2:0.6 3:0.5 4:0.71428571 \n"
"-7 1:0.7 2:0.65 3:0.55 4:0.71428571 \n"
"0.7360476807166804 1:0.7 2:0.65 3:0.65 4:0.71428571 \n"
"-0.9846793469978437 1:0.7 2:0.7 3:0.45 4:0.71428571 \n"
"0.8219523740967468 1:0.7 2:0.75 3:0.65 4:0.71428571 \n"
"-7 1:0.7 2:0.35 3:0.45 4:0.85714286 \n"
"7 1:0.7 2:0.45 3:0.55 4:0.85714286 \n"
"-5.334088048953876 1:0.7 2:0.45 3:0.65 4:0.85714286 \n"
"5.840569234288615 1:0.7 2:0.55 3:0.5 4:0.85714286 \n"
"0.002305212489713126 1:0.7 2:0.6 3:0.75 4:0.85714286 \n"
"-7 1:0.7 2:0.7 3:0.45 4:0.85714286 \n"
"-7 1:0.7 2:0.75 3:0.4 4:0.85714286 \n"
"-2.529089568567135 1:0.7 2:0.25 3:0.35 4:1 \n"
"-2.025248144456139 1:0.7 2:0.35 3:0.25 4:1 \n"
"7 1:0.7 2:0.35 3:0.5 4:1 \n"
"-7 1:0.7 2:0.35 3:0.6 4:1 \n"
"-3.311072818753563 1:0.7 2:0.55 3:0.45 4:1 \n"
"-7 1:0.7 2:0.55 3:0.55 4:1 \n"
"3.21317203559944 1:0.7 2:0.55 3:0.7 4:1 \n"
"7 1:0.7 2:0.6 3:0.55 4:1 \n"
"-7 1:0.7 2:0.6 3:0.7 4:1 \n"
"7 1:0.7 2:0.65 3:0.35 4:1 \n"
"-7 1:0.7 2:0.7 3:0.4 4:1 \n"
"-7 1:0.7 2:0.7 3:0.45 4:1 \n"
"-2.894966828746729 1:0.7 2:0.7 3:0.75 4:1 \n"
"6.535260361910507 1:0.7 2:0.75 3:0.65 4:1 \n"
"7 1:0.75 2:0.25 3:0.25 4:0 \n"
"-7 1:0.75 2:0.25 3:0.3 4:0 \n"
"-7 1:0.75 2:0.25 3:0.35 4:0 \n"
"-7 1:0.75 2:0.25 3:0.4 4:0 \n"
"7 1:0.75 2:0.25 3:0.7 4:0 \n"
"-4.584764025072349 1:0.75 2:0.25 3:0.75 4:0 \n"
"2.707639763058474 1:0.75 2:0.3 3:0.25 4:0 \n"
"-7 1:0.75 2:0.3 3:0.3 4:0 \n"
"-7 1:0.75 2:0.3 3:0.35 4:0 \n"
"-7 1:0.75 2:0.3 3:0.75 4:0 \n"
"-7 1:0.75 2:0.35 3:0.3 4:0 \n"
"7 1:0.75 2:0.35 3:0.4 4:0 \n"
"-2.581171140803857 1:0.75 2:0.35 3:0.6 4:0 \n"
"-7 1:0.75 2:0.35 3:0.65 4:0 \n"
"7 1:0.75 2:0.4 3:0.25 4:0 \n"
"-1.793253668359492 1:0.75 2:0.4 3:0.3 4:0 \n"
"-7 1:0.75 2:0.4 3:0.45 4:0 \n"
"7 1:0.75 2:0.4 3:0.5 4:0 \n"
"-7 1:0.75 2:0.4 3:0.75 4:0 \n"
"-7 1:0.75 2:0.45 3:0.3 4:0 \n"
"-7 1:0.75 2:0.45 3:0.35 4:0 \n"
"1.069813646419039 1:0.75 2:0.45 3:0.45 4:0 \n"
"-7 1:0.75 2:0.45 3:0.55 4:0 \n"
"-7 1:0.75 2:0.45 3:0.65 4:0 \n"
"7 1:0.75 2:0.5 3:0.25 4:0 \n"
"-7 1:0.75 2:0.5 3:0.3 4:0 \n"
"-7 1:0.75 2:0.5 3:0.35 4:0 \n"
"0.2396236905159361 1:0.75 2:0.5 3:0.45 4:0 \n"
"7 1:0.75 2:0.55 3:0.25 4:0 \n"
"-7 1:0.75 2:0.55 3:0.3 4:0 \n"
"4.63412707229018 1:0.75 2:0.6 3:0.25 4:0 \n"
"-7 1:0.75 2:0.6 3:0.3 4:0 \n"
"-7 1:0.75 2:0.6 3:0.4 4:0 \n"
"7 1:0.75 2:0.6 3:0.45 4:0 \n"
"-7 1:0.75 2:0.65 3:0.3 4:0 \n"
"7 1:0.75 2:0.65 3:0.45 4:0 \n"
"-7 1:0.75 2:0.65 3:0.65 4:0 \n"
"-7 1:0.75 2:0.7 3:0.75 4:0 \n"
"7 1:0.75 2:0.75 3:0.25 4:0 \n"
"-7 1:0.75 2:0.75 3:0.3 4:0 \n"
"7 1:0.75 2:0.75 3:0.5 4:0 \n"
"-7 1:0.75 2:0.75 3:0.75 4:0 \n"
"-7 1:0.75 2:0.25 3:0.35 4:0.14285714 \n"
"7 1:0.75 2:0.3 3:0.4 4:0.14285714 \n"
"7 1:0.75 2:0.35 3:0.3 4:0.14285714 \n"
"7 1:0.75 2:0.4 3:0.75 4:0.14285714 \n"
"-7 1:0.75 2:0.45 3:0.4 4:0.14285714 \n"
"-7 1:0.75 2:0.45 3:0.7 4:0.14285714 \n"
"7 1:0.75 2:0.5 3:0.3 4:0.14285714 \n"
"7 1:0.75 2:0.5 3:0.6 4:0.14285714 \n"
"7 1:0.75 2:0.55 3:0.3 4:0.14285714 \n"
"-4.882528035040683 1:0.75 2:0.55 3:0.5 4:0.14285714 \n"
"-7 1:0.75 2:0.55 3:0.55 4:0.14285714 \n"
"7 1:0.75 2:0.65 3:0.3 4:0.14285714 \n"
"-7 1:0.75 2:0.65 3:0.7 4:0.14285714 \n"
"1.460936217059879 1:0.75 2:0.65 3:0.75 4:0.14285714 \n"
"7 1:0.75 2:0.7 3:0.6 4:0.14285714 \n"
"6.201648414705444 1:0.75 2:0.7 3:0.75 4:0.14285714 \n"
"0.874538018398387 1:0.75 2:0.75 3:0.3 4:0.14285714 \n"
"-6.122186875125484 1:0.75 2:0.75 3:0.5 4:0.14285714 \n"
"7 1:0.75 2:0.3 3:0.35 4:0.28571429 \n"
"-7 1:0.75 2:0.3 3:0.4 4:0.28571429 \n"
"-7 1:0.75 2:0.35 3:0.25 4:0.28571429 \n"
"7 1:0.75 2:0.35 3:0.35 4:0.28571429 \n"
"-7 1:0.75 2:0.4 3:0.25 4:0.28571429 \n"
"7 1:0.75 2:0.4 3:0.5 4:0.28571429 \n"
"-1.263442437596337 1:0.75 2:0.4 3:0.6 4:0.28571429 \n"
"-7 1:0.75 2:0.6 3:0.25 4:0.28571429 \n"
"0.5899315976671737 1:0.75 2:0.65 3:0.55 4:0.28571429 \n"
"7 1:0.75 2:0.65 3:0.6 4:0.28571429 \n"
"7 1:0.75 2:0.65 3:0.75 4:0.28571429 \n"
"-7 1:0.75 2:0.7 3:0.45 4:0.28571429 \n"
"7 1:0.75 2:0.7 3:0.7 4:0.28571429 \n"
"-7 1:0.75 2:0.75 3:0.25 4:0.28571429 \n"
"-7 1:0.75 2:0.75 3:0.4 4:0.28571429 \n"
"7 1:0.75 2:0.25 3:0.5 4:0.42857143 \n"
"-7 1:0.75 2:0.25 3:0.65 4:0.42857143 \n"
"-6.323722113120774 1:0.75 2:0.3 3:0.5 4:0.42857143 \n"
"7 1:0.75 2:0.35 3:0.6 4:0.42857143 \n"
"-7 1:0.75 2:0.5 3:0.65 4:0.42857143 \n"
"7 1:0.75 2:0.55 3:0.3 4:0.42857143 \n"
"7 1:0.75 2:0.65 3:0.3 4:0.42857143 \n"
"7 1:0.75 2:0.7 3:0.5 4:0.42857143 \n"
"7 1:0.75 2:0.75 3:0.7 4:0.42857143 \n"
"-4.276139538775452 1:0.75 2:0.25 3:0.3 4:0.57142857 \n"
"-0.9433633837054057 1:0.75 2:0.25 3:0.6 4:0.57142857 \n"
"1.417259394525421 1:0.75 2:0.25 3:0.75 4:0.57142857 \n"
"0.2121987464171667 1:0.75 2:0.45 3:0.35 4:0.57142857 \n"
"2.385608276327571 1:0.75 2:0.55 3:0.4 4:0.57142857 \n"
"1.657710723227414 1:0.75 2:0.55 3:0.45 4:0.57142857 \n"
"-7 1:0.75 2:0.6 3:0.3 4:0.57142857 \n"
"-5.226308824254684 1:0.75 2:0.6 3:0.55 4:0.57142857 \n"
"-6.997911639604635 1:0.75 2:0.6 3:0.6 4:0.57142857 \n"
"7 1:0.75 2:0.7 3:0.35 4:0.57142857 \n"
"-7 1:0.75 2:0.7 3:0.65 4:0.57142857 \n"
"-7 1:0.75 2:0.75 3:0.25 4:0.57142857 \n"
"7 1:0.75 2:0.25 3:0.25 4:0.71428571 \n"
"-7 1:0.75 2:0.25 3:0.55 4:0.71428571 \n"
"1.370884027673889 1:0.75 2:0.25 3:0.7 4:0.71428571 \n"
"7 1:0.75 2:0.25 3:0.75 4:0.71428571 \n"
"7 1:0.75 2:0.4 3:0.5 4:0.71428571 \n"
"0.3502836430067922 1:0.75 2:0.5 3:0.75 4:0.71428571 \n"
"-1.16034320753657 1:0.75 2:0.55 3:0.25 4:0.71428571 \n"
"-7 1:0.75 2:0.6 3:0.65 4:0.71428571 \n"
"7 1:0.75 2:0.65 3:0.75 4:0.71428571 \n"
"-2.888469969586773 1:0.75 2:0.7 3:0.4 4:0.71428571 \n"
"-7 1:0.75 2:0.25 3:0.6 4:0.85714286 \n"
"3.687143047934195 1:0.75 2:0.3 3:0.7 4:0.85714286 \n"
"7 1:0.75 2:0.4 3:0.45 4:0.85714286 \n"
"7 1:0.75 2:0.4 3:0.75 4:0.85714286 \n"
"7 1:0.75 2:0.45 3:0.3 4:0.85714286 \n"
"7 1:0.75 2:0.55 3:0.75 4:0.85714286 \n"
"-3.756024908071004 1:0.75 2:0.6 3:0.35 4:0.85714286 \n"
"7 1:0.75 2:0.65 3:0.35 4:0.85714286 \n"
"7 1:0.75 2:0.7 3:0.45 4:0.85714286 \n"
"7 1:0.75 2:0.7 3:0.75 4:0.85714286 \n"
"-4.235973935191361 1:0.75 2:0.75 3:0.45 4:0.85714286 \n"
"7 1:0.75 2:0.25 3:0.65 4:1 \n"
"-1.320576142854781 1:0.75 2:0.3 3:0.55 4:1 \n"
"-0.281453739760028 1:0.75 2:0.35 3:0.4 4:1 \n"
"-7 1:0.75 2:0.35 3:0.5 4:1 \n"
"-7 1:0.75 2:0.5 3:0.65 4:1 \n"
"-2.492821957429684 1:0.75 2:0.55 3:0.25 4:1 \n"
"7 1:0.75 2:0.6 3:0.4 4:1 \n"
"-4.664453122729909 1:0.75 2:0.7 3:0.25 4:1 \n"
"7 1:0.75 2:0.7 3:0.4 4:1 \n"
"7 1:0.75 2:0.7 3:0.55 4:1 \n"
"-0.9828940902278041 1:0.2 2:0.2 3:0.2 4:0 \n"
"-2.643497381835305 1:0.2 2:0.2 3:0.35 4:0 \n"
"-7 1:0.2 2:0.2 3:0.45 4:0 \n"
"-7 1:0.2 2:0.2 3:0.55 4:0 \n"
"2.02269242157739 1:0.2 2:0.2 3:0.6 4:0 \n"
"-7 1:0.2 2:0.2 3:0.65 4:0 \n"
"-7 1:0.2 2:0.2 3:0.75 4:0 \n"
"7 1:0.2 2:0.2 3:0.8 4:0 \n"
"3.724766632078029 1:0.2 2:0.25 3:0.25 4:0 \n"
"3.443338900903244 1:0.2 2:0.25 3:0.4 4:0 \n"
"-7 1:0.2 2:0.25 3:0.45 4:0 \n"
"6.519130242689389 1:0.2 2:0.25 3:0.5 4:0 \n"
"-7 1:0.2 2:0.25 3:0.55 4:0 \n"
"7 1:0.2 2:0.25 3:0.6 4:0 \n"
"-7 1:0.2 2:0.25 3:0.65 4:0 \n"
"4.445844413157722 1:0.2 2:0.25 3:0.7 4:0 \n"
"-7 1:0.2 2:0.25 3:0.75 4:0 \n"
"-7 1:0.2 2:0.3 3:0.55 4:0 \n"
"7 1:0.2 2:0.3 3:0.6 4:0 \n"
"-7 1:0.2 2:0.3 3:0.65 4:0 \n"
"7 1:0.2 2:0.3 3:0.7 4:0 \n"
"-7 1:0.2 2:0.3 3:0.75 4:0 \n"
"7 1:0.2 2:0.35 3:0.5 4:0 \n"
"-7 1:0.2 2:0.35 3:0.55 4:0 \n"
"7 1:0.2 2:0.35 3:0.6 4:0 \n"
"-7 1:0.2 2:0.35 3:0.65 4:0 \n"
"7 1:0.2 2:0.35 3:0.7 4:0 \n"
"-7 1:0.2 2:0.35 3:0.75 4:0 \n"
"-7 1:0.2 2:0.4 3:0.55 4:0 \n"
"-7 1:0.2 2:0.4 3:0.65 4:0 \n"
"7 1:0.2 2:0.4 3:0.7 4:0 \n"
"-7 1:0.2 2:0.4 3:0.75 4:0 \n"
"7 1:0.2 2:0.45 3:0.25 4:0 \n"
"-4.791768875015791 1:0.2 2:0.45 3:0.55 4:0 \n"
"-7 1:0.2 2:0.45 3:0.65 4:0 \n"
"7 1:0.2 2:0.45 3:0.7 4:0 \n"
"-7 1:0.2 2:0.45 3:0.75 4:0 \n"
"0.1283277522809243 1:0.2 2:0.45 3:0.8 4:0 \n"
"-5.835491144113642 1:0.2 2:0.5 3:0.25 4:0 \n"
"-7 1:0.2 2:0.5 3:0.35 4:0 \n"
"7 1:0.2 2:0.5 3:0.4 4:0 \n"
"-7 1:0.2 2:0.5 3:0.55 4:0 \n"
"7 1:0.2 2:0.5 3:0.6 4:0 \n"
"-7 1:0.2 2:0.5 3:0.65 4:0 \n"
"7 1:0.2 2:0.5 3:0.7 4:0 \n"
"-7 1:0.2 2:0.5 3:0.75 4:0 \n"
"-7 1:0.2 2:0.55 3:0.2 4:0 \n"
"7 1:0.2 2:0.55 3:0.25 4:0 \n"
"-7 1:0.2 2:0.55 3:0.3 4:0 \n"
"-7 1:0.2 2:0.55 3:0.55 4:0 \n"
"7 1:0.2 2:0.55 3:0.6 4:0 \n"
"-7 1:0.2 2:0.55 3:0.65 4:0 \n"
"7 1:0.2 2:0.55 3:0.7 4:0 \n"
"-7 1:0.2 2:0.55 3:0.75 4:0 \n"
"0.4132623477474027 1:0.2 2:0.6 3:0.25 4:0 \n"
"3.476147677858271 1:0.2 2:0.6 3:0.4 4:0 \n"
"-7 1:0.2 2:0.6 3:0.55 4:0 \n"
"7 1:0.2 2:0.6 3:0.6 4:0 \n"
"-7 1:0.2 2:0.6 3:0.65 4:0 \n"
"7 1:0.2 2:0.6 3:0.7 4:0 \n"
"-7 1:0.2 2:0.6 3:0.75 4:0 \n"
"4.139292389686045 1:0.2 2:0.65 3:0.25 4:0 \n"
"7 1:0.2 2:0.65 3:0.3 4:0 \n"
"-7 1:0.2 2:0.65 3:0.55 4:0 \n"
"2.918029094634639 1:0.2 2:0.65 3:0.6 4:0 \n"
"-7 1:0.2 2:0.65 3:0.65 4:0 \n"
"7 1:0.2 2:0.65 3:0.7 4:0 \n"
"-7 1:0.2 2:0.65 3:0.75 4:0 \n"
"7 1:0.2 2:0.7 3:0.25 4:0 \n"
"-7 1:0.2 2:0.7 3:0.55 4:0 \n"
"-7 1:0.2 2:0.7 3:0.65 4:0 \n"
"-7 1:0.2 2:0.7 3:0.75 4:0 \n"
"-7 1:0.2 2:0.75 3:0.2 4:0 \n"
"0.7847740870639862 1:0.2 2:0.75 3:0.5 4:0 \n"
"-7 1:0.2 2:0.75 3:0.55 4:0 \n"
"-7 1:0.2 2:0.75 3:0.65 4:0 \n"
"2.418709010849322 1:0.2 2:0.75 3:0.7 4:0 \n"
"-7 1:0.2 2:0.75 3:0.75 4:0 \n"
"-6.328009274016611 1:0.2 2:0.75 3:0.8 4:0 \n"
"-0.4563270317043285 1:0.2 2:0.8 3:0.2 4:0 \n"
"7 1:0.2 2:0.8 3:0.25 4:0 \n"
"-7 1:0.2 2:0.8 3:0.3 4:0 \n"
"1.119541196963609 1:0.2 2:0.8 3:0.5 4:0 \n"
"-7 1:0.2 2:0.8 3:0.55 4:0 \n"
"7 1:0.2 2:0.8 3:0.6 4:0 \n"
"-2.843042349650208 1:0.2 2:0.8 3:0.65 4:0 \n"
"7 1:0.2 2:0.8 3:0.7 4:0 \n"
"-7 1:0.2 2:0.8 3:0.75 4:0 \n"
"7 1:0.2 2:0.8 3:0.8 4:0 \n"
"7 1:0.25 2:0.2 3:0.4 4:0 \n"
"7 1:0.25 2:0.2 3:0.55 4:0 \n"
"-7 1:0.25 2:0.2 3:0.6 4:0 \n"
"7 1:0.25 2:0.2 3:0.65 4:0 \n"
"7 1:0.25 2:0.2 3:0.7 4:0 \n"
"-7 1:0.25 2:0.2 3:0.75 4:0 \n"
"7 1:0.25 2:0.2 3:0.8 4:0 \n"
"7 1:0.25 2:0.25 3:0.8 4:0 \n"
"7 1:0.25 2:0.3 3:0.8 4:0 \n"
"7 1:0.25 2:0.35 3:0.8 4:0 \n"
"3.480563454517688 1:0.25 2:0.4 3:0.2 4:0 \n"
"7 1:0.25 2:0.4 3:0.8 4:0 \n"
"7 1:0.25 2:0.45 3:0.8 4:0 \n"
"7 1:0.25 2:0.5 3:0.8 4:0 \n"
"7 1:0.25 2:0.55 3:0.2 4:0 \n"
"7 1:0.25 2:0.55 3:0.8 4:0 \n"
"7 1:0.25 2:0.6 3:0.2 4:0 \n"
"7 1:0.25 2:0.6 3:0.8 4:0 \n"
"7 1:0.25 2:0.65 3:0.8 4:0 \n"
"7 1:0.25 2:0.7 3:0.2 4:0 \n"
"7 1:0.25 2:0.7 3:0.8 4:0 \n"
"7 1:0.25 2:0.75 3:0.8 4:0 \n"
"-7 1:0.25 2:0.8 3:0.25 4:0 \n"
"-7 1:0.25 2:0.8 3:0.5 4:0 \n"
"7 1:0.25 2:0.8 3:0.65 4:0 \n"
"7 1:0.25 2:0.8 3:0.7 4:0 \n"
"-2.645399625964099 1:0.25 2:0.8 3:0.75 4:0 \n"
"7 1:0.25 2:0.8 3:0.8 4:0 \n"
"-3.311163331873392 1:0.3 2:0.2 3:0.25 4:0 \n"
"-7 1:0.3 2:0.2 3:0.5 4:0 \n"
"7 1:0.3 2:0.2 3:0.55 4:0 \n"
"-7 1:0.3 2:0.2 3:0.7 4:0 \n"
"7 1:0.3 2:0.2 3:0.75 4:0 \n"
"-7 1:0.3 2:0.2 3:0.8 4:0 \n"
"-7 1:0.3 2:0.25 3:0.8 4:0 \n"
"-7 1:0.3 2:0.3 3:0.8 4:0 \n"
"-7 1:0.3 2:0.35 3:0.2 4:0 \n"
"-7 1:0.3 2:0.35 3:0.8 4:0 \n"
"-7 1:0.3 2:0.4 3:0.8 4:0 \n"
"-7 1:0.3 2:0.45 3:0.8 4:0 \n"
"-0.2375841772313912 1:0.3 2:0.5 3:0.2 4:0 \n"
"-7 1:0.3 2:0.5 3:0.8 4:0 \n"
"-7 1:0.3 2:0.55 3:0.8 4:0 \n"
"-7 1:0.3 2:0.6 3:0.8 4:0 \n"
"-7 1:0.3 2:0.65 3:0.2 4:0 \n"
"-7 1:0.3 2:0.65 3:0.8 4:0 \n"
"-7 1:0.3 2:0.7 3:0.2 4:0 \n"
"-7 1:0.3 2:0.7 3:0.8 4:0 \n"
"-7 1:0.3 2:0.75 3:0.8 4:0 \n"
"-7 1:0.3 2:0.8 3:0.2 4:0 \n"
"7 1:0.3 2:0.8 3:0.3 4:0 \n"
"-1.394247264978494 1:0.3 2:0.8 3:0.35 4:0 \n"
"-7 1:0.3 2:0.8 3:0.65 4:0 \n"
"-7 1:0.3 2:0.8 3:0.7 4:0 \n"
"7 1:0.3 2:0.8 3:0.75 4:0 \n"
"-7 1:0.3 2:0.8 3:0.8 4:0 \n"
"-6.172500023307802 1:0.35 2:0.2 3:0.65 4:0 \n"
"-7 1:0.35 2:0.2 3:0.7 4:0 \n"
"-7 1:0.35 2:0.2 3:0.75 4:0 \n"
"7 1:0.35 2:0.2 3:0.8 4:0 \n"
"7 1:0.35 2:0.25 3:0.8 4:0 \n"
"7 1:0.35 2:0.3 3:0.8 4:0 \n"
"6.988204766790935 1:0.35 2:0.35 3:0.2 4:0 \n"
"7 1:0.35 2:0.35 3:0.8 4:0 \n"
"7 1:0.35 2:0.4 3:0.8 4:0 \n"
"7 1:0.35 2:0.45 3:0.8 4:0 \n"
"7 1:0.35 2:0.5 3:0.8 4:0 \n"
"7 1:0.35 2:0.55 3:0.8 4:0 \n"
"7 1:0.35 2:0.6 3:0.2 4:0 \n"
"7 1:0.35 2:0.6 3:0.8 4:0 \n"
"3.553711709724661 1:0.35 2:0.65 3:0.2 4:0 \n"
"7 1:0.35 2:0.65 3:0.8 4:0 \n"
"7 1:0.35 2:0.7 3:0.2 4:0 \n"
"7 1:0.35 2:0.7 3:0.8 4:0 \n"
"7 1:0.35 2:0.75 3:0.2 4:0 \n"
"7 1:0.35 2:0.75 3:0.8 4:0 \n"
"6.311653357473021 1:0.35 2:0.8 3:0.2 4:0 \n"
"7 1:0.35 2:0.8 3:0.25 4:0 \n"
"-7 1:0.35 2:0.8 3:0.3 4:0 \n"
"-7 1:0.35 2:0.8 3:0.65 4:0 \n"
"-7 1:0.35 2:0.8 3:0.7 4:0 \n"
"-7 1:0.35 2:0.8 3:0.75 4:0 \n"
"7 1:0.35 2:0.8 3:0.8 4:0 \n"
"-7 1:0.4 2:0.2 3:0.3 4:0 \n"
"3.059765413771404 1:0.4 2:0.2 3:0.6 4:0 \n"
"3.767003106782309 1:0.4 2:0.2 3:0.7 4:0 \n"
"-7 1:0.4 2:0.2 3:0.8 4:0 \n"
"-7 1:0.4 2:0.25 3:0.8 4:0 \n"
"-7 1:0.4 2:0.3 3:0.8 4:0 \n"
"-7 1:0.4 2:0.35 3:0.8 4:0 \n"
"-7 1:0.4 2:0.4 3:0.8 4:0 \n"
"-7 1:0.4 2:0.45 3:0.2 4:0 \n"
"-7 1:0.4 2:0.45 3:0.8 4:0 \n"
"-7 1:0.4 2:0.5 3:0.8 4:0 \n"
"-7 1:0.4 2:0.55 3:0.2 4:0 \n"
"-7 1:0.4 2:0.55 3:0.8 4:0 \n"
"-7 1:0.4 2:0.6 3:0.8 4:0 \n"
"-7 1:0.4 2:0.65 3:0.2 4:0 \n"
"-7 1:0.4 2:0.65 3:0.8 4:0 \n"
"-7 1:0.4 2:0.7 3:0.2 4:0 \n"
"-7 1:0.4 2:0.7 3:0.8 4:0 \n"
"-7 1:0.4 2:0.75 3:0.2 4:0 \n"
"-7 1:0.4 2:0.75 3:0.8 4:0 \n"
"-7 1:0.4 2:0.8 3:0.2 4:0 \n"
"-7 1:0.4 2:0.8 3:0.25 4:0 \n"
"7 1:0.4 2:0.8 3:0.45 4:0 \n"
"7 1:0.4 2:0.8 3:0.7 4:0 \n"
"-0.06290896477800327 1:0.4 2:0.8 3:0.75 4:0 \n"
"-7 1:0.4 2:0.8 3:0.8 4:0 \n"
"7 1:0.45 2:0.2 3:0.2 4:0 \n"
"0.01252351436873321 1:0.45 2:0.2 3:0.4 4:0 \n"
"7 1:0.45 2:0.2 3:0.45 4:0 \n"
"7 1:0.45 2:0.2 3:0.7 4:0 \n"
"7 1:0.45 2:0.2 3:0.75 4:0 \n"
"5.692984270433237 1:0.45 2:0.2 3:0.8 4:0 \n"
"1.03851417381409 1:0.45 2:0.25 3:0.2 4:0 \n"
"7 1:0.45 2:0.25 3:0.8 4:0 \n"
"7 1:0.45 2:0.3 3:0.8 4:0 \n"
"7 1:0.45 2:0.35 3:0.8 4:0 \n"
"7 1:0.45 2:0.4 3:0.2 4:0 \n"
"7 1:0.45 2:0.4 3:0.8 4:0 \n"
"7 1:0.45 2:0.45 3:0.8 4:0 \n"
"7 1:0.45 2:0.5 3:0.8 4:0 \n"
"0.3218158441921966 1:0.45 2:0.55 3:0.2 4:0 \n"
"7 1:0.45 2:0.55 3:0.8 4:0 \n"
"7 1:0.45 2:0.6 3:0.2 4:0 \n"
"7 1:0.45 2:0.6 3:0.8 4:0 \n"
"7 1:0.45 2:0.65 3:0.2 4:0 \n"
"7 1:0.45 2:0.65 3:0.8 4:0 \n"
"7 1:0.45 2:0.7 3:0.2 4:0 \n"
"7 1:0.45 2:0.7 3:0.8 4:0 \n"
"7 1:0.45 2:0.75 3:0.2 4:0 \n"
"7 1:0.45 2:0.75 3:0.8 4:0 \n"
"7 1:0.45 2:0.8 3:0.2 4:0 \n"
"7 1:0.45 2:0.8 3:0.25 4:0 \n"
"7 1:0.45 2:0.8 3:0.7 4:0 \n"
"7 1:0.45 2:0.8 3:0.75 4:0 \n"
"7 1:0.45 2:0.8 3:0.8 4:0 \n"
"-4.561687408596518 1:0.5 2:0.2 3:0.25 4:0 \n"
"-7 1:0.5 2:0.2 3:0.5 4:0 \n"
"7 1:0.5 2:0.2 3:0.65 4:0 \n"
"-7 1:0.5 2:0.2 3:0.7 4:0 \n"
"-7 1:0.5 2:0.2 3:0.75 4:0 \n"
"-7 1:0.5 2:0.2 3:0.8 4:0 \n"
"-7 1:0.5 2:0.25 3:0.8 4:0 \n"
"-7 1:0.5 2:0.3 3:0.8 4:0 \n"
"-7 1:0.5 2:0.35 3:0.8 4:0 \n"
"-7 1:0.5 2:0.4 3:0.8 4:0 \n"
"-7 1:0.5 2:0.45 3:0.8 4:0 \n"
"-7 1:0.5 2:0.5 3:0.2 4:0 \n"
"-7 1:0.5 2:0.5 3:0.8 4:0 \n"
"-7 1:0.5 2:0.55 3:0.2 4:0 \n"
"-7 1:0.5 2:0.55 3:0.8 4:0 \n"
"-0.661853030970343 1:0.5 2:0.6 3:0.2 4:0 \n"
"-7 1:0.5 2:0.6 3:0.8 4:0 \n"
"-7 1:0.5 2:0.65 3:0.2 4:0 \n"
"-7 1:0.5 2:0.65 3:0.8 4:0 \n"
"-7 1:0.5 2:0.7 3:0.2 4:0 \n"
"-7 1:0.5 2:0.7 3:0.8 4:0 \n"
"-7 1:0.5 2:0.75 3:0.2 4:0 \n"
"-7 1:0.5 2:0.75 3:0.8 4:0 \n"
"-6.116739089835734 1:0.5 2:0.8 3:0.2 4:0 \n"
"-7 1:0.5 2:0.8 3:0.25 4:0 \n"
"3.255753782131199 1:0.5 2:0.8 3:0.3 4:0 \n"
"-4.078592831520902 1:0.5 2:0.8 3:0.5 4:0 \n"
"7 1:0.5 2:0.8 3:0.65 4:0 \n"
"-7 1:0.5 2:0.8 3:0.7 4:0 \n"
"-7 1:0.5 2:0.8 3:0.75 4:0 \n"
"-7 1:0.5 2:0.8 3:0.8 4:0 \n"
"0.08121304409523301 1:0.55 2:0.2 3:0.4 4:0 \n"
"-7 1:0.55 2:0.2 3:0.6 4:0 \n"
"7 1:0.55 2:0.2 3:0.65 4:0 \n"
"-7 1:0.55 2:0.2 3:0.7 4:0 \n"
"4.658263338323025 1:0.55 2:0.2 3:0.75 4:0 \n"
"7 1:0.55 2:0.2 3:0.8 4:0 \n"
"7 1:0.55 2:0.25 3:0.8 4:0 \n"
"7 1:0.55 2:0.3 3:0.8 4:0 \n"
"7 1:0.55 2:0.35 3:0.8 4:0 \n"
"7 1:0.55 2:0.4 3:0.2 4:0 \n"
"7 1:0.55 2:0.4 3:0.8 4:0 \n"
"7 1:0.55 2:0.45 3:0.2 4:0 \n"
"7 1:0.55 2:0.45 3:0.8 4:0 \n"
"3.826743701841593 1:0.55 2:0.5 3:0.2 4:0 \n"
"7 1:0.55 2:0.5 3:0.8 4:0 \n"
"7 1:0.55 2:0.55 3:0.8 4:0 \n"
"7 1:0.55 2:0.6 3:0.2 4:0 \n"
"7 1:0.55 2:0.6 3:0.8 4:0 \n"
"7 1:0.55 2:0.65 3:0.2 4:0 \n"
"7 1:0.55 2:0.65 3:0.8 4:0 \n"
"7 1:0.55 2:0.7 3:0.2 4:0 \n"
"7 1:0.55 2:0.7 3:0.8 4:0 \n"
"7 1:0.55 2:0.75 3:0.2 4:0 \n"
"7 1:0.55 2:0.75 3:0.8 4:0 \n"
"7 1:0.55 2:0.8 3:0.2 4:0 \n"
"2.636014752073274 1:0.55 2:0.8 3:0.4 4:0 \n"
"7 1:0.55 2:0.8 3:0.55 4:0 \n"
"4.482317010517777 1:0.55 2:0.8 3:0.65 4:0 \n"
"7 1:0.55 2:0.8 3:0.75 4:0 \n"
"1.993391743394274 1:0.55 2:0.8 3:0.8 4:0 \n"
"7 1:0.6 2:0.2 3:0.25 4:0 \n"
"-7 1:0.6 2:0.2 3:0.65 4:0 \n"
"7 1:0.6 2:0.2 3:0.7 4:0 \n"
"-7 1:0.6 2:0.2 3:0.75 4:0 \n"
"-7 1:0.6 2:0.2 3:0.8 4:0 \n"
"-7 1:0.6 2:0.25 3:0.8 4:0 \n"
"-7 1:0.6 2:0.3 3:0.8 4:0 \n"
"-1.57351387711152 1:0.6 2:0.35 3:0.8 4:0 \n"
"-7 1:0.6 2:0.4 3:0.2 4:0 \n"
"-7 1:0.6 2:0.4 3:0.8 4:0 \n"
"-7 1:0.6 2:0.45 3:0.8 4:0 \n"
"-7 1:0.6 2:0.5 3:0.2 4:0 \n"
"-0.001356833384662607 1:0.6 2:0.5 3:0.8 4:0 \n"
"-7 1:0.6 2:0.55 3:0.2 4:0 \n"
"-7 1:0.6 2:0.55 3:0.8 4:0 \n"
"-7 1:0.6 2:0.6 3:0.8 4:0 \n"
"-7 1:0.6 2:0.7 3:0.2 4:0 \n"
"-7 1:0.6 2:0.7 3:0.8 4:0 \n"
"-0.1643146915878575 1:0.6 2:0.75 3:0.2 4:0 \n"
"-0.7737997583901708 1:0.6 2:0.75 3:0.8 4:0 \n"
"-7 1:0.6 2:0.8 3:0.2 4:0 \n"
"7 1:0.6 2:0.8 3:0.25 4:0 \n"
"-7 1:0.6 2:0.8 3:0.55 4:0 \n"
"-7 1:0.6 2:0.8 3:0.65 4:0 \n"
"-7 1:0.6 2:0.8 3:0.75 4:0 \n"
"-7 1:0.6 2:0.8 3:0.8 4:0 \n"
"-7 1:0.65 2:0.2 3:0.25 4:0 \n"
"0.04193069265132449 1:0.65 2:0.2 3:0.3 4:0 \n"
"7 1:0.65 2:0.2 3:0.65 4:0 \n"
"0.8904142157744784 1:0.65 2:0.2 3:0.7 4:0 \n"
"-0.0177721649923972 1:0.65 2:0.2 3:0.75 4:0 \n"
"7 1:0.65 2:0.2 3:0.8 4:0 \n"
"7 1:0.65 2:0.25 3:0.8 4:0 \n"
"7 1:0.65 2:0.3 3:0.2 4:0 \n"
"7 1:0.65 2:0.3 3:0.8 4:0 \n"
"7 1:0.65 2:0.35 3:0.8 4:0 \n"
"7 1:0.65 2:0.4 3:0.8 4:0 \n"
"7 1:0.65 2:0.45 3:0.2 4:0 \n"
"7 1:0.65 2:0.5 3:0.8 4:0 \n"
"3.305576931608666 1:0.65 2:0.55 3:0.2 4:0 \n"
"7 1:0.65 2:0.55 3:0.8 4:0 \n"
"7 1:0.65 2:0.6 3:0.2 4:0 \n"
"7 1:0.65 2:0.6 3:0.8 4:0 \n"
"7 1:0.65 2:0.65 3:0.2 4:0 \n"
"7 1:0.65 2:0.65 3:0.8 4:0 \n"
"7 1:0.65 2:0.7 3:0.2 4:0 \n"
"7 1:0.65 2:0.7 3:0.8 4:0 \n"
"1.775390643361704 1:0.65 2:0.75 3:0.2 4:0 \n"
"7 1:0.65 2:0.75 3:0.8 4:0 \n"
"-0.02095188820142114 1:0.65 2:0.8 3:0.25 4:0 \n"
"7 1:0.65 2:0.8 3:0.35 4:0 \n"
"7 1:0.65 2:0.8 3:0.5 4:0 \n"
"7 1:0.65 2:0.8 3:0.7 4:0 \n"
"7 1:0.65 2:0.8 3:0.8 4:0 \n"
"7 1:0.7 2:0.2 3:0.3 4:0 \n"
"7 1:0.7 2:0.2 3:0.55 4:0 \n"
"-7 1:0.7 2:0.2 3:0.6 4:0 \n"
"7 1:0.7 2:0.2 3:0.75 4:0 \n"
"-7 1:0.7 2:0.2 3:0.8 4:0 \n"
"-6.130258951218213 1:0.7 2:0.25 3:0.2 4:0 \n"
"-7 1:0.7 2:0.25 3:0.8 4:0 \n"
"-7 1:0.7 2:0.3 3:0.2 4:0 \n"
"-7 1:0.7 2:0.3 3:0.8 4:0 \n"
"-7 1:0.7 2:0.35 3:0.8 4:0 \n"
"-0.4864806115268896 1:0.7 2:0.4 3:0.2 4:0 \n"
"-7 1:0.7 2:0.4 3:0.8 4:0 \n"
"-7 1:0.7 2:0.45 3:0.8 4:0 \n"
"-7 1:0.7 2:0.5 3:0.2 4:0 \n"
"-7 1:0.7 2:0.5 3:0.8 4:0 \n"
"-7 1:0.7 2:0.55 3:0.2 4:0 \n"
"-5.501163416588998 1:0.7 2:0.55 3:0.8 4:0 \n"
"-7 1:0.7 2:0.6 3:0.8 4:0 \n"
"-7 1:0.7 2:0.65 3:0.2 4:0 \n"
"-7 1:0.7 2:0.65 3:0.8 4:0 \n"
"-4.79508677815233 1:0.7 2:0.7 3:0.2 4:0 \n"
"-7 1:0.7 2:0.7 3:0.8 4:0 \n"
"-7 1:0.7 2:0.75 3:0.8 4:0 \n"
"-7 1:0.7 2:0.8 3:0.2 4:0 \n"
"-0.05325886213165319 1:0.7 2:0.8 3:0.25 4:0 \n"
"7 1:0.7 2:0.8 3:0.3 4:0 \n"
"-7 1:0.7 2:0.8 3:0.35 4:0 \n"
"-7 1:0.7 2:0.8 3:0.4 4:0 \n"
"-2.907565600086493 1:0.7 2:0.8 3:0.5 4:0 \n"
"7 1:0.7 2:0.8 3:0.75 4:0 \n"
"-7 1:0.7 2:0.8 3:0.8 4:0 \n"
"7 1:0.75 2:0.2 3:0.2 4:0 \n"
"7 1:0.75 2:0.2 3:0.8 4:0 \n"
"-2.274397060431341 1:0.75 2:0.25 3:0.2 4:0 \n"
"7 1:0.75 2:0.25 3:0.8 4:0 \n"
"7 1:0.75 2:0.3 3:0.8 4:0 \n"
"7 1:0.75 2:0.35 3:0.8 4:0 \n"
"7 1:0.75 2:0.4 3:0.8 4:0 \n"
"7 1:0.75 2:0.5 3:0.8 4:0 \n"
"7 1:0.75 2:0.55 3:0.8 4:0 \n"
"7 1:0.75 2:0.6 3:0.8 4:0 \n"
"7 1:0.75 2:0.65 3:0.2 4:0 \n"
"7 1:0.75 2:0.65 3:0.8 4:0 \n"
"7 1:0.75 2:0.7 3:0.8 4:0 \n"
"7 1:0.75 2:0.8 3:0.25 4:0 \n"
"-7 1:0.75 2:0.8 3:0.45 4:0 \n"
"-6.081021568542916 1:0.75 2:0.8 3:0.75 4:0 \n"
"7 1:0.75 2:0.8 3:0.8 4:0 \n"
"-1.88770064252016 1:0.8 2:0.2 3:0.25 4:0 \n"
"0.07252918121843879 1:0.8 2:0.2 3:0.75 4:0 \n"
"-5.93308713384476 1:0.8 2:0.2 3:0.8 4:0 \n"
"7 1:0.8 2:0.25 3:0.45 4:0 \n"
"3.593085283530118 1:0.8 2:0.25 3:0.5 4:0 \n"
"-7 1:0.8 2:0.25 3:0.8 4:0 \n"
"-0.003527221514250684 1:0.8 2:0.3 3:0.6 4:0 \n"
"3.713311034821203 1:0.8 2:0.3 3:0.7 4:0 \n"
"7 1:0.8 2:0.3 3:0.75 4:0 \n"
"7 1:0.8 2:0.35 3:0.45 4:0 \n"
"-7 1:0.8 2:0.35 3:0.6 4:0 \n"
"7 1:0.8 2:0.4 3:0.6 4:0 \n"
"-7 1:0.8 2:0.4 3:0.65 4:0 \n"
"0.5391454591340308 1:0.8 2:0.4 3:0.75 4:0 \n"
"7 1:0.8 2:0.45 3:0.25 4:0 \n"
"-6.555145199752261 1:0.8 2:0.45 3:0.45 4:0 \n"
"-7 1:0.8 2:0.45 3:0.55 4:0 \n"
"7 1:0.8 2:0.45 3:0.65 4:0 \n"
"-7 1:0.8 2:0.45 3:0.8 4:0 \n"
"-1.564335901434285 1:0.8 2:0.5 3:0.25 4:0 \n"
"7 1:0.8 2:0.5 3:0.5 4:0 \n"
"7 1:0.8 2:0.5 3:0.55 4:0 \n"
"-7 1:0.8 2:0.5 3:0.65 4:0 \n"
"7 1:0.8 2:0.5 3:0.75 4:0 \n"
"6.252536048015426 1:0.8 2:0.55 3:0.4 4:0 \n"
"3.936189345457049 1:0.8 2:0.55 3:0.55 4:0 \n"
"-1.228996009505535 1:0.8 2:0.55 3:0.8 4:0 \n"
"-7 1:0.8 2:0.6 3:0.8 4:0 \n"
"7 1:0.8 2:0.65 3:0.35 4:0 \n"
"-7 1:0.8 2:0.65 3:0.4 4:0 \n"
"-3.860645558146168 1:0.8 2:0.65 3:0.8 4:0 \n"
"-7 1:0.8 2:0.7 3:0.25 4:0 \n"
"-1.258577412109194 1:0.8 2:0.7 3:0.55 4:0 \n"
"7 1:0.8 2:0.7 3:0.7 4:0 \n"
"6.356834019519608 1:0.8 2:0.7 3:0.75 4:0 \n"
"-7 1:0.8 2:0.7 3:0.8 4:0 \n"
"7 1:0.8 2:0.75 3:0.3 4:0 \n"
"2.596530278122378 1:0.8 2:0.75 3:0.45 4:0 \n"
"-7 1:0.8 2:0.75 3:0.55 4:0 \n"
"-2.810225985510545 1:0.8 2:0.8 3:0.25 4:0 \n"
"6.91237428623274 1:0.8 2:0.8 3:0.5 4:0 \n"
"3.62227637534706 1:0.8 2:0.8 3:0.7 4:0 \n"
"5.551804360988977 1:0.2 2:0.2 3:0.45 4:0.14285714 \n"
"-5.385631093105926 1:0.2 2:0.2 3:0.8 4:0.14285714 \n"
"7 1:0.2 2:0.25 3:0.7 4:0.14285714 \n"
"6.887113899479044 1:0.2 2:0.25 3:0.75 4:0.14285714 \n"
"6.560643636043122 1:0.2 2:0.3 3:0.7 4:0.14285714 \n"
"-7 1:0.2 2:0.35 3:0.2 4:0.14285714 \n"
"-1.639112838178907 1:0.2 2:0.35 3:0.8 4:0.14285714 \n"
"6.973680494881496 1:0.2 2:0.4 3:0.2 4:0.14285714 \n"
"-7 1:0.2 2:0.4 3:0.3 4:0.14285714 \n"
"7 1:0.2 2:0.4 3:0.4 4:0.14285714 \n"
"7 1:0.2 2:0.45 3:0.4 4:0.14285714 \n"
"7 1:0.2 2:0.5 3:0.75 4:0.14285714 \n"
"-7 1:0.2 2:0.55 3:0.35 4:0.14285714 \n"
"7 1:0.2 2:0.55 3:0.75 4:0.14285714 \n"
"-7 1:0.2 2:0.65 3:0.3 4:0.14285714 \n"
"7 1:0.2 2:0.7 3:0.7 4:0.14285714 \n"
"6.866746960739981 1:0.2 2:0.7 3:0.75 4:0.14285714 \n"
"7 1:0.2 2:0.75 3:0.2 4:0.14285714 \n"
"7 1:0.2 2:0.75 3:0.25 4:0.14285714 \n"
"7 1:0.2 2:0.75 3:0.35 4:0.14285714 \n"
"3.647444518048987 1:0.2 2:0.75 3:0.4 4:0.14285714 \n"
"7 1:0.2 2:0.75 3:0.65 4:0.14285714 \n"
"-4.873161285671716 1:0.2 2:0.8 3:0.2 4:0.14285714 \n"
"-7 1:0.2 2:0.8 3:0.25 4:0.14285714 \n"
"-2.872328903405819 1:0.2 2:0.8 3:0.6 4:0.14285714 \n"
"-3.095804615337219 1:0.2 2:0.8 3:0.8 4:0.14285714 \n"
"2.936109627612889 1:0.25 2:0.2 3:0.2 4:0.14285714 \n"
"7 1:0.25 2:0.2 3:0.65 4:0.14285714 \n"
"-2.243611779519349 1:0.25 2:0.2 3:0.8 4:0.14285714 \n"
"7 1:0.25 2:0.8 3:0.3 4:0.14285714 \n"
"6.963135357533297 1:0.25 2:0.8 3:0.6 4:0.14285714 \n"
"-7 1:0.25 2:0.8 3:0.7 4:0.14285714 \n"
"-7 1:0.25 2:0.8 3:0.8 4:0.14285714 \n"
"-0.132969318306688 1:0.3 2:0.2 3:0.4 4:0.14285714 \n"
"-7 1:0.3 2:0.2 3:0.65 4:0.14285714 \n"
"-7 1:0.3 2:0.2 3:0.75 4:0.14285714 \n"
"-0.386782709426624 1:0.3 2:0.7 3:0.2 4:0.14285714 \n"
"-1.474653752335225 1:0.3 2:0.75 3:0.8 4:0.14285714 \n"
"6.919685297595863 1:0.3 2:0.8 3:0.25 4:0.14285714 \n"
"7 1:0.3 2:0.8 3:0.7 4:0.14285714 \n"
"-7 1:0.3 2:0.8 3:0.75 4:0.14285714 \n"
"-3.855546350812728 1:0.35 2:0.2 3:0.2 4:0.14285714 \n"
"7 1:0.35 2:0.2 3:0.75 4:0.14285714 \n"
"-0.02652557684566924 1:0.35 2:0.55 3:0.8 4:0.14285714 \n"
"-7 1:0.35 2:0.6 3:0.2 4:0.14285714 \n"
"7 1:0.35 2:0.8 3:0.25 4:0.14285714 \n"
"-4.888385736648702 1:0.35 2:0.8 3:0.35 4:0.14285714 \n"
"-1.977430746468909 1:0.35 2:0.8 3:0.4 4:0.14285714 \n"
"7 1:0.35 2:0.8 3:0.75 4:0.14285714 \n"
"1.659425241360819 1:0.4 2:0.2 3:0.25 4:0.14285714 \n"
"-7 1:0.4 2:0.35 3:0.2 4:0.14285714 \n"
"-0.7078678498171409 1:0.4 2:0.8 3:0.3 4:0.14285714 \n"
"7 1:0.4 2:0.8 3:0.75 4:0.14285714 \n"
"7 1:0.45 2:0.2 3:0.65 4:0.14285714 \n"
"-7 1:0.45 2:0.8 3:0.25 4:0.14285714 \n"
"-7 1:0.45 2:0.8 3:0.55 4:0.14285714 \n"
"-6.310069267479666 1:0.45 2:0.8 3:0.6 4:0.14285714 \n"
"-3.444069865219885 1:0.45 2:0.8 3:0.65 4:0.14285714 \n"
"7 1:0.45 2:0.8 3:0.7 4:0.14285714 \n"
"-1.570146707111062 1:0.5 2:0.2 3:0.6 4:0.14285714 \n"
"-7 1:0.5 2:0.8 3:0.65 4:0.14285714 \n"
"-7 1:0.5 2:0.8 3:0.75 4:0.14285714 \n"
"-0.8951563056988627 1:0.55 2:0.2 3:0.2 4:0.14285714 \n"
"-7 1:0.55 2:0.2 3:0.4 4:0.14285714 \n"
"7 1:0.55 2:0.2 3:0.45 4:0.14285714 \n"
"1.720781661512951 1:0.55 2:0.2 3:0.75 4:0.14285714 \n"
"7 1:0.55 2:0.4 3:0.8 4:0.14285714 \n"
"-3.60416918300162 1:0.55 2:0.65 3:0.2 4:0.14285714 \n"
"-7 1:0.55 2:0.65 3:0.8 4:0.14285714 \n"
"7 1:0.55 2:0.8 3:0.5 4:0.14285714 \n"
"7 1:0.55 2:0.8 3:0.75 4:0.14285714 \n"
"6.2106692060491 1:0.55 2:0.8 3:0.8 4:0.14285714 \n"
"1.201894231706493 1:0.6 2:0.2 3:0.2 4:0.14285714 \n"
"-7 1:0.6 2:0.2 3:0.3 4:0.14285714 \n"
"7 1:0.6 2:0.2 3:0.4 4:0.14285714 \n"
"-5.120710971141067 1:0.6 2:0.5 3:0.2 4:0.14285714 \n"
"-7 1:0.6 2:0.65 3:0.8 4:0.14285714 \n"
"-7 1:0.6 2:0.8 3:0.3 4:0.14285714 \n"
"-5.687547516091087 1:0.6 2:0.8 3:0.4 4:0.14285714 \n"
"7 1:0.6 2:0.8 3:0.5 4:0.14285714 \n"
"0.6001322837856117 1:0.6 2:0.8 3:0.65 4:0.14285714 \n"
"6.943363729592015 1:0.65 2:0.2 3:0.3 4:0.14285714 \n"
"1.70435702691378 1:0.65 2:0.65 3:0.8 4:0.14285714 \n"
"3.416399896639744 1:0.7 2:0.8 3:0.25 4:0.14285714 \n"
"-7 1:0.7 2:0.8 3:0.75 4:0.14285714 \n"
"-4.093009661041914 1:0.7 2:0.8 3:0.8 4:0.14285714 \n"
"-5.07719441862014 1:0.75 2:0.2 3:0.2 4:0.14285714 \n"
"4.551096206528025 1:0.75 2:0.2 3:0.3 4:0.14285714 \n"
"-7 1:0.75 2:0.2 3:0.4 4:0.14285714 \n"
"7 1:0.75 2:0.2 3:0.45 4:0.14285714 \n"
"-7 1:0.75 2:0.2 3:0.55 4:0.14285714 \n"
"-7 1:0.75 2:0.2 3:0.65 4:0.14285714 \n"
"3.663453287362026 1:0.75 2:0.2 3:0.7 4:0.14285714 \n"
"-1.981773876846835 1:0.75 2:0.2 3:0.8 4:0.14285714 \n"
"-0.2541579312633109 1:0.75 2:0.45 3:0.8 4:0.14285714 \n"
"-7 1:0.75 2:0.55 3:0.8 4:0.14285714 \n"
"-7 1:0.75 2:0.6 3:0.2 4:0.14285714 \n"
"7 1:0.75 2:0.8 3:0.55 4:0.14285714 \n"
"6.39950226397948 1:0.75 2:0.8 3:0.75 4:0.14285714 \n"
"-0.2448987349131933 1:0.8 2:0.2 3:0.6 4:0.14285714 \n"
"5.510842765219799 1:0.8 2:0.2 3:0.75 4:0.14285714 \n"
"-7 1:0.8 2:0.25 3:0.6 4:0.14285714 \n"
"-7 1:0.8 2:0.25 3:0.65 4:0.14285714 \n"
"0.1747637908650387 1:0.8 2:0.25 3:0.8 4:0.14285714 \n"
"-3.437387359017754 1:0.8 2:0.3 3:0.25 4:0.14285714 \n"
"7 1:0.8 2:0.3 3:0.4 4:0.14285714 \n"
"1.400354357443654 1:0.8 2:0.35 3:0.2 4:0.14285714 \n"
"-7 1:0.8 2:0.35 3:0.35 4:0.14285714 \n"
"7 1:0.8 2:0.35 3:0.7 4:0.14285714 \n"
"-7 1:0.8 2:0.4 3:0.6 4:0.14285714 \n"
"3.390252109269007 1:0.8 2:0.4 3:0.7 4:0.14285714 \n"
"-4.540592444364136 1:0.8 2:0.45 3:0.35 4:0.14285714 \n"
"-7 1:0.8 2:0.45 3:0.4 4:0.14285714 \n"
"7 1:0.8 2:0.45 3:0.5 4:0.14285714 \n"
"-6.252425112974289 1:0.8 2:0.45 3:0.8 4:0.14285714 \n"
"7 1:0.8 2:0.5 3:0.4 4:0.14285714 \n"
"-2.037092072997248 1:0.8 2:0.5 3:0.65 4:0.14285714 \n"
"2.911204472791911 1:0.8 2:0.5 3:0.75 4:0.14285714 \n"
"7 1:0.8 2:0.55 3:0.4 4:0.14285714 \n"
"6.054303293661794 1:0.8 2:0.55 3:0.45 4:0.14285714 \n"
"-2.692274308513928 1:0.8 2:0.55 3:0.7 4:0.14285714 \n"
"7 1:0.8 2:0.55 3:0.75 4:0.14285714 \n"
"-7 1:0.8 2:0.6 3:0.45 4:0.14285714 \n"
"-7 1:0.8 2:0.6 3:0.55 4:0.14285714 \n"
"0.002170154896568037 1:0.8 2:0.6 3:0.6 4:0.14285714 \n"
"7 1:0.8 2:0.6 3:0.75 4:0.14285714 \n"
"-1.489021692287587 1:0.8 2:0.65 3:0.25 4:0.14285714 \n"
"-7 1:0.8 2:0.65 3:0.4 4:0.14285714 \n"
"7 1:0.8 2:0.65 3:0.8 4:0.14285714 \n"
"-7 1:0.8 2:0.7 3:0.25 4:0.14285714 \n"
"-7 1:0.8 2:0.7 3:0.7 4:0.14285714 \n"
"-0.02009245625148065 1:0.8 2:0.75 3:0.25 4:0.14285714 \n"
"-6.992883552814205 1:0.8 2:0.8 3:0.65 4:0.14285714 \n"
"0.02279006281513109 1:0.2 2:0.2 3:0.25 4:0.28571429 \n"
"-7 1:0.2 2:0.2 3:0.8 4:0.28571429 \n"
"-4.44291099687584 1:0.2 2:0.25 3:0.35 4:0.28571429 \n"
"-7 1:0.2 2:0.3 3:0.3 4:0.28571429 \n"
"-2.730679436254069 1:0.2 2:0.3 3:0.65 4:0.28571429 \n"
"-6.858011963166972 1:0.2 2:0.35 3:0.45 4:0.28571429 \n"
"-7 1:0.2 2:0.4 3:0.65 4:0.28571429 \n"
"2.713702293315892 1:0.2 2:0.45 3:0.25 4:0.28571429 \n"
"1.118638733606502 1:0.2 2:0.45 3:0.6 4:0.28571429 \n"
"-1.974637915629548 1:0.2 2:0.45 3:0.75 4:0.28571429 \n"
"6.995506441112777 1:0.2 2:0.5 3:0.7 4:0.28571429 \n"
"1.001141542536822 1:0.2 2:0.6 3:0.7 4:0.28571429 \n"
"-7 1:0.2 2:0.6 3:0.75 4:0.28571429 \n"
"-7 1:0.2 2:0.65 3:0.55 4:0.28571429 \n"
"1.842728225431643 1:0.2 2:0.7 3:0.25 4:0.28571429 \n"
"-0.06511454645279123 1:0.2 2:0.7 3:0.55 4:0.28571429 \n"
"-2.50268398952743 1:0.2 2:0.7 3:0.65 4:0.28571429 \n"
"-6.955071325765632 1:0.2 2:0.8 3:0.3 4:0.28571429 \n"
"-1.274540652478609 1:0.2 2:0.8 3:0.65 4:0.28571429 \n"
"-3.259386376583905 1:0.2 2:0.8 3:0.75 4:0.28571429 \n"
"-1.214121131908419 1:0.2 2:0.8 3:0.8 4:0.28571429 \n"
"7 1:0.25 2:0.25 3:0.8 4:0.28571429 \n"
"2.526875950727711 1:0.25 2:0.3 3:0.8 4:0.28571429 \n"
"7 1:0.25 2:0.45 3:0.8 4:0.28571429 \n"
"7 1:0.25 2:0.7 3:0.8 4:0.28571429 \n"
"1.312672987039857 1:0.25 2:0.75 3:0.2 4:0.28571429 \n"
"7 1:0.25 2:0.75 3:0.8 4:0.28571429 \n"
"-2.744777868835408 1:0.3 2:0.2 3:0.55 4:0.28571429 \n"
"-4.587921517634181 1:0.3 2:0.55 3:0.8 4:0.28571429 \n"
"-0.9055664874172722 1:0.3 2:0.8 3:0.2 4:0.28571429 \n"
"-5.377529888404199 1:0.35 2:0.2 3:0.5 4:0.28571429 \n"
"-2.263305436047905 1:0.35 2:0.8 3:0.25 4:0.28571429 \n"
"7 1:0.35 2:0.8 3:0.8 4:0.28571429 \n"
"3.384549836630221 1:0.4 2:0.2 3:0.25 4:0.28571429 \n"
"-7 1:0.4 2:0.2 3:0.6 4:0.28571429 \n"
"-2.025858051855632 1:0.4 2:0.35 3:0.8 4:0.28571429 \n"
"-7 1:0.4 2:0.4 3:0.8 4:0.28571429 \n"
"-1.77159164694298 1:0.4 2:0.65 3:0.8 4:0.28571429 \n"
"-7 1:0.4 2:0.8 3:0.8 4:0.28571429 \n"
"4.192501335232698 1:0.45 2:0.2 3:0.55 4:0.28571429 \n"
"7 1:0.45 2:0.35 3:0.2 4:0.28571429 \n"
"2.724133981382215 1:0.45 2:0.65 3:0.2 4:0.28571429 \n"
"-1.774653335044162 1:0.45 2:0.8 3:0.7 4:0.28571429 \n"
"-3.87568010799602 1:0.5 2:0.35 3:0.2 4:0.28571429 \n"
"-5.232577064691029 1:0.5 2:0.8 3:0.2 4:0.28571429 \n"
"-0.1528791977243499 1:0.5 2:0.8 3:0.4 4:0.28571429 \n"
"4.414482165596359 1:0.5 2:0.8 3:0.6 4:0.28571429 \n"
"-7 1:0.5 2:0.8 3:0.7 4:0.28571429 \n"
"1.17659911121687 1:0.55 2:0.35 3:0.8 4:0.28571429 \n"
"7 1:0.55 2:0.65 3:0.8 4:0.28571429 \n"
"7 1:0.55 2:0.8 3:0.2 4:0.28571429 \n"
"7 1:0.55 2:0.8 3:0.25 4:0.28571429 \n"
"7 1:0.55 2:0.8 3:0.45 4:0.28571429 \n"
"4.028559588463474 1:0.55 2:0.8 3:0.7 4:0.28571429 \n"
"-2.64170466288233 1:0.6 2:0.2 3:0.55 4:0.28571429 \n"
"-1.255082721561459 1:0.6 2:0.75 3:0.8 4:0.28571429 \n"
"-7 1:0.6 2:0.8 3:0.6 4:0.28571429 \n"
"-7 1:0.65 2:0.2 3:0.35 4:0.28571429 \n"
"7 1:0.65 2:0.2 3:0.55 4:0.28571429 \n"
"4.297951384791559 1:0.65 2:0.4 3:0.8 4:0.28571429 \n"
"0.001578458218077869 1:0.65 2:0.8 3:0.6 4:0.28571429 \n"
"-2.379775862971772 1:0.7 2:0.2 3:0.45 4:0.28571429 \n"
"-4.791513070610169 1:0.7 2:0.25 3:0.8 4:0.28571429 \n"
"-7 1:0.7 2:0.8 3:0.2 4:0.28571429 \n"
"0.2483340226588039 1:0.75 2:0.2 3:0.2 4:0.28571429 \n"
"7 1:0.75 2:0.2 3:0.75 4:0.28571429 \n"
"3.41228383476121 1:0.75 2:0.3 3:0.8 4:0.28571429 \n"
"5.212268074503912 1:0.75 2:0.5 3:0.2 4:0.28571429 \n"
"7 1:0.75 2:0.75 3:0.2 4:0.28571429 \n"
"-1.898148782107634 1:0.75 2:0.8 3:0.4 4:0.28571429 \n"
"2.54522580441733 1:0.75 2:0.8 3:0.8 4:0.28571429 \n"
"5.61828531916302 1:0.8 2:0.2 3:0.45 4:0.28571429 \n"
"3.059413320184349 1:0.8 2:0.2 3:0.7 4:0.28571429 \n"
"6.97714438538071 1:0.8 2:0.25 3:0.2 4:0.28571429 \n"
"-7 1:0.8 2:0.25 3:0.3 4:0.28571429 \n"
"7 1:0.8 2:0.25 3:0.75 4:0.28571429 \n"
"-6.617011629800859 1:0.8 2:0.25 3:0.8 4:0.28571429 \n"
"7 1:0.8 2:0.3 3:0.45 4:0.28571429 \n"
"1.698753186661554 1:0.8 2:0.4 3:0.2 4:0.28571429 \n"
"-7 1:0.8 2:0.4 3:0.25 4:0.28571429 \n"
"-7 1:0.8 2:0.45 3:0.3 4:0.28571429 \n"
"7 1:0.8 2:0.45 3:0.55 4:0.28571429 \n"
"-7 1:0.8 2:0.45 3:0.7 4:0.28571429 \n"
"2.108680541863973 1:0.8 2:0.45 3:0.8 4:0.28571429 \n"
"-7 1:0.8 2:0.5 3:0.4 4:0.28571429 \n"
"7 1:0.8 2:0.55 3:0.55 4:0.28571429 \n"
"-7 1:0.8 2:0.55 3:0.8 4:0.28571429 \n"
"-0.0258911679714832 1:0.8 2:0.6 3:0.3 4:0.28571429 \n"
"7 1:0.8 2:0.6 3:0.35 4:0.28571429 \n"
"-7 1:0.8 2:0.6 3:0.6 4:0.28571429 \n"
"4.774833919848282 1:0.8 2:0.65 3:0.2 4:0.28571429 \n"
"7 1:0.8 2:0.65 3:0.55 4:0.28571429 \n"
"7 1:0.8 2:0.65 3:0.75 4:0.28571429 \n"
"-1.151520181507366 1:0.8 2:0.7 3:0.3 4:0.28571429 \n"
"-7 1:0.8 2:0.7 3:0.65 4:0.28571429 \n"
"-7 1:0.8 2:0.7 3:0.7 4:0.28571429 \n"
"4.102001271025897 1:0.8 2:0.75 3:0.25 4:0.28571429 \n"
"7 1:0.8 2:0.75 3:0.45 4:0.28571429 \n"
"1.352597807599034 1:0.8 2:0.75 3:0.6 4:0.28571429 \n"
"-0.08881728550568677 1:0.8 2:0.8 3:0.3 4:0.28571429 \n"
"7 1:0.8 2:0.8 3:0.7 4:0.28571429 \n"
"-6.276401880634325 1:0.8 2:0.8 3:0.8 4:0.28571429 \n"
"2.422318583196138 1:0.2 2:0.25 3:0.35 4:0.42857143 \n"
"4.189466868139219 1:0.2 2:0.25 3:0.8 4:0.42857143 \n"
"0.2074003154553433 1:0.2 2:0.35 3:0.45 4:0.42857143 \n"
"7 1:0.2 2:0.4 3:0.2 4:0.42857143 \n"
"2.598829151173799 1:0.2 2:0.4 3:0.6 4:0.42857143 \n"
"-5.891568105024244 1:0.2 2:0.45 3:0.2 4:0.42857143 \n"
"6.622216066155881 1:0.2 2:0.55 3:0.7 4:0.42857143 \n"
"-7 1:0.2 2:0.6 3:0.35 4:0.42857143 \n"
"1.239715490501826 1:0.2 2:0.65 3:0.65 4:0.42857143 \n"
"5.513511617799733 1:0.2 2:0.7 3:0.4 4:0.42857143 \n"
"7 1:0.2 2:0.7 3:0.6 4:0.42857143 \n"
"1.458560792822172 1:0.2 2:0.8 3:0.75 4:0.42857143 \n"
"3.178316631412231 1:0.25 2:0.2 3:0.7 4:0.42857143 \n"
"2.822425460635555 1:0.3 2:0.2 3:0.35 4:0.42857143 \n"
"-0.4337998415247334 1:0.3 2:0.2 3:0.8 4:0.42857143 \n"
"-0.5614248426584327 1:0.35 2:0.2 3:0.75 4:0.42857143 \n"
"-1.364828310326754 1:0.35 2:0.8 3:0.2 4:0.42857143 \n"
"2.42511320542195 1:0.4 2:0.2 3:0.2 4:0.42857143 \n"
"7 1:0.4 2:0.2 3:0.5 4:0.42857143 \n"
"-1.372615832561511 1:0.4 2:0.8 3:0.8 4:0.42857143 \n"
"-0.3268837931011836 1:0.45 2:0.2 3:0.2 4:0.42857143 \n"
"-3.437129077211782 1:0.45 2:0.2 3:0.45 4:0.42857143 \n"
"-1.6315524920033 1:0.45 2:0.2 3:0.75 4:0.42857143 \n"
"-7 1:0.45 2:0.45 3:0.2 4:0.42857143 \n"
"-0.4119847004873941 1:0.45 2:0.55 3:0.2 4:0.42857143 \n"
"1.319515819752351 1:0.45 2:0.8 3:0.45 4:0.42857143 \n"
"-7 1:0.5 2:0.2 3:0.25 4:0.42857143 \n"
"7 1:0.5 2:0.8 3:0.7 4:0.42857143 \n"
"6.174133792573149 1:0.55 2:0.8 3:0.25 4:0.42857143 \n"
"7 1:0.55 2:0.8 3:0.6 4:0.42857143 \n"
"2.501359375362975 1:0.6 2:0.3 3:0.8 4:0.42857143 \n"
"-2.299631557755089 1:0.6 2:0.8 3:0.2 4:0.42857143 \n"
"-7 1:0.6 2:0.8 3:0.45 4:0.42857143 \n"
"5.492018586925444 1:0.65 2:0.2 3:0.25 4:0.42857143 \n"
"-1.277818188375408 1:0.65 2:0.35 3:0.8 4:0.42857143 \n"
"-7 1:0.65 2:0.4 3:0.2 4:0.42857143 \n"
"-1.777033066447693 1:0.65 2:0.45 3:0.8 4:0.42857143 \n"
"0.0007543193209561895 1:0.65 2:0.55 3:0.8 4:0.42857143 \n"
"-1.844227486264086 1:0.65 2:0.8 3:0.5 4:0.42857143 \n"
"-0.301047262760256 1:0.7 2:0.2 3:0.5 4:0.42857143 \n"
"-2.064203856690518 1:0.7 2:0.55 3:0.2 4:0.42857143 \n"
"-0.5959526016020622 1:0.7 2:0.65 3:0.8 4:0.42857143 \n"
"4.986071724421897 1:0.7 2:0.8 3:0.4 4:0.42857143 \n"
"-7 1:0.7 2:0.8 3:0.55 4:0.42857143 \n"
"0.08003093254948945 1:0.7 2:0.8 3:0.6 4:0.42857143 \n"
"-2.751518889857759 1:0.7 2:0.8 3:0.7 4:0.42857143 \n"
"-7 1:0.75 2:0.2 3:0.55 4:0.42857143 \n"
"-5.592288519349314 1:0.75 2:0.25 3:0.2 4:0.42857143 \n"
"-0.04167769986308804 1:0.75 2:0.35 3:0.8 4:0.42857143 \n"
"-7 1:0.75 2:0.4 3:0.8 4:0.42857143 \n"
"0.04981033002109905 1:0.75 2:0.65 3:0.2 4:0.42857143 \n"
"-7 1:0.75 2:0.7 3:0.2 4:0.42857143 \n"
"-2.607590910626012 1:0.75 2:0.7 3:0.8 4:0.42857143 \n"
"-0.08601436447451261 1:0.8 2:0.2 3:0.6 4:0.42857143 \n"
"-7 1:0.8 2:0.25 3:0.8 4:0.42857143 \n"
"-7 1:0.8 2:0.3 3:0.6 4:0.42857143 \n"
"4.270473598890645 1:0.8 2:0.3 3:0.75 4:0.42857143 \n"
"7 1:0.8 2:0.35 3:0.45 4:0.42857143 \n"
"-7 1:0.8 2:0.35 3:0.6 4:0.42857143 \n"
"7 1:0.8 2:0.35 3:0.75 4:0.42857143 \n"
"7 1:0.8 2:0.4 3:0.2 4:0.42857143 \n"
"7 1:0.8 2:0.4 3:0.45 4:0.42857143 \n"
"-7 1:0.8 2:0.4 3:0.5 4:0.42857143 \n"
"-7 1:0.8 2:0.45 3:0.6 4:0.42857143 \n"
"-0.006522259059915745 1:0.8 2:0.5 3:0.5 4:0.42857143 \n"
"7 1:0.8 2:0.5 3:0.75 4:0.42857143 \n"
"-0.0171268093774925 1:0.8 2:0.5 3:0.8 4:0.42857143 \n"
"-3.410886097083853 1:0.8 2:0.6 3:0.25 4:0.42857143 \n"
"-0.05703560977064084 1:0.8 2:0.6 3:0.5 4:0.42857143 \n"
"-7 1:0.8 2:0.65 3:0.3 4:0.42857143 \n"
"3.195636346173364 1:0.8 2:0.7 3:0.2 4:0.42857143 \n"
"-1.898183219467229 1:0.8 2:0.7 3:0.7 4:0.42857143 \n"
"6.951148434780441 1:0.8 2:0.75 3:0.45 4:0.42857143 \n"
"-7 1:0.8 2:0.8 3:0.5 4:0.42857143 \n"
"-4.291280850313352 1:0.2 2:0.2 3:0.75 4:0.57142857 \n"
"4.952502809888031 1:0.2 2:0.25 3:0.7 4:0.57142857 \n"
"-2.426038718681818 1:0.2 2:0.3 3:0.2 4:0.57142857 \n"
"-5.327235773640652 1:0.2 2:0.35 3:0.75 4:0.57142857 \n"
"0.9483204892716888 1:0.2 2:0.45 3:0.25 4:0.57142857 \n"
"7 1:0.2 2:0.45 3:0.35 4:0.57142857 \n"
"4.491497259102727 1:0.2 2:0.5 3:0.35 4:0.57142857 \n"
"-2.779089564222299 1:0.2 2:0.6 3:0.55 4:0.57142857 \n"
"-6.805555741768836 1:0.2 2:0.6 3:0.65 4:0.57142857 \n"
"-1.15821484630506 1:0.2 2:0.65 3:0.3 4:0.57142857 \n"
"-2.370819054175106 1:0.2 2:0.7 3:0.75 4:0.57142857 \n"
"-0.04093654150281574 1:0.2 2:0.8 3:0.2 4:0.57142857 \n"
"-2.188741185424918 1:0.2 2:0.8 3:0.75 4:0.57142857 \n"
"-0.08419469053788464 1:0.2 2:0.8 3:0.8 4:0.57142857 \n"
"1.749242123785016 1:0.25 2:0.8 3:0.7 4:0.57142857 \n"
"-0.6182182582609166 1:0.3 2:0.6 3:0.8 4:0.57142857 \n"
"-0.9055915005494753 1:0.3 2:0.65 3:0.2 4:0.57142857 \n"
"6.889566836302691 1:0.35 2:0.5 3:0.2 4:0.57142857 \n"
"0.002017660567388964 1:0.45 2:0.8 3:0.2 4:0.57142857 \n"
"-5.85249705051316 1:0.5 2:0.25 3:0.2 4:0.57142857 \n"
"-7 1:0.5 2:0.8 3:0.25 4:0.57142857 \n"
"5.595938356333829 1:0.5 2:0.8 3:0.35 4:0.57142857 \n"
"-1.348385383792242 1:0.5 2:0.8 3:0.75 4:0.57142857 \n"
"-3.118981385744327 1:0.55 2:0.2 3:0.3 4:0.57142857 \n"
"0.6786245048013237 1:0.55 2:0.2 3:0.5 4:0.57142857 \n"
"7 1:0.55 2:0.2 3:0.6 4:0.57142857 \n"
"-7 1:0.55 2:0.2 3:0.7 4:0.57142857 \n"
"2.372568514741729 1:0.55 2:0.5 3:0.2 4:0.57142857 \n"
"4.081216737043848 1:0.55 2:0.7 3:0.8 4:0.57142857 \n"
"-7 1:0.55 2:0.8 3:0.45 4:0.57142857 \n"
"7 1:0.6 2:0.2 3:0.2 4:0.57142857 \n"
"-1.008467543804394 1:0.6 2:0.2 3:0.55 4:0.57142857 \n"
"0.2129685485440756 1:0.6 2:0.65 3:0.2 4:0.57142857 \n"
"0.03016501337543194 1:0.65 2:0.2 3:0.6 4:0.57142857 \n"
"5.613013963921806 1:0.65 2:0.2 3:0.8 4:0.57142857 \n"
"7 1:0.65 2:0.8 3:0.35 4:0.57142857 \n"
"-4.698821369743505 1:0.7 2:0.25 3:0.8 4:0.57142857 \n"
"-7 1:0.7 2:0.4 3:0.2 4:0.57142857 \n"
"2.369691697779635 1:0.75 2:0.2 3:0.5 4:0.57142857 \n"
"0.4033656988327383 1:0.75 2:0.2 3:0.8 4:0.57142857 \n"
"0.1099534067797659 1:0.75 2:0.25 3:0.2 4:0.57142857 \n"
"-6.915288763791296 1:0.75 2:0.5 3:0.8 4:0.57142857 \n"
"5.280918243446521 1:0.75 2:0.7 3:0.2 4:0.57142857 \n"
"0.1001589446585897 1:0.75 2:0.8 3:0.2 4:0.57142857 \n"
"2.929002172793486 1:0.75 2:0.8 3:0.35 4:0.57142857 \n"
"5.424202682832393 1:0.75 2:0.8 3:0.6 4:0.57142857 \n"
"2.311415041036916 1:0.75 2:0.8 3:0.75 4:0.57142857 \n"
"-7 1:0.8 2:0.2 3:0.3 4:0.57142857 \n"
"5.712041734094522 1:0.8 2:0.2 3:0.35 4:0.57142857 \n"
"2.60263351623618 1:0.8 2:0.2 3:0.45 4:0.57142857 \n"
"1.285703709634616 1:0.8 2:0.2 3:0.7 4:0.57142857 \n"
"1.324901174752467 1:0.8 2:0.25 3:0.2 4:0.57142857 \n"
"0.1972340208679678 1:0.8 2:0.25 3:0.7 4:0.57142857 \n"
"-0.1391288486803245 1:0.8 2:0.25 3:0.8 4:0.57142857 \n"
"7 1:0.8 2:0.4 3:0.75 4:0.57142857 \n"
"3.044349507526884 1:0.8 2:0.45 3:0.2 4:0.57142857 \n"
"0.01186029725812164 1:0.8 2:0.45 3:0.55 4:0.57142857 \n"
"-0.9299160784776809 1:0.8 2:0.45 3:0.7 4:0.57142857 \n"
"-7 1:0.8 2:0.5 3:0.35 4:0.57142857 \n"
"4.950466748125021 1:0.8 2:0.55 3:0.7 4:0.57142857 \n"
"7 1:0.8 2:0.6 3:0.5 4:0.57142857 \n"
"-2.86143979856185 1:0.8 2:0.65 3:0.35 4:0.57142857 \n"
"-5.213852564688045 1:0.8 2:0.7 3:0.45 4:0.57142857 \n"
"-7 1:0.8 2:0.7 3:0.5 4:0.57142857 \n"
"1.013111299358822 1:0.8 2:0.7 3:0.75 4:0.57142857 \n"
"0.6511229250866039 1:0.8 2:0.75 3:0.2 4:0.57142857 \n"
"-0.2337324141445568 1:0.8 2:0.8 3:0.2 4:0.57142857 \n"
"-1.963734304946722 1:0.2 2:0.2 3:0.6 4:0.71428571 \n"
"5.168231794118637 1:0.2 2:0.25 3:0.6 4:0.71428571 \n"
"-0.0577823590787302 1:0.2 2:0.35 3:0.35 4:0.71428571 \n"
"-3.616970246812606 1:0.2 2:0.4 3:0.55 4:0.71428571 \n"
"-4.870520395223184 1:0.2 2:0.5 3:0.3 4:0.71428571 \n"
"6.931392336564778 1:0.2 2:0.5 3:0.5 4:0.71428571 \n"
"3.110466454846754 1:0.2 2:0.7 3:0.7 4:0.71428571 \n"
"1.62375988435556 1:0.2 2:0.75 3:0.6 4:0.71428571 \n"
"-1.502959821180562 1:0.2 2:0.8 3:0.4 4:0.71428571 \n"
"0.003447472703037788 1:0.25 2:0.2 3:0.25 4:0.71428571 \n"
"-4.098595841693298 1:0.3 2:0.2 3:0.75 4:0.71428571 \n"
"-0.7032045940540855 1:0.3 2:0.8 3:0.7 4:0.71428571 \n"
"1.063983563564409 1:0.35 2:0.35 3:0.2 4:0.71428571 \n"
"-0.3585945995536054 1:0.35 2:0.45 3:0.2 4:0.71428571 \n"
"0.005438194171350774 1:0.4 2:0.2 3:0.2 4:0.71428571 \n"
"4.60464279531614 1:0.4 2:0.2 3:0.75 4:0.71428571 \n"
"-1.01469693630576 1:0.4 2:0.2 3:0.8 4:0.71428571 \n"
"1.815098531595282 1:0.4 2:0.8 3:0.75 4:0.71428571 \n"
"-0.7874874128067526 1:0.45 2:0.8 3:0.6 4:0.71428571 \n"
"3.657735186776443 1:0.5 2:0.2 3:0.65 4:0.71428571 \n"
"7 1:0.55 2:0.8 3:0.35 4:0.71428571 \n"
"-0.3496039848773018 1:0.55 2:0.8 3:0.4 4:0.71428571 \n"
"-7 1:0.6 2:0.2 3:0.55 4:0.71428571 \n"
"-7 1:0.6 2:0.2 3:0.7 4:0.71428571 \n"
"-1.937137259247776 1:0.6 2:0.65 3:0.2 4:0.71428571 \n"
"-0.1493891084821613 1:0.6 2:0.8 3:0.3 4:0.71428571 \n"
"0.3466766130043477 1:0.65 2:0.2 3:0.35 4:0.71428571 \n"
"7 1:0.65 2:0.2 3:0.65 4:0.71428571 \n"
"-7 1:0.65 2:0.3 3:0.2 4:0.71428571 \n"
"0.03773333350566677 1:0.65 2:0.6 3:0.8 4:0.71428571 \n"
"1.17876658257391 1:0.7 2:0.2 3:0.7 4:0.71428571 \n"
"-7 1:0.7 2:0.8 3:0.4 4:0.71428571 \n"
"-3.306508752248913 1:0.7 2:0.8 3:0.5 4:0.71428571 \n"
"-2.836471554783672 1:0.75 2:0.2 3:0.2 4:0.71428571 \n"
"7 1:0.75 2:0.2 3:0.45 4:0.71428571 \n"
"-4.996906813520725 1:0.75 2:0.2 3:0.65 4:0.71428571 \n"
"-7 1:0.75 2:0.2 3:0.8 4:0.71428571 \n"
"0.4075593316892291 1:0.75 2:0.6 3:0.8 4:0.71428571 \n"
"-4.610700315982677 1:0.75 2:0.7 3:0.8 4:0.71428571 \n"
"-3.483948181515026 1:0.8 2:0.2 3:0.55 4:0.71428571 \n"
"5.89447259824627 1:0.8 2:0.2 3:0.75 4:0.71428571 \n"
"0.05306382888324875 1:0.8 2:0.25 3:0.45 4:0.71428571 \n"
"7 1:0.8 2:0.3 3:0.55 4:0.71428571 \n"
"-5.281545004620942 1:0.8 2:0.3 3:0.6 4:0.71428571 \n"
"2.856451146463971 1:0.8 2:0.35 3:0.2 4:0.71428571 \n"
"-7 1:0.8 2:0.35 3:0.3 4:0.71428571 \n"
"-7 1:0.8 2:0.35 3:0.6 4:0.71428571 \n"
"-0.6964444894275698 1:0.8 2:0.35 3:0.8 4:0.71428571 \n"
"-0.5601503029573403 1:0.8 2:0.45 3:0.35 4:0.71428571 \n"
"0.004839841331578673 1:0.8 2:0.45 3:0.5 4:0.71428571 \n"
"-0.001675972592755863 1:0.8 2:0.5 3:0.4 4:0.71428571 \n"
"7 1:0.8 2:0.55 3:0.4 4:0.71428571 \n"
"2.774846730180496 1:0.8 2:0.6 3:0.45 4:0.71428571 \n"
"7 1:0.8 2:0.65 3:0.55 4:0.71428571 \n"
"-6.102489692004053 1:0.8 2:0.65 3:0.65 4:0.71428571 \n"
"-0.3309495920919533 1:0.8 2:0.7 3:0.35 4:0.71428571 \n"
"7 1:0.8 2:0.7 3:0.4 4:0.71428571 \n"
"0.3447025386360982 1:0.8 2:0.7 3:0.55 4:0.71428571 \n"
"-7 1:0.8 2:0.7 3:0.6 4:0.71428571 \n"
"7 1:0.8 2:0.7 3:0.7 4:0.71428571 \n"
"7 1:0.8 2:0.75 3:0.45 4:0.71428571 \n"
"-2.295675650264064 1:0.8 2:0.8 3:0.3 4:0.71428571 \n"
"-0.3263407557174928 1:0.8 2:0.8 3:0.4 4:0.71428571 \n"
"0.8704729464578651 1:0.2 2:0.2 3:0.25 4:0.85714286 \n"
"-2.007627832959877 1:0.2 2:0.25 3:0.5 4:0.85714286 \n"
"0.006155718126953581 1:0.2 2:0.25 3:0.8 4:0.85714286 \n"
"-0.005655404798256951 1:0.2 2:0.3 3:0.4 4:0.85714286 \n"
"-7 1:0.2 2:0.35 3:0.55 4:0.85714286 \n"
"5.599858062728383 1:0.2 2:0.4 3:0.6 4:0.85714286 \n"
"-5.101472971400478 1:0.2 2:0.6 3:0.5 4:0.85714286 \n"
"0.1391446160018893 1:0.2 2:0.7 3:0.3 4:0.85714286 \n"
"0.6618538037784693 1:0.2 2:0.75 3:0.25 4:0.85714286 \n"
"-0.232666084385549 1:0.2 2:0.8 3:0.55 4:0.85714286 \n"
"-0.5541409367094348 1:0.2 2:0.8 3:0.75 4:0.85714286 \n"
"3.028932431949849 1:0.25 2:0.2 3:0.55 4:0.85714286 \n"
"0.4164424955957522 1:0.25 2:0.7 3:0.2 4:0.85714286 \n"
"0.8925762800457707 1:0.3 2:0.8 3:0.45 4:0.85714286 \n"
"-1.913042838189227 1:0.35 2:0.8 3:0.2 4:0.85714286 \n"
"0.02134162558612445 1:0.4 2:0.8 3:0.3 4:0.85714286 \n"
"-0.1949852499993785 1:0.45 2:0.2 3:0.75 4:0.85714286 \n"
"-3.473189611695291 1:0.45 2:0.25 3:0.2 4:0.85714286 \n"
"0.4610410546401938 1:0.45 2:0.65 3:0.2 4:0.85714286 \n"
"1.265189213350569 1:0.5 2:0.2 3:0.5 4:0.85714286 \n"
"7 1:0.55 2:0.4 3:0.8 4:0.85714286 \n"
"7 1:0.55 2:0.8 3:0.65 4:0.85714286 \n"
"3.236534429083094 1:0.6 2:0.2 3:0.25 4:0.85714286 \n"
"-3.199934656291836 1:0.6 2:0.25 3:0.8 4:0.85714286 \n"
"-3.79534466097907 1:0.6 2:0.5 3:0.2 4:0.85714286 \n"
"-7 1:0.6 2:0.8 3:0.7 4:0.85714286 \n"
"0.3040266667487275 1:0.65 2:0.2 3:0.55 4:0.85714286 \n"
"7 1:0.65 2:0.2 3:0.7 4:0.85714286 \n"
"1.964792610012228 1:0.65 2:0.8 3:0.5 4:0.85714286 \n"
"5.087889082254939 1:0.65 2:0.8 3:0.8 4:0.85714286 \n"
"-0.09592329729869127 1:0.7 2:0.2 3:0.6 4:0.85714286 \n"
"-3.704715347740086 1:0.7 2:0.5 3:0.8 4:0.85714286 \n"
"-1.404113508605811 1:0.75 2:0.65 3:0.2 4:0.85714286 \n"
"-2.540269504123726 1:0.75 2:0.8 3:0.25 4:0.85714286 \n"
"7 1:0.75 2:0.8 3:0.4 4:0.85714286 \n"
"0.1729775456421579 1:0.75 2:0.8 3:0.6 4:0.85714286 \n"
"1.305813432830208 1:0.75 2:0.8 3:0.65 4:0.85714286 \n"
"-5.092125909015943 1:0.75 2:0.8 3:0.8 4:0.85714286 \n"
"-6.648812332133309 1:0.8 2:0.2 3:0.3 4:0.85714286 \n"
"1.590889441077664 1:0.8 2:0.2 3:0.75 4:0.85714286 \n"
"-2.946444540393114 1:0.8 2:0.2 3:0.8 4:0.85714286 \n"
"3.485959873237809 1:0.8 2:0.25 3:0.2 4:0.85714286 \n"
"5.298132585348412 1:0.8 2:0.25 3:0.45 4:0.85714286 \n"
"-1.694048123130549 1:0.8 2:0.3 3:0.3 4:0.85714286 \n"
"7 1:0.8 2:0.3 3:0.45 4:0.85714286 \n"
"-7 1:0.8 2:0.35 3:0.65 4:0.85714286 \n"
"-6.176416000746077 1:0.8 2:0.45 3:0.3 4:0.85714286 \n"
"7 1:0.8 2:0.5 3:0.7 4:0.85714286 \n"
"-7 1:0.8 2:0.5 3:0.8 4:0.85714286 \n"
"-7 1:0.8 2:0.55 3:0.35 4:0.85714286 \n"
"-7 1:0.8 2:0.55 3:0.65 4:0.85714286 \n"
"3.332594467874385 1:0.8 2:0.6 3:0.2 4:0.85714286 \n"
"7 1:0.8 2:0.6 3:0.6 4:0.85714286 \n"
"-7 1:0.8 2:0.65 3:0.65 4:0.85714286 \n"
"2.387514773993923 1:0.8 2:0.65 3:0.75 4:0.85714286 \n"
"-7 1:0.8 2:0.7 3:0.3 4:0.85714286 \n"
"-7 1:0.8 2:0.7 3:0.55 4:0.85714286 \n"
"3.088170551882907 1:0.8 2:0.75 3:0.2 4:0.85714286 \n"
"1.947390992558904 1:0.8 2:0.75 3:0.55 4:0.85714286 \n"
"0.04227318327322359 1:0.2 2:0.2 3:0.3 4:1 \n"
"2.583040728369244 1:0.2 2:0.2 3:0.35 4:1 \n"
"-0.5640455079684499 1:0.2 2:0.2 3:0.75 4:1 \n"
"-0.2279280114193223 1:0.2 2:0.2 3:0.8 4:1 \n"
"-5.97372129234286 1:0.2 2:0.3 3:0.3 4:1 \n"
"-0.172798815676292 1:0.2 2:0.35 3:0.55 4:1 \n"
"2.472424137120029 1:0.2 2:0.5 3:0.3 4:1 \n"
"3.21899214094624 1:0.2 2:0.7 3:0.25 4:1 \n"
"-1.343572275965451 1:0.2 2:0.8 3:0.2 4:1 \n"
"-0.2009108199581034 1:0.25 2:0.8 3:0.4 4:1 \n"
"-0.5300567685440413 1:0.3 2:0.2 3:0.45 4:1 \n"
"-0.9952383672553935 1:0.3 2:0.55 3:0.2 4:1 \n"
"-0.818195378436817 1:0.35 2:0.2 3:0.8 4:1 \n"
"7 1:0.35 2:0.3 3:0.2 4:1 \n"
"-0.7325376517856634 1:0.35 2:0.55 3:0.2 4:1 \n"
"2.19271122736634 1:0.35 2:0.7 3:0.2 4:1 \n"
"-0.274011303551193 1:0.35 2:0.8 3:0.8 4:1 \n"
"2.143690088871724 1:0.4 2:0.3 3:0.8 4:1 \n"
"-0.7931450179298605 1:0.45 2:0.2 3:0.2 4:1 \n"
"7 1:0.45 2:0.2 3:0.4 4:1 \n"
"-0.4264137979167631 1:0.45 2:0.25 3:0.2 4:1 \n"
"-1.516580038843089 1:0.45 2:0.5 3:0.8 4:1 \n"
"0.6600553920061289 1:0.45 2:0.8 3:0.55 4:1 \n"
"-7 1:0.5 2:0.2 3:0.3 4:1 \n"
"1.169210934513234 1:0.55 2:0.8 3:0.25 4:1 \n"
"-3.4305108645873 1:0.6 2:0.2 3:0.5 4:1 \n"
"7 1:0.6 2:0.3 3:0.2 4:1 \n"
"-4.844021030001075 1:0.6 2:0.35 3:0.2 4:1 \n"
"-0.3616567006822823 1:0.65 2:0.2 3:0.35 4:1 \n"
"-4.402079059614033 1:0.65 2:0.45 3:0.2 4:1 \n"
"0.9757144241347302 1:0.65 2:0.8 3:0.35 4:1 \n"
"7 1:0.65 2:0.8 3:0.55 4:1 \n"
"2.644185940148271 1:0.7 2:0.2 3:0.25 4:1 \n"
"-3.465354455301961 1:0.7 2:0.2 3:0.55 4:1 \n"
"-2.088381242853866 1:0.7 2:0.2 3:0.6 4:1 \n"
"7 1:0.7 2:0.2 3:0.65 4:1 \n"
"-5.148376551816721 1:0.7 2:0.2 3:0.7 4:1 \n"
"-7 1:0.7 2:0.35 3:0.2 4:1 \n"
"-6.012073714417109 1:0.7 2:0.35 3:0.8 4:1 \n"
"7 1:0.7 2:0.45 3:0.8 4:1 \n"
"-7 1:0.7 2:0.8 3:0.75 4:1 \n"
"7 1:0.75 2:0.2 3:0.45 4:1 \n"
"-6.083346819543414 1:0.75 2:0.2 3:0.8 4:1 \n"
"-5.768609086318365 1:0.75 2:0.6 3:0.8 4:1 \n"
"1.804654405726018 1:0.75 2:0.8 3:0.4 4:1 \n"
"-7 1:0.75 2:0.8 3:0.5 4:1 \n"
"7 1:0.75 2:0.8 3:0.75 4:1 \n"
"0.2725422690145485 1:0.8 2:0.2 3:0.4 4:1 \n"
"0.1631994153560358 1:0.8 2:0.2 3:0.5 4:1 \n"
"-6.766363099948005 1:0.8 2:0.2 3:0.6 4:1 \n"
"7 1:0.8 2:0.2 3:0.75 4:1 \n"
"3.475240848703909 1:0.8 2:0.25 3:0.45 4:1 \n"
"-7 1:0.8 2:0.25 3:0.6 4:1 \n"
"7 1:0.8 2:0.25 3:0.75 4:1 \n"
"-5.502122474022289 1:0.8 2:0.3 3:0.25 4:1 \n"
"-4.768094176333634 1:0.8 2:0.3 3:0.65 4:1 \n"
"7 1:0.8 2:0.35 3:0.5 4:1 \n"
"7 1:0.8 2:0.4 3:0.2 4:1 \n"
"-5.552121757753284 1:0.8 2:0.4 3:0.8 4:1 \n"
"-0.05684205477238916 1:0.8 2:0.45 3:0.65 4:1 \n"
"7 1:0.8 2:0.45 3:0.75 4:1 \n"
"4.196108009743008 1:0.8 2:0.5 3:0.2 4:1 \n"
"-7 1:0.8 2:0.5 3:0.3 4:1 \n"
"2.789542649942476 1:0.8 2:0.5 3:0.7 4:1 \n"
"7 1:0.8 2:0.6 3:0.75 4:1 \n"
"-7 1:0.8 2:0.65 3:0.7 4:1 \n"
"1.381934477434657 1:0.8 2:0.7 3:0.45 4:1 \n"
"-1.03683137443813 1:0.8 2:0.7 3:0.6 4:1 \n"
"0.793852083560994 1:0.8 2:0.8 3:0.3 4:1 \n"
"-6.238095389026943 1:0.8 2:0.8 3:0.65 4:1 \n"
"5.256853272220778 1:0.8 2:0.8 3:0.7 4:1 \n";
