char* avg_model_string=
"svm_type nu_svr\n"
"kernel_type rbf\n"
"gamma 3\n"
"nr_class 2\n"
"total_sv 1088\n"
"rho 0.0825524\n"
"SV\n"
"-6 1:0.25 2:0.25 3:0.65 4:0 \n"
"-6 1:0.25 2:0.3 3:0.65 4:0 \n"
"-6 1:0.25 2:0.35 3:0.55 4:0 \n"
"-6 1:0.25 2:0.35 3:0.65 4:0 \n"
"-6 1:0.25 2:0.4 3:0.55 4:0 \n"
"-6 1:0.25 2:0.4 3:0.65 4:0 \n"
"-6 1:0.25 2:0.4 3:0.7 4:0 \n"
"-6 1:0.25 2:0.45 3:0.55 4:0 \n"
"-6 1:0.25 2:0.45 3:0.65 4:0 \n"
"-6 1:0.25 2:0.45 3:0.7 4:0 \n"
"-6 1:0.25 2:0.5 3:0.65 4:0 \n"
"-3.239764966617243 1:0.25 2:0.55 3:0.4 4:0 \n"
"-6 1:0.25 2:0.55 3:0.55 4:0 \n"
"-6 1:0.25 2:0.55 3:0.65 4:0 \n"
"-5.779559988315934 1:0.25 2:0.55 3:0.7 4:0 \n"
"-6 1:0.25 2:0.6 3:0.55 4:0 \n"
"-6 1:0.25 2:0.6 3:0.65 4:0 \n"
"-6 1:0.25 2:0.65 3:0.65 4:0 \n"
"-6 1:0.25 2:0.7 3:0.65 4:0 \n"
"-2.226387810840257 1:0.25 2:0.75 3:0.65 4:0 \n"
"-1.295067574446124 1:0.25 2:0.3 3:0.45 4:0.14285714 \n"
"-5.988029020781742 1:0.25 2:0.4 3:0.65 4:0.14285714 \n"
"-2.394392417553974 1:0.25 2:0.45 3:0.65 4:0.14285714 \n"
"-1.694760256551868 1:0.25 2:0.55 3:0.65 4:0.14285714 \n"
"3.443991570765053 1:0.25 2:0.7 3:0.25 4:0.14285714 \n"
"1.624123365009045 1:0.25 2:0.7 3:0.7 4:0.14285714 \n"
"6 1:0.3 2:0.25 3:0.5 4:0 \n"
"6 1:0.3 2:0.25 3:0.7 4:0 \n"
"6 1:0.3 2:0.3 3:0.5 4:0 \n"
"-5.249338156102763 1:0.3 2:0.3 3:0.55 4:0 \n"
"6 1:0.3 2:0.3 3:0.7 4:0 \n"
"-6 1:0.3 2:0.3 3:0.75 4:0 \n"
"6 1:0.3 2:0.35 3:0.5 4:0 \n"
"1.371983486503127 1:0.3 2:0.35 3:0.65 4:0 \n"
"6 1:0.3 2:0.35 3:0.7 4:0 \n"
"6 1:0.3 2:0.4 3:0.5 4:0 \n"
"6 1:0.3 2:0.4 3:0.7 4:0 \n"
"6 1:0.3 2:0.45 3:0.5 4:0 \n"
"6 1:0.3 2:0.45 3:0.7 4:0 \n"
"-6 1:0.3 2:0.45 3:0.75 4:0 \n"
"0.8395296884395285 1:0.3 2:0.5 3:0.35 4:0 \n"
"6 1:0.3 2:0.5 3:0.5 4:0 \n"
"6 1:0.3 2:0.5 3:0.7 4:0 \n"
"-6 1:0.3 2:0.5 3:0.75 4:0 \n"
"6 1:0.3 2:0.55 3:0.5 4:0 \n"
"6 1:0.3 2:0.55 3:0.7 4:0 \n"
"-6 1:0.3 2:0.55 3:0.75 4:0 \n"
"6 1:0.3 2:0.6 3:0.5 4:0 \n"
"6 1:0.3 2:0.6 3:0.7 4:0 \n"
"6 1:0.3 2:0.65 3:0.5 4:0 \n"
"6 1:0.3 2:0.65 3:0.7 4:0 \n"
"6 1:0.3 2:0.7 3:0.35 4:0 \n"
"6 1:0.3 2:0.7 3:0.45 4:0 \n"
"6 1:0.3 2:0.7 3:0.5 4:0 \n"
"5.849100534490333 1:0.3 2:0.7 3:0.65 4:0 \n"
"6 1:0.3 2:0.7 3:0.7 4:0 \n"
"-4.222960814013746 1:0.3 2:0.75 3:0.75 4:0 \n"
"6 1:0.3 2:0.3 3:0.75 4:0.14285714 \n"
"5.991341916176014 1:0.3 2:0.4 3:0.65 4:0.14285714 \n"
"5.982617674005326 1:0.3 2:0.55 3:0.55 4:0.14285714 \n"
"5.445277387197219 1:0.3 2:0.65 3:0.75 4:0.14285714 \n"
"1.306756941902059 1:0.3 2:0.75 3:0.75 4:0.14285714 \n"
"4.352896624284408 1:0.3 2:0.45 3:0.5 4:0.28571429 \n"
"6 1:0.35 2:0.25 3:0.75 4:0 \n"
"-3.884364542248932 1:0.35 2:0.3 3:0.25 4:0 \n"
"-6 1:0.35 2:0.3 3:0.4 4:0 \n"
"-6 1:0.35 2:0.3 3:0.45 4:0 \n"
"-6 1:0.35 2:0.3 3:0.5 4:0 \n"
"6 1:0.35 2:0.3 3:0.75 4:0 \n"
"6 1:0.35 2:0.35 3:0.7 4:0 \n"
"6 1:0.35 2:0.35 3:0.75 4:0 \n"
"6 1:0.35 2:0.4 3:0.7 4:0 \n"
"6 1:0.35 2:0.4 3:0.75 4:0 \n"
"-6 1:0.35 2:0.45 3:0.25 4:0 \n"
"5.993270832341994 1:0.35 2:0.45 3:0.7 4:0 \n"
"6 1:0.35 2:0.45 3:0.75 4:0 \n"
"6 1:0.35 2:0.5 3:0.75 4:0 \n"
"6 1:0.35 2:0.55 3:0.7 4:0 \n"
"6 1:0.35 2:0.55 3:0.75 4:0 \n"
"-6 1:0.35 2:0.6 3:0.25 4:0 \n"
"-5.846712688603847 1:0.35 2:0.6 3:0.45 4:0 \n"
"6 1:0.35 2:0.6 3:0.75 4:0 \n"
"6 1:0.35 2:0.65 3:0.75 4:0 \n"
"-6 1:0.35 2:0.7 3:0.25 4:0 \n"
"-6 1:0.35 2:0.7 3:0.35 4:0 \n"
"-6 1:0.35 2:0.7 3:0.4 4:0 \n"
"-6 1:0.35 2:0.7 3:0.45 4:0 \n"
"-6 1:0.35 2:0.7 3:0.5 4:0 \n"
"-2.303022418182131 1:0.35 2:0.7 3:0.55 4:0 \n"
"-6 1:0.35 2:0.75 3:0.25 4:0 \n"
"5.862856362036233 1:0.35 2:0.25 3:0.5 4:0.14285714 \n"
"6 1:0.35 2:0.25 3:0.7 4:0.14285714 \n"
"0.535500873231365 1:0.35 2:0.35 3:0.7 4:0.14285714 \n"
"6 1:0.35 2:0.4 3:0.7 4:0.14285714 \n"
"3.064081742948031 1:0.35 2:0.45 3:0.7 4:0.14285714 \n"
"4.511925298469793 1:0.35 2:0.5 3:0.7 4:0.14285714 \n"
"-4.46296911653547 1:0.35 2:0.65 3:0.3 4:0.14285714 \n"
"6 1:0.4 2:0.55 3:0.25 4:0 \n"
"6 1:0.4 2:0.65 3:0.25 4:0 \n"
"6 1:0.4 2:0.65 3:0.3 4:0 \n"
"6 1:0.4 2:0.65 3:0.35 4:0 \n"
"6 1:0.4 2:0.65 3:0.4 4:0 \n"
"6 1:0.4 2:0.65 3:0.45 4:0 \n"
"6 1:0.4 2:0.65 3:0.5 4:0 \n"
"6 1:0.4 2:0.75 3:0.25 4:0 \n"
"6 1:0.4 2:0.75 3:0.3 4:0 \n"
"6 1:0.4 2:0.75 3:0.35 4:0 \n"
"6 1:0.4 2:0.75 3:0.4 4:0 \n"
"6 1:0.4 2:0.75 3:0.5 4:0 \n"
"-6 1:0.45 2:0.25 3:0.25 4:0 \n"
"-1.765510000270007 1:0.45 2:0.25 3:0.35 4:0 \n"
"-6 1:0.45 2:0.25 3:0.4 4:0 \n"
"-6 1:0.45 2:0.25 3:0.45 4:0 \n"
"-6 1:0.45 2:0.25 3:0.65 4:0 \n"
"-6 1:0.45 2:0.25 3:0.7 4:0 \n"
"-6 1:0.45 2:0.25 3:0.75 4:0 \n"
"-6 1:0.45 2:0.3 3:0.45 4:0 \n"
"-0.4967545709252782 1:0.45 2:0.3 3:0.7 4:0 \n"
"-6 1:0.45 2:0.3 3:0.75 4:0 \n"
"-0.2862265681962589 1:0.45 2:0.4 3:0.45 4:0 \n"
"-6 1:0.45 2:0.4 3:0.7 4:0 \n"
"-6 1:0.45 2:0.4 3:0.75 4:0 \n"
"-6 1:0.45 2:0.45 3:0.45 4:0 \n"
"-6 1:0.45 2:0.45 3:0.7 4:0 \n"
"-6 1:0.45 2:0.45 3:0.75 4:0 \n"
"-6 1:0.45 2:0.5 3:0.7 4:0 \n"
"-6 1:0.45 2:0.5 3:0.75 4:0 \n"
"-6 1:0.45 2:0.55 3:0.7 4:0 \n"
"-6 1:0.45 2:0.55 3:0.75 4:0 \n"
"-6 1:0.45 2:0.6 3:0.25 4:0 \n"
"-4.198809688467 1:0.45 2:0.6 3:0.3 4:0 \n"
"-6 1:0.45 2:0.6 3:0.35 4:0 \n"
"-6 1:0.45 2:0.6 3:0.4 4:0 \n"
"-6 1:0.45 2:0.6 3:0.45 4:0 \n"
"-6 1:0.45 2:0.6 3:0.7 4:0 \n"
"-6 1:0.45 2:0.6 3:0.75 4:0 \n"
"-6 1:0.45 2:0.7 3:0.7 4:0 \n"
"-6 1:0.45 2:0.7 3:0.75 4:0 \n"
"-6 1:0.45 2:0.75 3:0.25 4:0 \n"
"-6 1:0.45 2:0.75 3:0.3 4:0 \n"
"-6 1:0.45 2:0.75 3:0.35 4:0 \n"
"-6 1:0.45 2:0.75 3:0.4 4:0 \n"
"-6 1:0.45 2:0.75 3:0.45 4:0 \n"
"-6 1:0.45 2:0.75 3:0.65 4:0 \n"
"-6 1:0.45 2:0.75 3:0.7 4:0 \n"
"-6 1:0.45 2:0.75 3:0.75 4:0 \n"
"-6 1:0.45 2:0.25 3:0.7 4:0.14285714 \n"
"-6 1:0.45 2:0.3 3:0.65 4:0.14285714 \n"
"-6 1:0.45 2:0.3 3:0.7 4:0.14285714 \n"
"-6 1:0.45 2:0.35 3:0.7 4:0.14285714 \n"
"-6 1:0.45 2:0.4 3:0.7 4:0.14285714 \n"
"-6 1:0.45 2:0.45 3:0.7 4:0.14285714 \n"
"-6 1:0.45 2:0.5 3:0.7 4:0.14285714 \n"
"-6 1:0.45 2:0.55 3:0.7 4:0.14285714 \n"
"-6 1:0.45 2:0.6 3:0.7 4:0.14285714 \n"
"-6 1:0.45 2:0.65 3:0.7 4:0.14285714 \n"
"6 1:0.45 2:0.7 3:0.25 4:0.14285714 \n"
"-6 1:0.45 2:0.7 3:0.7 4:0.14285714 \n"
"-4.457545373086204 1:0.45 2:0.75 3:0.3 4:0.14285714 \n"
"-6 1:0.45 2:0.75 3:0.7 4:0.14285714 \n"
"-3.745022423088013 1:0.45 2:0.25 3:0.55 4:0.28571429 \n"
"-1.349852447628292 1:0.45 2:0.55 3:0.35 4:0.57142857 \n"
"-1.480335854666115 1:0.45 2:0.6 3:0.35 4:0.57142857 \n"
"-0.2665158489890731 1:0.45 2:0.65 3:0.35 4:0.57142857 \n"
"-0.01183809987433203 1:0.45 2:0.7 3:0.3 4:0.71428571 \n"
"-0.02977738465837875 1:0.45 2:0.75 3:0.25 4:0.85714286 \n"
"6 1:0.5 2:0.25 3:0.25 4:0 \n"
"6 1:0.5 2:0.25 3:0.5 4:0 \n"
"6 1:0.5 2:0.25 3:0.55 4:0 \n"
"6 1:0.5 2:0.25 3:0.7 4:0 \n"
"6 1:0.5 2:0.25 3:0.75 4:0 \n"
"6 1:0.5 2:0.3 3:0.25 4:0 \n"
"6 1:0.5 2:0.3 3:0.5 4:0 \n"
"-6 1:0.5 2:0.3 3:0.65 4:0 \n"
"6 1:0.5 2:0.3 3:0.7 4:0 \n"
"6 1:0.5 2:0.35 3:0.25 4:0 \n"
"6 1:0.5 2:0.35 3:0.5 4:0 \n"
"-6 1:0.5 2:0.35 3:0.65 4:0 \n"
"6 1:0.5 2:0.35 3:0.7 4:0 \n"
"6 1:0.5 2:0.4 3:0.25 4:0 \n"
"6 1:0.5 2:0.4 3:0.5 4:0 \n"
"-6 1:0.5 2:0.4 3:0.65 4:0 \n"
"6 1:0.5 2:0.4 3:0.7 4:0 \n"
"6 1:0.5 2:0.4 3:0.75 4:0 \n"
"6 1:0.5 2:0.45 3:0.25 4:0 \n"
"6 1:0.5 2:0.45 3:0.5 4:0 \n"
"6 1:0.5 2:0.45 3:0.55 4:0 \n"
"-6 1:0.5 2:0.45 3:0.65 4:0 \n"
"6 1:0.5 2:0.45 3:0.7 4:0 \n"
"6 1:0.5 2:0.45 3:0.75 4:0 \n"
"6 1:0.5 2:0.5 3:0.25 4:0 \n"
"6 1:0.5 2:0.5 3:0.5 4:0 \n"
"6 1:0.5 2:0.5 3:0.55 4:0 \n"
"-6 1:0.5 2:0.5 3:0.65 4:0 \n"
"6 1:0.5 2:0.5 3:0.7 4:0 \n"
"6 1:0.5 2:0.5 3:0.75 4:0 \n"
"6 1:0.5 2:0.55 3:0.25 4:0 \n"
"6 1:0.5 2:0.55 3:0.5 4:0 \n"
"0.1651182240194406 1:0.5 2:0.55 3:0.55 4:0 \n"
"-6 1:0.5 2:0.55 3:0.65 4:0 \n"
"6 1:0.5 2:0.55 3:0.7 4:0 \n"
"6 1:0.5 2:0.55 3:0.75 4:0 \n"
"6 1:0.5 2:0.6 3:0.25 4:0 \n"
"6 1:0.5 2:0.6 3:0.5 4:0 \n"
"-6 1:0.5 2:0.6 3:0.65 4:0 \n"
"6 1:0.5 2:0.6 3:0.7 4:0 \n"
"6 1:0.5 2:0.6 3:0.75 4:0 \n"
"-6 1:0.5 2:0.65 3:0.3 4:0 \n"
"-6 1:0.5 2:0.65 3:0.65 4:0 \n"
"6 1:0.5 2:0.65 3:0.7 4:0 \n"
"6 1:0.5 2:0.7 3:0.25 4:0 \n"
"3.574194754441733 1:0.5 2:0.7 3:0.35 4:0 \n"
"6 1:0.5 2:0.7 3:0.4 4:0 \n"
"6 1:0.5 2:0.7 3:0.45 4:0 \n"
"6 1:0.5 2:0.7 3:0.5 4:0 \n"
"6 1:0.5 2:0.7 3:0.55 4:0 \n"
"6 1:0.5 2:0.7 3:0.7 4:0 \n"
"6 1:0.5 2:0.7 3:0.75 4:0 \n"
"6 1:0.5 2:0.75 3:0.25 4:0 \n"
"6 1:0.5 2:0.75 3:0.5 4:0 \n"
"6 1:0.5 2:0.75 3:0.55 4:0 \n"
"6 1:0.5 2:0.75 3:0.7 4:0 \n"
"6 1:0.5 2:0.75 3:0.75 4:0 \n"
"6 1:0.5 2:0.3 3:0.75 4:0.14285714 \n"
"6 1:0.5 2:0.35 3:0.75 4:0.14285714 \n"
"6 1:0.5 2:0.4 3:0.75 4:0.14285714 \n"
"6 1:0.5 2:0.45 3:0.75 4:0.14285714 \n"
"-6 1:0.5 2:0.5 3:0.25 4:0.14285714 \n"
"6 1:0.5 2:0.5 3:0.75 4:0.14285714 \n"
"0.4499622915437755 1:0.5 2:0.55 3:0.55 4:0.14285714 \n"
"0.3811901183591156 1:0.5 2:0.55 3:0.65 4:0.14285714 \n"
"6 1:0.5 2:0.55 3:0.75 4:0.14285714 \n"
"-0.899382563949634 1:0.5 2:0.6 3:0.25 4:0.14285714 \n"
"6 1:0.5 2:0.6 3:0.75 4:0.14285714 \n"
"0.6937012568165539 1:0.5 2:0.65 3:0.55 4:0.14285714 \n"
"6 1:0.5 2:0.65 3:0.75 4:0.14285714 \n"
"-6 1:0.5 2:0.7 3:0.25 4:0.14285714 \n"
"1.713580680684072 1:0.5 2:0.75 3:0.55 4:0.14285714 \n"
"6 1:0.5 2:0.75 3:0.75 4:0.14285714 \n"
"0.1609096651369995 1:0.5 2:0.35 3:0.5 4:0.28571429 \n"
"5.394342994307763 1:0.5 2:0.7 3:0.5 4:0.28571429 \n"
"-0.8097420235488558 1:0.5 2:0.25 3:0.7 4:0.85714286 \n"
"-2.023246642906375 1:0.5 2:0.7 3:0.3 4:0.85714286 \n"
"-0.02302870556543853 1:0.5 2:0.75 3:0.3 4:0.85714286 \n"
"-4.011366421922163 1:0.5 2:0.75 3:0.7 4:0.85714286 \n"
"-6 1:0.55 2:0.25 3:0.35 4:0 \n"
"-6 1:0.55 2:0.25 3:0.4 4:0 \n"
"-6 1:0.55 2:0.25 3:0.5 4:0 \n"
"-6 1:0.55 2:0.25 3:0.55 4:0 \n"
"-1.057562087974455 1:0.55 2:0.25 3:0.6 4:0 \n"
"-6 1:0.55 2:0.25 3:0.65 4:0 \n"
"-6 1:0.55 2:0.3 3:0.35 4:0 \n"
"-6 1:0.55 2:0.3 3:0.5 4:0 \n"
"-6 1:0.55 2:0.3 3:0.55 4:0 \n"
"-6 1:0.55 2:0.3 3:0.65 4:0 \n"
"-6 1:0.55 2:0.35 3:0.5 4:0 \n"
"-6 1:0.55 2:0.35 3:0.55 4:0 \n"
"-6 1:0.55 2:0.35 3:0.65 4:0 \n"
"-6 1:0.55 2:0.4 3:0.55 4:0 \n"
"-6 1:0.55 2:0.4 3:0.65 4:0 \n"
"-6 1:0.55 2:0.45 3:0.55 4:0 \n"
"-6 1:0.55 2:0.45 3:0.65 4:0 \n"
"-0.08019482899534049 1:0.55 2:0.5 3:0.5 4:0 \n"
"-6 1:0.55 2:0.5 3:0.55 4:0 \n"
"-6 1:0.55 2:0.5 3:0.65 4:0 \n"
"-3.840246864242337 1:0.55 2:0.55 3:0.35 4:0 \n"
"-6 1:0.55 2:0.55 3:0.55 4:0 \n"
"-6 1:0.55 2:0.55 3:0.65 4:0 \n"
"-6 1:0.55 2:0.6 3:0.35 4:0 \n"
"-6 1:0.55 2:0.6 3:0.5 4:0 \n"
"-6 1:0.55 2:0.6 3:0.55 4:0 \n"
"-6 1:0.55 2:0.6 3:0.65 4:0 \n"
"-6 1:0.55 2:0.65 3:0.35 4:0 \n"
"-0.004380047771063467 1:0.55 2:0.65 3:0.4 4:0 \n"
"-6 1:0.55 2:0.65 3:0.45 4:0 \n"
"-6 1:0.55 2:0.65 3:0.5 4:0 \n"
"-6 1:0.55 2:0.65 3:0.55 4:0 \n"
"-0.4123094848716651 1:0.55 2:0.65 3:0.6 4:0 \n"
"-6 1:0.55 2:0.65 3:0.65 4:0 \n"
"-6 1:0.55 2:0.7 3:0.35 4:0 \n"
"-6 1:0.55 2:0.7 3:0.4 4:0 \n"
"-6 1:0.55 2:0.7 3:0.45 4:0 \n"
"-6 1:0.55 2:0.7 3:0.5 4:0 \n"
"-6 1:0.55 2:0.7 3:0.55 4:0 \n"
"-6 1:0.55 2:0.7 3:0.65 4:0 \n"
"6 1:0.55 2:0.75 3:0.3 4:0 \n"
"-6 1:0.55 2:0.75 3:0.55 4:0 \n"
"-6 1:0.55 2:0.75 3:0.65 4:0 \n"
"5.895318176826327 1:0.55 2:0.25 3:0.5 4:0.14285714 \n"
"-5.450048487976072 1:0.55 2:0.3 3:0.75 4:0.14285714 \n"
"-2.570342803354015 1:0.55 2:0.35 3:0.75 4:0.14285714 \n"
"-0.96508546225603 1:0.55 2:0.45 3:0.3 4:0.14285714 \n"
"-6 1:0.55 2:0.65 3:0.3 4:0.14285714 \n"
"-2.231373649355312 1:0.55 2:0.65 3:0.75 4:0.14285714 \n"
"-2.793495456071688 1:0.55 2:0.7 3:0.25 4:0.14285714 \n"
"-6 1:0.55 2:0.7 3:0.3 4:0.14285714 \n"
"-0.7414264064345524 1:0.55 2:0.7 3:0.55 4:0.14285714 \n"
"-6 1:0.55 2:0.7 3:0.75 4:0.14285714 \n"
"-0.09943225018272014 1:0.55 2:0.25 3:0.7 4:0.28571429 \n"
"-1.288816088559835 1:0.55 2:0.75 3:0.7 4:0.28571429 \n"
"-0.8436035050354896 1:0.55 2:0.7 3:0.25 4:0.57142857 \n"
"-3.412979230909458 1:0.55 2:0.25 3:0.65 4:0.85714286 \n"
"-2.783480754549946 1:0.55 2:0.3 3:0.65 4:0.85714286 \n"
"-1.378287449495746 1:0.55 2:0.4 3:0.65 4:0.85714286 \n"
"-0.2116935072168653 1:0.55 2:0.55 3:0.65 4:0.85714286 \n"
"-0.4859519773118239 1:0.55 2:0.65 3:0.65 4:0.85714286 \n"
"-6 1:0.6 2:0.25 3:0.25 4:0 \n"
"6 1:0.6 2:0.25 3:0.45 4:0 \n"
"6 1:0.6 2:0.25 3:0.55 4:0 \n"
"6 1:0.6 2:0.25 3:0.65 4:0 \n"
"6 1:0.6 2:0.25 3:0.75 4:0 \n"
"-3.650606220333471 1:0.6 2:0.3 3:0.25 4:0 \n"
"6 1:0.6 2:0.3 3:0.45 4:0 \n"
"6 1:0.6 2:0.3 3:0.55 4:0 \n"
"6 1:0.6 2:0.3 3:0.65 4:0 \n"
"6 1:0.6 2:0.3 3:0.75 4:0 \n"
"-6 1:0.6 2:0.35 3:0.25 4:0 \n"
"6 1:0.6 2:0.35 3:0.45 4:0 \n"
"6 1:0.6 2:0.35 3:0.55 4:0 \n"
"6 1:0.6 2:0.35 3:0.65 4:0 \n"
"6 1:0.6 2:0.35 3:0.75 4:0 \n"
"-6 1:0.6 2:0.4 3:0.25 4:0 \n"
"6 1:0.6 2:0.4 3:0.45 4:0 \n"
"6 1:0.6 2:0.4 3:0.55 4:0 \n"
"6 1:0.6 2:0.4 3:0.65 4:0 \n"
"6 1:0.6 2:0.4 3:0.75 4:0 \n"
"-6 1:0.6 2:0.45 3:0.25 4:0 \n"
"6 1:0.6 2:0.45 3:0.45 4:0 \n"
"6 1:0.6 2:0.45 3:0.55 4:0 \n"
"6 1:0.6 2:0.45 3:0.65 4:0 \n"
"6 1:0.6 2:0.45 3:0.75 4:0 \n"
"-6 1:0.6 2:0.5 3:0.25 4:0 \n"
"6 1:0.6 2:0.5 3:0.45 4:0 \n"
"6 1:0.6 2:0.5 3:0.55 4:0 \n"
"6 1:0.6 2:0.5 3:0.65 4:0 \n"
"6 1:0.6 2:0.5 3:0.75 4:0 \n"
"-6 1:0.6 2:0.55 3:0.25 4:0 \n"
"6 1:0.6 2:0.55 3:0.45 4:0 \n"
"6 1:0.6 2:0.55 3:0.55 4:0 \n"
"6 1:0.6 2:0.55 3:0.65 4:0 \n"
"6 1:0.6 2:0.55 3:0.75 4:0 \n"
"-6 1:0.6 2:0.6 3:0.25 4:0 \n"
"6 1:0.6 2:0.6 3:0.45 4:0 \n"
"6 1:0.6 2:0.6 3:0.55 4:0 \n"
"6 1:0.6 2:0.6 3:0.65 4:0 \n"
"6 1:0.6 2:0.6 3:0.75 4:0 \n"
"-5.757871099835723 1:0.6 2:0.65 3:0.25 4:0 \n"
"6 1:0.6 2:0.65 3:0.45 4:0 \n"
"6 1:0.6 2:0.65 3:0.55 4:0 \n"
"6 1:0.6 2:0.65 3:0.65 4:0 \n"
"6 1:0.6 2:0.65 3:0.75 4:0 \n"
"-6 1:0.6 2:0.7 3:0.25 4:0 \n"
"4.800678977076232 1:0.6 2:0.7 3:0.45 4:0 \n"
"6 1:0.6 2:0.7 3:0.55 4:0 \n"
"6 1:0.6 2:0.7 3:0.65 4:0 \n"
"6 1:0.6 2:0.7 3:0.75 4:0 \n"
"-2.674549047854115 1:0.6 2:0.75 3:0.25 4:0 \n"
"6 1:0.6 2:0.75 3:0.55 4:0 \n"
"6 1:0.6 2:0.75 3:0.65 4:0 \n"
"6 1:0.6 2:0.75 3:0.75 4:0 \n"
"0.4918908986898473 1:0.6 2:0.3 3:0.55 4:0.28571429 \n"
"-1.501409514445161 1:0.6 2:0.25 3:0.75 4:1 \n"
"-1.489315770134224 1:0.6 2:0.75 3:0.75 4:1 \n"
"-6 1:0.65 2:0.25 3:0.35 4:0 \n"
"-6 1:0.65 2:0.25 3:0.55 4:0 \n"
"-6 1:0.65 2:0.25 3:0.65 4:0 \n"
"-6 1:0.65 2:0.25 3:0.7 4:0 \n"
"6 1:0.65 2:0.3 3:0.25 4:0 \n"
"-6 1:0.65 2:0.3 3:0.35 4:0 \n"
"-6 1:0.65 2:0.3 3:0.55 4:0 \n"
"-6 1:0.65 2:0.3 3:0.65 4:0 \n"
"-6 1:0.65 2:0.3 3:0.7 4:0 \n"
"6 1:0.65 2:0.35 3:0.25 4:0 \n"
"-6 1:0.65 2:0.35 3:0.35 4:0 \n"
"-6 1:0.65 2:0.35 3:0.55 4:0 \n"
"-6 1:0.65 2:0.35 3:0.65 4:0 \n"
"-6 1:0.65 2:0.35 3:0.7 4:0 \n"
"6 1:0.65 2:0.4 3:0.25 4:0 \n"
"-6 1:0.65 2:0.4 3:0.35 4:0 \n"
"-6 1:0.65 2:0.4 3:0.55 4:0 \n"
"-6 1:0.65 2:0.4 3:0.65 4:0 \n"
"-6 1:0.65 2:0.4 3:0.7 4:0 \n"
"6 1:0.65 2:0.45 3:0.25 4:0 \n"
"-6 1:0.65 2:0.45 3:0.35 4:0 \n"
"-6 1:0.65 2:0.45 3:0.55 4:0 \n"
"-6 1:0.65 2:0.45 3:0.65 4:0 \n"
"-6 1:0.65 2:0.45 3:0.7 4:0 \n"
"6 1:0.65 2:0.5 3:0.25 4:0 \n"
"-6 1:0.65 2:0.5 3:0.55 4:0 \n"
"-6 1:0.65 2:0.5 3:0.65 4:0 \n"
"-6 1:0.65 2:0.5 3:0.7 4:0 \n"
"-6 1:0.65 2:0.55 3:0.3 4:0 \n"
"-6 1:0.65 2:0.55 3:0.35 4:0 \n"
"-2.707243020289863 1:0.65 2:0.55 3:0.45 4:0 \n"
"-6 1:0.65 2:0.55 3:0.55 4:0 \n"
"-6 1:0.65 2:0.55 3:0.65 4:0 \n"
"-6 1:0.65 2:0.55 3:0.7 4:0 \n"
"6 1:0.65 2:0.6 3:0.25 4:0 \n"
"-6 1:0.65 2:0.6 3:0.3 4:0 \n"
"-6 1:0.65 2:0.6 3:0.35 4:0 \n"
"-6 1:0.65 2:0.6 3:0.55 4:0 \n"
"-6 1:0.65 2:0.6 3:0.65 4:0 \n"
"-6 1:0.65 2:0.6 3:0.7 4:0 \n"
"6 1:0.65 2:0.65 3:0.25 4:0 \n"
"-6 1:0.65 2:0.65 3:0.35 4:0 \n"
"-6 1:0.65 2:0.65 3:0.55 4:0 \n"
"-6 1:0.65 2:0.65 3:0.65 4:0 \n"
"-6 1:0.65 2:0.65 3:0.7 4:0 \n"
"6 1:0.65 2:0.7 3:0.25 4:0 \n"
"-6 1:0.65 2:0.7 3:0.35 4:0 \n"
"-6 1:0.65 2:0.7 3:0.55 4:0 \n"
"-6 1:0.65 2:0.7 3:0.65 4:0 \n"
"-6 1:0.65 2:0.7 3:0.7 4:0 \n"
"6 1:0.65 2:0.75 3:0.25 4:0 \n"
"-6 1:0.65 2:0.75 3:0.35 4:0 \n"
"-6 1:0.65 2:0.75 3:0.65 4:0 \n"
"-6 1:0.65 2:0.75 3:0.7 4:0 \n"
"-6 1:0.65 2:0.25 3:0.65 4:0.14285714 \n"
"-6 1:0.65 2:0.3 3:0.65 4:0.14285714 \n"
"-6 1:0.65 2:0.35 3:0.65 4:0.14285714 \n"
"-6 1:0.65 2:0.4 3:0.65 4:0.14285714 \n"
"6 1:0.65 2:0.45 3:0.25 4:0.14285714 \n"
"-6 1:0.65 2:0.45 3:0.65 4:0.14285714 \n"
"6 1:0.65 2:0.5 3:0.25 4:0.14285714 \n"
"-6 1:0.65 2:0.5 3:0.65 4:0.14285714 \n"
"-6 1:0.65 2:0.55 3:0.3 4:0.14285714 \n"
"-6 1:0.65 2:0.55 3:0.65 4:0.14285714 \n"
"6 1:0.65 2:0.6 3:0.25 4:0.14285714 \n"
"-6 1:0.65 2:0.6 3:0.65 4:0.14285714 \n"
"6 1:0.65 2:0.65 3:0.25 4:0.14285714 \n"
"-6 1:0.65 2:0.65 3:0.65 4:0.14285714 \n"
"6 1:0.65 2:0.7 3:0.25 4:0.14285714 \n"
"6 1:0.65 2:0.7 3:0.5 4:0.14285714 \n"
"-6 1:0.65 2:0.75 3:0.3 4:0.14285714 \n"
"-6 1:0.65 2:0.75 3:0.65 4:0.14285714 \n"
"-3.107906154715405 1:0.65 2:0.25 3:0.25 4:0.28571429 \n"
"-5.949661372854158 1:0.65 2:0.35 3:0.25 4:0.28571429 \n"
"-6 1:0.65 2:0.45 3:0.25 4:0.28571429 \n"
"-6 1:0.65 2:0.6 3:0.25 4:0.28571429 \n"
"-6 1:0.65 2:0.7 3:0.25 4:0.28571429 \n"
"-2.806351795010638 1:0.65 2:0.75 3:0.25 4:0.28571429 \n"
"-2.914077851822797 1:0.65 2:0.7 3:0.75 4:0.57142857 \n"
"-6 1:0.65 2:0.75 3:0.75 4:0.57142857 \n"
"6 1:0.7 2:0.25 3:0.35 4:0 \n"
"6 1:0.7 2:0.25 3:0.4 4:0 \n"
"6 1:0.7 2:0.25 3:0.45 4:0 \n"
"6 1:0.7 2:0.25 3:0.5 4:0 \n"
"6 1:0.7 2:0.25 3:0.7 4:0 \n"
"-6 1:0.7 2:0.25 3:0.75 4:0 \n"
"6 1:0.7 2:0.3 3:0.35 4:0 \n"
"6 1:0.7 2:0.3 3:0.4 4:0 \n"
"6 1:0.7 2:0.3 3:0.45 4:0 \n"
"6 1:0.7 2:0.3 3:0.5 4:0 \n"
"6 1:0.7 2:0.3 3:0.7 4:0 \n"
"-6 1:0.7 2:0.3 3:0.75 4:0 \n"
"-6 1:0.7 2:0.35 3:0.3 4:0 \n"
"6 1:0.7 2:0.35 3:0.35 4:0 \n"
"3.621615447971991 1:0.7 2:0.35 3:0.4 4:0 \n"
"6 1:0.7 2:0.35 3:0.45 4:0 \n"
"6 1:0.7 2:0.35 3:0.5 4:0 \n"
"6 1:0.7 2:0.35 3:0.65 4:0 \n"
"6 1:0.7 2:0.35 3:0.7 4:0 \n"
"-0.02620114924883665 1:0.7 2:0.35 3:0.75 4:0 \n"
"-6 1:0.7 2:0.4 3:0.3 4:0 \n"
"6 1:0.7 2:0.4 3:0.35 4:0 \n"
"6 1:0.7 2:0.4 3:0.45 4:0 \n"
"6 1:0.7 2:0.4 3:0.5 4:0 \n"
"6 1:0.7 2:0.4 3:0.7 4:0 \n"
"-6 1:0.7 2:0.4 3:0.75 4:0 \n"
"6 1:0.7 2:0.45 3:0.35 4:0 \n"
"6 1:0.7 2:0.45 3:0.4 4:0 \n"
"6 1:0.7 2:0.45 3:0.45 4:0 \n"
"6 1:0.7 2:0.45 3:0.5 4:0 \n"
"6 1:0.7 2:0.45 3:0.65 4:0 \n"
"6 1:0.7 2:0.45 3:0.7 4:0 \n"
"-6 1:0.7 2:0.45 3:0.75 4:0 \n"
"6 1:0.7 2:0.5 3:0.35 4:0 \n"
"6 1:0.7 2:0.5 3:0.4 4:0 \n"
"6 1:0.7 2:0.5 3:0.45 4:0 \n"
"6 1:0.7 2:0.5 3:0.5 4:0 \n"
"6 1:0.7 2:0.5 3:0.65 4:0 \n"
"6 1:0.7 2:0.5 3:0.7 4:0 \n"
"-6 1:0.7 2:0.5 3:0.75 4:0 \n"
"-6 1:0.7 2:0.55 3:0.3 4:0 \n"
"6 1:0.7 2:0.55 3:0.35 4:0 \n"
"6 1:0.7 2:0.55 3:0.5 4:0 \n"
"6 1:0.7 2:0.55 3:0.7 4:0 \n"
"-6 1:0.7 2:0.55 3:0.75 4:0 \n"
"-6 1:0.7 2:0.6 3:0.3 4:0 \n"
"6 1:0.7 2:0.6 3:0.35 4:0 \n"
"6 1:0.7 2:0.6 3:0.4 4:0 \n"
"6 1:0.7 2:0.6 3:0.45 4:0 \n"
"6 1:0.7 2:0.6 3:0.5 4:0 \n"
"6 1:0.7 2:0.6 3:0.7 4:0 \n"
"-6 1:0.7 2:0.6 3:0.75 4:0 \n"
"6 1:0.7 2:0.65 3:0.35 4:0 \n"
"6 1:0.7 2:0.65 3:0.4 4:0 \n"
"6 1:0.7 2:0.65 3:0.45 4:0 \n"
"6 1:0.7 2:0.65 3:0.5 4:0 \n"
"6 1:0.7 2:0.65 3:0.65 4:0 \n"
"6 1:0.7 2:0.65 3:0.7 4:0 \n"
"-6 1:0.7 2:0.65 3:0.75 4:0 \n"
"6 1:0.7 2:0.7 3:0.35 4:0 \n"
"6 1:0.7 2:0.7 3:0.4 4:0 \n"
"6 1:0.7 2:0.7 3:0.45 4:0 \n"
"6 1:0.7 2:0.7 3:0.5 4:0 \n"
"4.142998976540532 1:0.7 2:0.7 3:0.6 4:0 \n"
"6 1:0.7 2:0.7 3:0.65 4:0 \n"
"6 1:0.7 2:0.7 3:0.7 4:0 \n"
"-0.006847359964886948 1:0.7 2:0.75 3:0.25 4:0 \n"
"-6 1:0.7 2:0.75 3:0.3 4:0 \n"
"0.2684870386165349 1:0.7 2:0.75 3:0.35 4:0 \n"
"6 1:0.7 2:0.75 3:0.5 4:0 \n"
"6 1:0.7 2:0.75 3:0.7 4:0 \n"
"-6 1:0.7 2:0.75 3:0.75 4:0 \n"
"-6 1:0.7 2:0.3 3:0.25 4:0.14285714 \n"
"6 1:0.7 2:0.3 3:0.55 4:0.14285714 \n"
"6 1:0.7 2:0.3 3:0.75 4:0.14285714 \n"
"2.600337860953652 1:0.7 2:0.35 3:0.55 4:0.14285714 \n"
"0.3641591733510842 1:0.7 2:0.35 3:0.75 4:0.14285714 \n"
"-6 1:0.7 2:0.4 3:0.25 4:0.14285714 \n"
"6 1:0.7 2:0.4 3:0.55 4:0.14285714 \n"
"6 1:0.7 2:0.4 3:0.75 4:0.14285714 \n"
"6 1:0.7 2:0.45 3:0.55 4:0.14285714 \n"
"0.09723417490710697 1:0.7 2:0.45 3:0.75 4:0.14285714 \n"
"-6 1:0.7 2:0.5 3:0.25 4:0.14285714 \n"
"6 1:0.7 2:0.5 3:0.75 4:0.14285714 \n"
"6 1:0.7 2:0.55 3:0.55 4:0.14285714 \n"
"1.632494529452267 1:0.7 2:0.55 3:0.65 4:0.14285714 \n"
"6 1:0.7 2:0.55 3:0.75 4:0.14285714 \n"
"-6 1:0.7 2:0.6 3:0.25 4:0.14285714 \n"
"6 1:0.7 2:0.6 3:0.55 4:0.14285714 \n"
"3.200730901331279 1:0.7 2:0.65 3:0.3 4:0.14285714 \n"
"6 1:0.7 2:0.65 3:0.55 4:0.14285714 \n"
"6 1:0.7 2:0.65 3:0.65 4:0.14285714 \n"
"6 1:0.7 2:0.65 3:0.75 4:0.14285714 \n"
"6 1:0.7 2:0.75 3:0.3 4:0.14285714 \n"
"6 1:0.7 2:0.75 3:0.4 4:0.14285714 \n"
"6 1:0.7 2:0.75 3:0.55 4:0.14285714 \n"
"6 1:0.7 2:0.75 3:0.65 4:0.14285714 \n"
"6 1:0.7 2:0.25 3:0.5 4:0.28571429 \n"
"5.569478366563374 1:0.7 2:0.25 3:0.55 4:0.28571429 \n"
"2.649695540459652 1:0.7 2:0.3 3:0.25 4:0.28571429 \n"
"6 1:0.7 2:0.5 3:0.25 4:0.28571429 \n"
"6 1:0.7 2:0.55 3:0.25 4:0.28571429 \n"
"1.187034553219519 1:0.7 2:0.6 3:0.25 4:0.28571429 \n"
"6 1:0.7 2:0.75 3:0.25 4:0.28571429 \n"
"0.6207688225348891 1:0.7 2:0.75 3:0.5 4:0.28571429 \n"
"-1.648079211119985 1:0.7 2:0.25 3:0.7 4:0.57142857 \n"
"-3.380908079627277 1:0.7 2:0.3 3:0.7 4:0.57142857 \n"
"-0.3350287411373856 1:0.7 2:0.55 3:0.7 4:0.57142857 \n"
"-1.450151930270716 1:0.7 2:0.6 3:0.7 4:0.57142857 \n"
"0.7287798498695538 1:0.7 2:0.75 3:0.55 4:0.71428571 \n"
"6 1:0.7 2:0.25 3:0.5 4:0.85714286 \n"
"0.821086112018962 1:0.7 2:0.7 3:0.55 4:0.85714286 \n"
"0.03925809540353708 1:0.7 2:0.25 3:0.5 4:1 \n"
"2.531089069237278 1:0.7 2:0.25 3:0.55 4:1 \n"
"0.04131048012908621 1:0.7 2:0.3 3:0.5 4:1 \n"
"2.74600796142798 1:0.7 2:0.75 3:0.55 4:1 \n"
"-6 1:0.75 2:0.25 3:0.25 4:0 \n"
"6 1:0.75 2:0.25 3:0.3 4:0 \n"
"-6 1:0.75 2:0.25 3:0.45 4:0 \n"
"-6 1:0.75 2:0.25 3:0.5 4:0 \n"
"-6 1:0.75 2:0.25 3:0.55 4:0 \n"
"6 1:0.75 2:0.25 3:0.7 4:0 \n"
"6 1:0.75 2:0.25 3:0.75 4:0 \n"
"-6 1:0.75 2:0.3 3:0.25 4:0 \n"
"6 1:0.75 2:0.3 3:0.3 4:0 \n"
"-0.1183732339884499 1:0.75 2:0.3 3:0.45 4:0 \n"
"-6 1:0.75 2:0.3 3:0.5 4:0 \n"
"-6 1:0.75 2:0.3 3:0.55 4:0 \n"
"6 1:0.75 2:0.3 3:0.75 4:0 \n"
"-6 1:0.75 2:0.35 3:0.25 4:0 \n"
"-6 1:0.75 2:0.35 3:0.45 4:0 \n"
"-6 1:0.75 2:0.35 3:0.5 4:0 \n"
"-6 1:0.75 2:0.35 3:0.55 4:0 \n"
"6 1:0.75 2:0.35 3:0.7 4:0 \n"
"6 1:0.75 2:0.35 3:0.75 4:0 \n"
"-6 1:0.75 2:0.4 3:0.25 4:0 \n"
"6 1:0.75 2:0.4 3:0.3 4:0 \n"
"-6 1:0.75 2:0.4 3:0.5 4:0 \n"
"-1.222541774467712 1:0.75 2:0.4 3:0.55 4:0 \n"
"0.001172045680334176 1:0.75 2:0.4 3:0.7 4:0 \n"
"6 1:0.75 2:0.4 3:0.75 4:0 \n"
"-6 1:0.75 2:0.45 3:0.25 4:0 \n"
"-6 1:0.75 2:0.45 3:0.4 4:0 \n"
"-6 1:0.75 2:0.45 3:0.45 4:0 \n"
"-6 1:0.75 2:0.45 3:0.5 4:0 \n"
"-6 1:0.75 2:0.45 3:0.55 4:0 \n"
"6 1:0.75 2:0.45 3:0.75 4:0 \n"
"-6 1:0.75 2:0.5 3:0.25 4:0 \n"
"6 1:0.75 2:0.5 3:0.3 4:0 \n"
"-6 1:0.75 2:0.5 3:0.45 4:0 \n"
"-6 1:0.75 2:0.5 3:0.5 4:0 \n"
"-6 1:0.75 2:0.5 3:0.55 4:0 \n"
"6 1:0.75 2:0.5 3:0.75 4:0 \n"
"-6 1:0.75 2:0.55 3:0.25 4:0 \n"
"6 1:0.75 2:0.55 3:0.3 4:0 \n"
"6 1:0.75 2:0.55 3:0.75 4:0 \n"
"-6 1:0.75 2:0.6 3:0.25 4:0 \n"
"-6 1:0.75 2:0.6 3:0.4 4:0 \n"
"-6 1:0.75 2:0.6 3:0.45 4:0 \n"
"-6 1:0.75 2:0.6 3:0.5 4:0 \n"
"-6 1:0.75 2:0.6 3:0.55 4:0 \n"
"0.02798361104239495 1:0.75 2:0.6 3:0.7 4:0 \n"
"6 1:0.75 2:0.6 3:0.75 4:0 \n"
"-6 1:0.75 2:0.65 3:0.25 4:0 \n"
"6 1:0.75 2:0.65 3:0.3 4:0 \n"
"-6 1:0.75 2:0.65 3:0.5 4:0 \n"
"6 1:0.75 2:0.65 3:0.7 4:0 \n"
"6 1:0.75 2:0.65 3:0.75 4:0 \n"
"-6 1:0.75 2:0.7 3:0.25 4:0 \n"
"-6 1:0.75 2:0.7 3:0.4 4:0 \n"
"-6 1:0.75 2:0.7 3:0.45 4:0 \n"
"-6 1:0.75 2:0.7 3:0.5 4:0 \n"
"-6 1:0.75 2:0.7 3:0.55 4:0 \n"
"-6 1:0.75 2:0.7 3:0.6 4:0 \n"
"6 1:0.75 2:0.7 3:0.75 4:0 \n"
"-6 1:0.75 2:0.75 3:0.25 4:0 \n"
"6 1:0.75 2:0.75 3:0.3 4:0 \n"
"-6 1:0.75 2:0.75 3:0.45 4:0 \n"
"-6 1:0.75 2:0.75 3:0.5 4:0 \n"
"-6 1:0.75 2:0.75 3:0.55 4:0 \n"
"6 1:0.75 2:0.75 3:0.75 4:0 \n"
"6 1:0.75 2:0.25 3:0.7 4:0.14285714 \n"
"1.597098253672937 1:0.75 2:0.3 3:0.35 4:0.14285714 \n"
"6 1:0.75 2:0.3 3:0.7 4:0.14285714 \n"
"-6 1:0.75 2:0.3 3:0.75 4:0.14285714 \n"
"-5.139615393461976 1:0.75 2:0.35 3:0.3 4:0.14285714 \n"
"6 1:0.75 2:0.35 3:0.7 4:0.14285714 \n"
"-6 1:0.75 2:0.35 3:0.75 4:0.14285714 \n"
"-6 1:0.75 2:0.4 3:0.3 4:0.14285714 \n"
"6 1:0.75 2:0.4 3:0.7 4:0.14285714 \n"
"-6 1:0.75 2:0.4 3:0.75 4:0.14285714 \n"
"-6 1:0.75 2:0.45 3:0.3 4:0.14285714 \n"
"6 1:0.75 2:0.45 3:0.7 4:0.14285714 \n"
"-6 1:0.75 2:0.45 3:0.75 4:0.14285714 \n"
"6 1:0.75 2:0.5 3:0.7 4:0.14285714 \n"
"-6 1:0.75 2:0.5 3:0.75 4:0.14285714 \n"
"-2.663527093219052 1:0.75 2:0.55 3:0.3 4:0.14285714 \n"
"1.939629281549517 1:0.75 2:0.55 3:0.7 4:0.14285714 \n"
"-3.396210846793731 1:0.75 2:0.55 3:0.75 4:0.14285714 \n"
"-6 1:0.75 2:0.6 3:0.3 4:0.14285714 \n"
"6 1:0.75 2:0.6 3:0.7 4:0.14285714 \n"
"-6 1:0.75 2:0.6 3:0.75 4:0.14285714 \n"
"-6 1:0.75 2:0.65 3:0.3 4:0.14285714 \n"
"-6 1:0.75 2:0.65 3:0.75 4:0.14285714 \n"
"6 1:0.75 2:0.7 3:0.35 4:0.14285714 \n"
"6 1:0.75 2:0.7 3:0.7 4:0.14285714 \n"
"-6 1:0.75 2:0.7 3:0.75 4:0.14285714 \n"
"0.4011897280242708 1:0.75 2:0.75 3:0.35 4:0.14285714 \n"
"6 1:0.75 2:0.75 3:0.7 4:0.14285714 \n"
"-3.565878679901862 1:0.75 2:0.25 3:0.65 4:0.28571429 \n"
"-0.08749910445824909 1:0.75 2:0.35 3:0.65 4:0.28571429 \n"
"-6 1:0.75 2:0.4 3:0.65 4:0.28571429 \n"
"1.415216551075492 1:0.75 2:0.45 3:0.25 4:0.28571429 \n"
"-6 1:0.75 2:0.45 3:0.65 4:0.28571429 \n"
"6 1:0.75 2:0.5 3:0.25 4:0.28571429 \n"
"-0.9424799971739277 1:0.75 2:0.5 3:0.65 4:0.28571429 \n"
"-3.112333599962695 1:0.75 2:0.55 3:0.35 4:0.28571429 \n"
"-6 1:0.75 2:0.55 3:0.65 4:0.28571429 \n"
"-6 1:0.75 2:0.6 3:0.65 4:0.28571429 \n"
"-6 1:0.75 2:0.65 3:0.65 4:0.28571429 \n"
"6 1:0.75 2:0.3 3:0.65 4:0.42857143 \n"
"0.1098354531873498 1:0.75 2:0.35 3:0.65 4:0.42857143 \n"
"3.749201055256631 1:0.75 2:0.5 3:0.65 4:0.42857143 \n"
"6 1:0.75 2:0.55 3:0.65 4:0.42857143 \n"
"6 1:0.75 2:0.65 3:0.65 4:0.42857143 \n"
"0.08542661029301943 1:0.75 2:0.7 3:0.65 4:0.42857143 \n"
"6 1:0.75 2:0.75 3:0.65 4:0.42857143 \n"
"-1.399928979818212 1:0.75 2:0.7 3:0.45 4:0.57142857 \n"
"5.910935236040319 1:0.75 2:0.75 3:0.3 4:0.57142857 \n"
"1.281012621927431 1:0.75 2:0.7 3:0.25 4:0.71428571 \n"
"0.4866453721089056 1:0.75 2:0.3 3:0.6 4:1 \n"
"0.06894721339045985 1:0.75 2:0.35 3:0.6 4:1 \n"
"0.6693091914890161 1:0.75 2:0.7 3:0.6 4:1 \n"
"-5.904358692147275 1:0.2 2:0.2 3:0.6 4:0 \n"
"4.56086965512955 1:0.2 2:0.3 3:0.25 4:0 \n"
"4.818606116998055 1:0.2 2:0.3 3:0.55 4:0 \n"
"3.005944915002551 1:0.2 2:0.3 3:0.65 4:0 \n"
"0.7260806846471475 1:0.2 2:0.3 3:0.75 4:0 \n"
"6 1:0.2 2:0.35 3:0.55 4:0 \n"
"6 1:0.2 2:0.35 3:0.65 4:0 \n"
"6 1:0.2 2:0.35 3:0.75 4:0 \n"
"6 1:0.2 2:0.4 3:0.75 4:0 \n"
"6 1:0.2 2:0.45 3:0.75 4:0 \n"
"5.986521446284468 1:0.2 2:0.5 3:0.75 4:0 \n"
"6 1:0.2 2:0.55 3:0.75 4:0 \n"
"6 1:0.2 2:0.6 3:0.75 4:0 \n"
"3.145190352034227 1:0.2 2:0.65 3:0.2 4:0 \n"
"4.27934813809526 1:0.2 2:0.65 3:0.75 4:0 \n"
"-2.026194523063195 1:0.2 2:0.8 3:0.35 4:0 \n"
"-6 1:0.25 2:0.2 3:0.65 4:0 \n"
"-2.824571334973537 1:0.25 2:0.35 3:0.8 4:0 \n"
"-6 1:0.25 2:0.4 3:0.8 4:0 \n"
"-6 1:0.25 2:0.45 3:0.8 4:0 \n"
"-6 1:0.25 2:0.5 3:0.8 4:0 \n"
"-6 1:0.25 2:0.55 3:0.2 4:0 \n"
"-6 1:0.25 2:0.55 3:0.8 4:0 \n"
"-1.525638349935112 1:0.25 2:0.6 3:0.8 4:0 \n"
"-1.209797445598882 1:0.25 2:0.8 3:0.65 4:0 \n"
"6 1:0.3 2:0.2 3:0.5 4:0 \n"
"4.099153435882259 1:0.3 2:0.5 3:0.2 4:0 \n"
"4.515379750295093 1:0.3 2:0.65 3:0.2 4:0 \n"
"6 1:0.3 2:0.7 3:0.2 4:0 \n"
"-5.721057991733871 1:0.35 2:0.3 3:0.8 4:0 \n"
"-6 1:0.35 2:0.4 3:0.8 4:0 \n"
"-5.996991803179736 1:0.35 2:0.45 3:0.2 4:0 \n"
"-0.07024190611436017 1:0.35 2:0.45 3:0.8 4:0 \n"
"-6 1:0.35 2:0.5 3:0.8 4:0 \n"
"-6 1:0.35 2:0.6 3:0.2 4:0 \n"
"-6 1:0.35 2:0.6 3:0.8 4:0 \n"
"-6 1:0.35 2:0.7 3:0.2 4:0 \n"
"-6 1:0.35 2:0.75 3:0.2 4:0 \n"
"-0.8069305859232097 1:0.35 2:0.8 3:0.2 4:0 \n"
"-1.602795963070594 1:0.35 2:0.8 3:0.25 4:0 \n"
"6 1:0.4 2:0.45 3:0.2 4:0 \n"
"6 1:0.4 2:0.55 3:0.2 4:0 \n"
"6 1:0.4 2:0.65 3:0.2 4:0 \n"
"6 1:0.4 2:0.75 3:0.2 4:0 \n"
"6 1:0.45 2:0.2 3:0.5 4:0 \n"
"-6 1:0.45 2:0.25 3:0.2 4:0 \n"
"-3.624254861714243 1:0.45 2:0.35 3:0.2 4:0 \n"
"-6 1:0.45 2:0.45 3:0.2 4:0 \n"
"-6 1:0.45 2:0.6 3:0.2 4:0 \n"
"-4.204490287320627 1:0.45 2:0.7 3:0.2 4:0 \n"
"-6 1:0.45 2:0.75 3:0.2 4:0 \n"
"1.335292479608897 1:0.5 2:0.2 3:0.2 4:0 \n"
"6 1:0.5 2:0.2 3:0.25 4:0 \n"
"6 1:0.5 2:0.2 3:0.5 4:0 \n"
"4.945346455602682 1:0.5 2:0.2 3:0.55 4:0 \n"
"-6 1:0.5 2:0.2 3:0.65 4:0 \n"
"6 1:0.5 2:0.2 3:0.7 4:0 \n"
"0.516338989686575 1:0.5 2:0.2 3:0.75 4:0 \n"
"6 1:0.5 2:0.25 3:0.2 4:0 \n"
"0.9481534277477971 1:0.5 2:0.25 3:0.8 4:0 \n"
"6 1:0.5 2:0.3 3:0.2 4:0 \n"
"6 1:0.5 2:0.35 3:0.2 4:0 \n"
"3.961542494992058 1:0.5 2:0.4 3:0.8 4:0 \n"
"6 1:0.5 2:0.45 3:0.8 4:0 \n"
"6 1:0.5 2:0.5 3:0.2 4:0 \n"
"6 1:0.5 2:0.55 3:0.2 4:0 \n"
"0.151154588316144 1:0.5 2:0.55 3:0.8 4:0 \n"
"1.537963740350108 1:0.5 2:0.6 3:0.2 4:0 \n"
"6 1:0.5 2:0.7 3:0.2 4:0 \n"
"6 1:0.5 2:0.7 3:0.8 4:0 \n"
"6 1:0.5 2:0.75 3:0.2 4:0 \n"
"3.152333721140913 1:0.5 2:0.8 3:0.25 4:0 \n"
"-2.15661669876691 1:0.5 2:0.8 3:0.3 4:0 \n"
"-0.4740061987587223 1:0.5 2:0.8 3:0.65 4:0 \n"
"6 1:0.5 2:0.8 3:0.7 4:0 \n"
"-0.002298104860656514 1:0.55 2:0.2 3:0.2 4:0 \n"
"-6 1:0.55 2:0.2 3:0.55 4:0 \n"
"-6 1:0.55 2:0.2 3:0.65 4:0 \n"
"6 1:0.55 2:0.2 3:0.7 4:0 \n"
"-6 1:0.55 2:0.25 3:0.2 4:0 \n"
"-6 1:0.55 2:0.25 3:0.8 4:0 \n"
"-6 1:0.55 2:0.3 3:0.2 4:0 \n"
"-3.655226806814238 1:0.55 2:0.3 3:0.8 4:0 \n"
"-0.00273244174567009 1:0.55 2:0.35 3:0.2 4:0 \n"
"-6 1:0.55 2:0.4 3:0.2 4:0 \n"
"-6 1:0.55 2:0.45 3:0.2 4:0 \n"
"-6 1:0.55 2:0.5 3:0.2 4:0 \n"
"-6 1:0.55 2:0.55 3:0.2 4:0 \n"
"-6 1:0.55 2:0.6 3:0.2 4:0 \n"
"-6 1:0.55 2:0.65 3:0.2 4:0 \n"
"-6 1:0.55 2:0.7 3:0.2 4:0 \n"
"-6 1:0.55 2:0.7 3:0.8 4:0 \n"
"6 1:0.55 2:0.8 3:0.3 4:0 \n"
"-6 1:0.55 2:0.8 3:0.55 4:0 \n"
"-6 1:0.55 2:0.8 3:0.65 4:0 \n"
"6 1:0.6 2:0.2 3:0.2 4:0 \n"
"6 1:0.6 2:0.2 3:0.45 4:0 \n"
"6 1:0.6 2:0.2 3:0.55 4:0 \n"
"6 1:0.6 2:0.2 3:0.65 4:0 \n"
"6 1:0.6 2:0.2 3:0.75 4:0 \n"
"2.534123874825086 1:0.6 2:0.25 3:0.2 4:0 \n"
"6 1:0.6 2:0.3 3:0.2 4:0 \n"
"0.1209751648799076 1:0.6 2:0.3 3:0.8 4:0 \n"
"6 1:0.6 2:0.35 3:0.2 4:0 \n"
"6 1:0.6 2:0.4 3:0.2 4:0 \n"
"0.6591007450563929 1:0.6 2:0.4 3:0.8 4:0 \n"
"6 1:0.6 2:0.45 3:0.2 4:0 \n"
"6 1:0.6 2:0.45 3:0.8 4:0 \n"
"6 1:0.6 2:0.5 3:0.2 4:0 \n"
"6 1:0.6 2:0.5 3:0.8 4:0 \n"
"6 1:0.6 2:0.55 3:0.2 4:0 \n"
"6 1:0.6 2:0.55 3:0.8 4:0 \n"
"6 1:0.6 2:0.6 3:0.2 4:0 \n"
"6 1:0.6 2:0.65 3:0.2 4:0 \n"
"6 1:0.6 2:0.7 3:0.2 4:0 \n"
"6 1:0.6 2:0.75 3:0.2 4:0 \n"
"-6 1:0.6 2:0.8 3:0.25 4:0 \n"
"6 1:0.6 2:0.8 3:0.55 4:0 \n"
"6 1:0.6 2:0.8 3:0.65 4:0 \n"
"6 1:0.6 2:0.8 3:0.75 4:0 \n"
"-6 1:0.65 2:0.2 3:0.2 4:0 \n"
"-5.991279691128368 1:0.65 2:0.2 3:0.35 4:0 \n"
"-6 1:0.65 2:0.2 3:0.55 4:0 \n"
"-6 1:0.65 2:0.2 3:0.65 4:0 \n"
"-6 1:0.65 2:0.2 3:0.7 4:0 \n"
"-6 1:0.65 2:0.25 3:0.2 4:0 \n"
"-6 1:0.65 2:0.3 3:0.2 4:0 \n"
"-6 1:0.65 2:0.3 3:0.8 4:0 \n"
"-6 1:0.65 2:0.35 3:0.2 4:0 \n"
"-6 1:0.65 2:0.35 3:0.8 4:0 \n"
"-6 1:0.65 2:0.4 3:0.2 4:0 \n"
"-6 1:0.65 2:0.4 3:0.8 4:0 \n"
"-6 1:0.65 2:0.45 3:0.8 4:0 \n"
"-6 1:0.65 2:0.5 3:0.8 4:0 \n"
"-6 1:0.65 2:0.55 3:0.2 4:0 \n"
"-6 1:0.65 2:0.55 3:0.8 4:0 \n"
"-6 1:0.65 2:0.6 3:0.2 4:0 \n"
"-6 1:0.65 2:0.6 3:0.8 4:0 \n"
"-6 1:0.65 2:0.65 3:0.2 4:0 \n"
"-6 1:0.65 2:0.65 3:0.8 4:0 \n"
"-6 1:0.65 2:0.7 3:0.2 4:0 \n"
"-6 1:0.65 2:0.7 3:0.8 4:0 \n"
"-5.742904651506275 1:0.65 2:0.75 3:0.8 4:0 \n"
"6 1:0.65 2:0.8 3:0.25 4:0 \n"
"-6 1:0.65 2:0.8 3:0.65 4:0 \n"
"-6 1:0.65 2:0.8 3:0.7 4:0 \n"
"6 1:0.7 2:0.2 3:0.2 4:0 \n"
"-2.88447430827698 1:0.7 2:0.2 3:0.3 4:0 \n"
"6 1:0.7 2:0.2 3:0.35 4:0 \n"
"3.134195474363891 1:0.7 2:0.2 3:0.45 4:0 \n"
"6 1:0.7 2:0.2 3:0.5 4:0 \n"
"6 1:0.7 2:0.2 3:0.65 4:0 \n"
"6 1:0.7 2:0.2 3:0.7 4:0 \n"
"-6 1:0.7 2:0.2 3:0.75 4:0 \n"
"6 1:0.7 2:0.25 3:0.2 4:0 \n"
"6 1:0.7 2:0.3 3:0.2 4:0 \n"
"6 1:0.7 2:0.35 3:0.8 4:0 \n"
"6 1:0.7 2:0.4 3:0.2 4:0 \n"
"6 1:0.7 2:0.4 3:0.8 4:0 \n"
"6 1:0.7 2:0.45 3:0.2 4:0 \n"
"0.01055957846050276 1:0.7 2:0.45 3:0.8 4:0 \n"
"6 1:0.7 2:0.5 3:0.2 4:0 \n"
"6 1:0.7 2:0.5 3:0.8 4:0 \n"
"6 1:0.7 2:0.6 3:0.2 4:0 \n"
"2.573096668810312 1:0.7 2:0.6 3:0.8 4:0 \n"
"6 1:0.7 2:0.65 3:0.2 4:0 \n"
"6 1:0.7 2:0.7 3:0.2 4:0 \n"
"6 1:0.7 2:0.7 3:0.8 4:0 \n"
"1.347520896221904 1:0.7 2:0.8 3:0.2 4:0 \n"
"-6 1:0.7 2:0.8 3:0.3 4:0 \n"
"6 1:0.7 2:0.8 3:0.35 4:0 \n"
"6 1:0.7 2:0.8 3:0.5 4:0 \n"
"6 1:0.7 2:0.8 3:0.65 4:0 \n"
"6 1:0.7 2:0.8 3:0.7 4:0 \n"
"-6 1:0.7 2:0.8 3:0.75 4:0 \n"
"-6 1:0.75 2:0.2 3:0.2 4:0 \n"
"-6 1:0.75 2:0.2 3:0.25 4:0 \n"
"-6 1:0.75 2:0.2 3:0.45 4:0 \n"
"-6 1:0.75 2:0.2 3:0.5 4:0 \n"
"-6 1:0.75 2:0.2 3:0.55 4:0 \n"
"6 1:0.75 2:0.2 3:0.7 4:0 \n"
"6 1:0.75 2:0.2 3:0.75 4:0 \n"
"-6 1:0.75 2:0.2 3:0.8 4:0 \n"
"-6 1:0.75 2:0.25 3:0.2 4:0 \n"
"-6 1:0.75 2:0.25 3:0.8 4:0 \n"
"-6 1:0.75 2:0.3 3:0.2 4:0 \n"
"-6 1:0.75 2:0.3 3:0.8 4:0 \n"
"-6 1:0.75 2:0.35 3:0.2 4:0 \n"
"-6 1:0.75 2:0.35 3:0.8 4:0 \n"
"-6 1:0.75 2:0.4 3:0.2 4:0 \n"
"-6 1:0.75 2:0.4 3:0.8 4:0 \n"
"-6 1:0.75 2:0.45 3:0.2 4:0 \n"
"-6 1:0.75 2:0.45 3:0.8 4:0 \n"
"-6 1:0.75 2:0.5 3:0.2 4:0 \n"
"-6 1:0.75 2:0.5 3:0.8 4:0 \n"
"-6 1:0.75 2:0.55 3:0.2 4:0 \n"
"-6 1:0.75 2:0.55 3:0.8 4:0 \n"
"-6 1:0.75 2:0.6 3:0.2 4:0 \n"
"-6 1:0.75 2:0.6 3:0.8 4:0 \n"
"-6 1:0.75 2:0.65 3:0.2 4:0 \n"
"-6 1:0.75 2:0.65 3:0.8 4:0 \n"
"-6 1:0.75 2:0.7 3:0.2 4:0 \n"
"-6 1:0.75 2:0.7 3:0.8 4:0 \n"
"-6 1:0.75 2:0.75 3:0.2 4:0 \n"
"-6 1:0.75 2:0.75 3:0.8 4:0 \n"
"-6 1:0.75 2:0.8 3:0.2 4:0 \n"
"-6 1:0.75 2:0.8 3:0.25 4:0 \n"
"6 1:0.75 2:0.8 3:0.3 4:0 \n"
"2.990318467279877 1:0.75 2:0.8 3:0.7 4:0 \n"
"6 1:0.75 2:0.8 3:0.75 4:0 \n"
"-6 1:0.75 2:0.8 3:0.8 4:0 \n"
"6 1:0.8 2:0.2 3:0.2 4:0 \n"
"1.653046582842837 1:0.8 2:0.2 3:0.8 4:0 \n"
"6 1:0.8 2:0.25 3:0.2 4:0 \n"
"6 1:0.8 2:0.25 3:0.25 4:0 \n"
"2.067292214056787 1:0.8 2:0.25 3:0.3 4:0 \n"
"5.036366037547173 1:0.8 2:0.3 3:0.8 4:0 \n"
"6 1:0.8 2:0.35 3:0.2 4:0 \n"
"6 1:0.8 2:0.35 3:0.25 4:0 \n"
"6 1:0.8 2:0.45 3:0.2 4:0 \n"
"1.75193236943067 1:0.8 2:0.55 3:0.2 4:0 \n"
"6 1:0.8 2:0.55 3:0.25 4:0 \n"
"3.731705704241064 1:0.8 2:0.55 3:0.8 4:0 \n"
"6 1:0.8 2:0.65 3:0.2 4:0 \n"
"6 1:0.8 2:0.65 3:0.25 4:0 \n"
"6 1:0.8 2:0.65 3:0.3 4:0 \n"
"6 1:0.8 2:0.65 3:0.35 4:0 \n"
"6 1:0.8 2:0.65 3:0.8 4:0 \n"
"6 1:0.8 2:0.75 3:0.2 4:0 \n"
"6 1:0.8 2:0.75 3:0.25 4:0 \n"
"6 1:0.8 2:0.75 3:0.3 4:0 \n"
"0.3156402117986609 1:0.8 2:0.75 3:0.35 4:0 \n"
"6 1:0.8 2:0.75 3:0.8 4:0 \n"
"-6 1:0.8 2:0.8 3:0.5 4:0 \n"
"-0.6334740843539751 1:0.8 2:0.8 3:0.55 4:0 \n"
"-0.009123756830660338 1:0.2 2:0.2 3:0.45 4:0.14285714 \n"
"-0.1439832169818641 1:0.2 2:0.2 3:0.5 4:0.14285714 \n"
"-3.414826964241341 1:0.2 2:0.45 3:0.2 4:0.14285714 \n"
"-4.100417202828808 1:0.2 2:0.45 3:0.7 4:0.14285714 \n"
"-3.019835586515191 1:0.2 2:0.5 3:0.75 4:0.14285714 \n"
"-0.0110848091830837 1:0.25 2:0.2 3:0.45 4:0.14285714 \n"
"0.04218614919396053 1:0.4 2:0.8 3:0.8 4:0.14285714 \n"
"-6 1:0.45 2:0.2 3:0.7 4:0.14285714 \n"
"4.018289665122757 1:0.5 2:0.2 3:0.75 4:0.14285714 \n"
"1.496969779073991 1:0.5 2:0.55 3:0.2 4:0.14285714 \n"
"6 1:0.5 2:0.65 3:0.2 4:0.14285714 \n"
"1.68161838567161 1:0.5 2:0.75 3:0.8 4:0.14285714 \n"
"6 1:0.55 2:0.5 3:0.2 4:0.14285714 \n"
"0.9342601064250804 1:0.65 2:0.2 3:0.5 4:0.14285714 \n"
"-6 1:0.65 2:0.2 3:0.65 4:0.14285714 \n"
"6 1:0.65 2:0.5 3:0.2 4:0.14285714 \n"
"1.558212670652368 1:0.65 2:0.7 3:0.2 4:0.14285714 \n"
"-6 1:0.65 2:0.8 3:0.65 4:0.14285714 \n"
"-3.817549478547452 1:0.7 2:0.2 3:0.25 4:0.14285714 \n"
"6 1:0.7 2:0.2 3:0.55 4:0.14285714 \n"
"6 1:0.7 2:0.2 3:0.65 4:0.14285714 \n"
"0.6776964849962659 1:0.7 2:0.2 3:0.75 4:0.14285714 \n"
"6 1:0.7 2:0.45 3:0.2 4:0.14285714 \n"
"5.085313654196646 1:0.7 2:0.55 3:0.2 4:0.14285714 \n"
"4.873240236717185 1:0.7 2:0.65 3:0.2 4:0.14285714 \n"
"-6 1:0.7 2:0.8 3:0.25 4:0.14285714 \n"
"6 1:0.75 2:0.2 3:0.7 4:0.14285714 \n"
"-6 1:0.75 2:0.2 3:0.75 4:0.14285714 \n"
"0.7889827737408183 1:0.75 2:0.3 3:0.2 4:0.14285714 \n"
"6 1:0.75 2:0.8 3:0.7 4:0.14285714 \n"
"-4.78251597976453 1:0.75 2:0.8 3:0.75 4:0.14285714 \n"
"0.5638578031690181 1:0.8 2:0.2 3:0.2 4:0.14285714 \n"
"-6 1:0.8 2:0.2 3:0.45 4:0.14285714 \n"
"-6 1:0.8 2:0.2 3:0.5 4:0.14285714 \n"
"-2.665177851177924 1:0.8 2:0.2 3:0.55 4:0.14285714 \n"
"-0.1586498424023796 1:0.8 2:0.65 3:0.45 4:0.14285714 \n"
"-6 1:0.8 2:0.75 3:0.45 4:0.14285714 \n"
"-4.844735261550868 1:0.8 2:0.75 3:0.5 4:0.14285714 \n"
"-6 1:0.8 2:0.8 3:0.45 4:0.14285714 \n"
"-6 1:0.8 2:0.8 3:0.5 4:0.14285714 \n"
"0.5177655833768761 1:0.2 2:0.2 3:0.2 4:0.28571429 \n"
"-0.7075147883634029 1:0.2 2:0.2 3:0.5 4:0.28571429 \n"
"0.2194468993142011 1:0.2 2:0.3 3:0.65 4:0.28571429 \n"
"-2.144082354002127 1:0.25 2:0.5 3:0.8 4:0.28571429 \n"
"1.014407935069668 1:0.4 2:0.65 3:0.2 4:0.28571429 \n"
"0.1928137186005057 1:0.4 2:0.75 3:0.2 4:0.28571429 \n"
"1.770148539252536 1:0.5 2:0.5 3:0.2 4:0.28571429 \n"
"0.01613684502444158 1:0.5 2:0.7 3:0.2 4:0.28571429 \n"
"0.307386778017526 1:0.6 2:0.8 3:0.35 4:0.28571429 \n"
"-1.94911493960615 1:0.65 2:0.7 3:0.2 4:0.28571429 \n"
"1.399953351203013 1:0.65 2:0.8 3:0.3 4:0.28571429 \n"
"4.341644529567752 1:0.7 2:0.2 3:0.5 4:0.28571429 \n"
"-6 1:0.75 2:0.2 3:0.65 4:0.28571429 \n"
"-6 1:0.75 2:0.55 3:0.2 4:0.28571429 \n"
"-6 1:0.75 2:0.6 3:0.2 4:0.28571429 \n"
"-6 1:0.75 2:0.65 3:0.2 4:0.28571429 \n"
"-6 1:0.75 2:0.75 3:0.2 4:0.28571429 \n"
"6 1:0.75 2:0.8 3:0.25 4:0.28571429 \n"
"0.8720967150240585 1:0.8 2:0.25 3:0.2 4:0.28571429 \n"
"6 1:0.8 2:0.25 3:0.25 4:0.28571429 \n"
"3.870038097509662 1:0.8 2:0.25 3:0.3 4:0.28571429 \n"
"0.5121571770759173 1:0.8 2:0.3 3:0.8 4:0.28571429 \n"
"2.604169420901777 1:0.8 2:0.35 3:0.25 4:0.28571429 \n"
"1.49424629153628 1:0.8 2:0.4 3:0.8 4:0.28571429 \n"
"0.2667059825315263 1:0.8 2:0.55 3:0.8 4:0.28571429 \n"
"0.870844108615766 1:0.8 2:0.65 3:0.25 4:0.28571429 \n"
"5.98796820959632 1:0.8 2:0.65 3:0.3 4:0.28571429 \n"
"1.73833295335724 1:0.8 2:0.75 3:0.25 4:0.28571429 \n"
"6 1:0.8 2:0.75 3:0.3 4:0.28571429 \n"
"0.6985370812683679 1:0.8 2:0.75 3:0.65 4:0.28571429 \n"
"0.4979737172929222 1:0.2 2:0.2 3:0.2 4:0.42857143 \n"
"1.437062947179354 1:0.55 2:0.55 3:0.2 4:0.42857143 \n"
"6 1:0.75 2:0.2 3:0.65 4:0.42857143 \n"
"6 1:0.75 2:0.8 3:0.65 4:0.42857143 \n"
"-5.734201815881308 1:0.8 2:0.2 3:0.45 4:0.42857143 \n"
"-5.480338650145323 1:0.8 2:0.8 3:0.45 4:0.42857143 \n"
"0.08297774149908671 1:0.2 2:0.2 3:0.2 4:0.57142857 \n"
"0.3480924198738605 1:0.2 2:0.3 3:0.65 4:0.57142857 \n"
"-1.632577766879177 1:0.25 2:0.45 3:0.2 4:0.57142857 \n"
"-3.990730295806314 1:0.75 2:0.7 3:0.2 4:0.57142857 \n"
"2.735356191267813 1:0.75 2:0.8 3:0.3 4:0.57142857 \n"
"-6 1:0.8 2:0.2 3:0.45 4:0.57142857 \n"
"-0.5884228276107144 1:0.8 2:0.2 3:0.5 4:0.57142857 \n"
"-2.557821419481616 1:0.8 2:0.5 3:0.45 4:0.57142857 \n"
"-1.19001369962519 1:0.8 2:0.6 3:0.45 4:0.57142857 \n"
"0.06775470548436896 1:0.8 2:0.65 3:0.25 4:0.57142857 \n"
"-0.3490535319258909 1:0.8 2:0.7 3:0.45 4:0.57142857 \n"
"5.305776378341506 1:0.8 2:0.75 3:0.3 4:0.57142857 \n"
"-6 1:0.8 2:0.8 3:0.45 4:0.57142857 \n"
"-6 1:0.8 2:0.8 3:0.5 4:0.57142857 \n"
"0.1538038775174529 1:0.2 2:0.2 3:0.2 4:0.71428571 \n"
"-0.1828824712826803 1:0.2 2:0.45 3:0.2 4:0.71428571 \n"
"-0.8737277607019317 1:0.2 2:0.5 3:0.8 4:0.71428571 \n"
"0.1369779050917318 1:0.35 2:0.2 3:0.2 4:0.71428571 \n"
"0.4295122578913499 1:0.45 2:0.75 3:0.8 4:0.71428571 \n"
"1.251041706271675 1:0.45 2:0.8 3:0.8 4:0.71428571 \n"
"6 1:0.5 2:0.55 3:0.2 4:0.71428571 \n"
"4.619802644857349 1:0.5 2:0.55 3:0.8 4:0.71428571 \n"
"2.912623117061601 1:0.7 2:0.2 3:0.55 4:0.71428571 \n"
"0.2415476739041307 1:0.75 2:0.2 3:0.7 4:0.71428571 \n"
"5.397092052194423 1:0.75 2:0.8 3:0.7 4:0.71428571 \n"
"1.468942838219324 1:0.8 2:0.2 3:0.25 4:0.71428571 \n"
"-1.332120608239441 1:0.8 2:0.2 3:0.45 4:0.71428571 \n"
"0.9863896420968373 1:0.8 2:0.25 3:0.7 4:0.71428571 \n"
"-0.2414088780619837 1:0.8 2:0.5 3:0.45 4:0.71428571 \n"
"-4.225988229310339 1:0.8 2:0.8 3:0.45 4:0.71428571 \n"
"0.03740707553726266 1:0.2 2:0.3 3:0.55 4:0.85714286 \n"
"-0.301200793355295 1:0.2 2:0.45 3:0.2 4:0.85714286 \n"
"-0.2770832040182946 1:0.2 2:0.45 3:0.8 4:0.85714286 \n"
"-1.566690603004753 1:0.2 2:0.5 3:0.8 4:0.85714286 \n"
"0.1776162780045412 1:0.2 2:0.65 3:0.45 4:0.85714286 \n"
"0.5556138984647317 1:0.2 2:0.65 3:0.55 4:0.85714286 \n"
"-0.08445121136121865 1:0.3 2:0.8 3:0.3 4:0.85714286 \n"
"2.257131895093657 1:0.35 2:0.3 3:0.8 4:0.85714286 \n"
"1.5764224592058 1:0.35 2:0.4 3:0.8 4:0.85714286 \n"
"0.4060934898694096 1:0.35 2:0.5 3:0.8 4:0.85714286 \n"
"1.513079369625503 1:0.35 2:0.6 3:0.2 4:0.85714286 \n"
"0.7602421850812123 1:0.35 2:0.6 3:0.8 4:0.85714286 \n"
"0.2803839286671442 1:0.35 2:0.7 3:0.8 4:0.85714286 \n"
"-0.2070337426239501 1:0.5 2:0.2 3:0.7 4:0.85714286 \n"
"-3.965907753332814 1:0.65 2:0.2 3:0.2 4:0.85714286 \n"
"-2.186847341516683 1:0.65 2:0.25 3:0.8 4:0.85714286 \n"
"-2.982379075492094 1:0.65 2:0.7 3:0.2 4:0.85714286 \n"
"-0.5427184410652199 1:0.65 2:0.7 3:0.8 4:0.85714286 \n"
"-0.5064265543431163 1:0.65 2:0.8 3:0.2 4:0.85714286 \n"
"-0.5812024796721958 1:0.65 2:0.8 3:0.8 4:0.85714286 \n"
"1.274777187199123 1:0.7 2:0.2 3:0.5 4:0.85714286 \n"
"2.413717202530259 1:0.7 2:0.2 3:0.55 4:0.85714286 \n"
"6 1:0.7 2:0.8 3:0.55 4:0.85714286 \n"
"-2.938844356630863 1:0.75 2:0.35 3:0.2 4:0.85714286 \n"
"-0.5988478098315583 1:0.75 2:0.45 3:0.2 4:0.85714286 \n"
"-0.4391562626096359 1:0.75 2:0.5 3:0.8 4:0.85714286 \n"
"-1.851639230363753 1:0.75 2:0.6 3:0.2 4:0.85714286 \n"
"-0.0005975708196321703 1:0.75 2:0.6 3:0.8 4:0.85714286 \n"
"-0.05227559475983204 1:0.75 2:0.7 3:0.8 4:0.85714286 \n"
"-6 1:0.75 2:0.75 3:0.2 4:0.85714286 \n"
"-4.74242089930102 1:0.75 2:0.75 3:0.8 4:0.85714286 \n"
"4.598040999217551 1:0.8 2:0.25 3:0.25 4:0.85714286 \n"
"1.96033970633703 1:0.8 2:0.65 3:0.3 4:0.85714286 \n"
"1.750850401698906 1:0.8 2:0.75 3:0.25 4:0.85714286 \n"
"6 1:0.8 2:0.75 3:0.3 4:0.85714286 \n"
"4.300582840148838 1:0.8 2:0.75 3:0.65 4:0.85714286 \n"
"-0.04918518065653677 1:0.8 2:0.8 3:0.45 4:0.85714286 \n"
"-1.041132872720661 1:0.8 2:0.8 3:0.5 4:0.85714286 \n"
"1.39659313408275 1:0.2 2:0.2 3:0.2 4:1 \n"
"-1.765280155107174 1:0.2 2:0.4 3:0.2 4:1 \n"
"-0.01233021966967218 1:0.2 2:0.5 3:0.8 4:1 \n"
"0.06367326685438204 1:0.2 2:0.65 3:0.5 4:1 \n"
"0.5214435336221551 1:0.2 2:0.7 3:0.2 4:1 \n"
"0.2874779407105904 1:0.2 2:0.8 3:0.8 4:1 \n"
"-0.2184897420411502 1:0.5 2:0.2 3:0.7 4:1 \n"
"-0.2818655674382837 1:0.55 2:0.8 3:0.2 4:1 \n"
"-0.04185550745806783 1:0.6 2:0.8 3:0.2 4:1 \n"
"-1.397593420515506 1:0.65 2:0.2 3:0.2 4:1 \n"
"0.9453740621467689 1:0.65 2:0.2 3:0.5 4:1 \n"
"-0.01402072353797264 1:0.65 2:0.2 3:0.8 4:1 \n"
"-0.1444666783224026 1:0.65 2:0.8 3:0.2 4:1 \n"
"0.03701098953785353 1:0.65 2:0.8 3:0.45 4:1 \n"
"5.227902903695246 1:0.7 2:0.2 3:0.55 4:1 \n"
"1.552637424639829 1:0.7 2:0.8 3:0.6 4:1 \n"
"6 1:0.75 2:0.8 3:0.3 4:1 \n"
"2.564039111721919 1:0.75 2:0.8 3:0.65 4:1 \n"
"4.430300938266341 1:0.8 2:0.2 3:0.2 4:1 \n"
"-5.078041596207374 1:0.8 2:0.2 3:0.4 4:1 \n"
"-6 1:0.8 2:0.2 3:0.45 4:1 \n"
"-6 1:0.8 2:0.2 3:0.5 4:1 \n"
"3.386023664752421 1:0.8 2:0.2 3:0.7 4:1 \n"
"2.307047674106813 1:0.8 2:0.25 3:0.25 4:1 \n"
"0.001320867432369689 1:0.8 2:0.25 3:0.65 4:1 \n"
"1.548883259838699 1:0.8 2:0.7 3:0.3 4:1 \n"
"2.099805751477373 1:0.8 2:0.75 3:0.3 4:1 \n"
"-6 1:0.8 2:0.75 3:0.45 4:1 \n"
"-3.174186941279361 1:0.8 2:0.75 3:0.5 4:1 \n"
"4.340630035088088 1:0.8 2:0.75 3:0.7 4:1 \n"
"1.225974887441521 1:0.8 2:0.8 3:0.3 4:1 \n"
"-6 1:0.8 2:0.8 3:0.45 4:1 \n"
"-6 1:0.8 2:0.8 3:0.5 4:1 \n";
